%YAML:1.0
---
opencv_ml_svm:
   format: 3
   svmType: C_SVC
   kernel:
      type: RBF
      gamma: 5.0624999999999998e-01
   C: 1.2500000000000000e+01
   term_criteria: { epsilon:1.1920928955078125e-07, iterations:1000 }
   var_count: 324
   class_count: 4
   class_labels: !!opencv-matrix
      rows: 4
      cols: 1
      dt: i
      data: [ 0, 1, 2, 3 ]
   sv_total: 169
   support_vectors:
      - [ 3.46839577e-01, 2.01288000e-01, 8.39061290e-02, 9.92294326e-02,
          5.25122344e-01, 5.25122344e-01, 5.07917583e-01, 7.47729689e-02,
          4.44525182e-02, 1.29944324e-01, 2.38606229e-01, 4.00551885e-01,
          9.82348993e-02, 5.69461167e-01, 5.69461167e-01, 3.16282213e-01,
          2.74866652e-02, 3.22663561e-02, 3.56340349e-01, 3.56340349e-01,
          3.56340349e-01, 3.56340349e-01, 3.56340349e-01, 3.56340349e-01,
          2.51516700e-01, 3.56340349e-01, 2.10547119e-01, 5.87066263e-02,
          1.00083999e-01, 1.33811027e-01, 3.88034396e-02, 1.54574409e-01,
          6.01240039e-01, 6.01240039e-01, 4.59773898e-01, 5.34591265e-02,
          4.05934364e-01, 5.85399091e-01, 5.85399091e-01, 1.65485740e-01,
          2.17422709e-01, 1.90352052e-01, 1.87690407e-02, 5.10424003e-02,
          1.73603311e-01, 3.33525389e-01, 3.33525389e-01, 3.33525389e-01,
          3.33525389e-01, 3.33525389e-01, 3.26732218e-01, 3.33525389e-01,
          3.33525389e-01, 3.33525389e-01, 1.42241061e-01, 2.54774123e-01,
          9.31679532e-02, 3.13038751e-02, 5.07857502e-02, 5.43023288e-01,
          5.43023288e-01, 5.43023288e-01, 1.12127125e-01, 4.65189606e-01,
          4.65189606e-01, 4.65189606e-01, 1.27816081e-01, 3.12791049e-01,
          4.60102856e-01, 1.00261867e-01, 5.69288395e-02, 8.35833997e-02,
          3.53004217e-01, 3.53004217e-01, 2.75911123e-01, 3.53004217e-01,
          3.53004217e-01, 3.53004217e-01, 2.19230816e-01, 3.53004217e-01,
          3.53004217e-01, 1.42241061e-01, 2.54774123e-01, 9.31679532e-02,
          3.13038751e-02, 5.07857502e-02, 5.43023288e-01, 5.43023288e-01,
          5.43023288e-01, 1.12127125e-01, 4.65189606e-01, 4.65189606e-01,
          4.65189606e-01, 1.27816081e-01, 3.12791049e-01, 4.60102856e-01,
          1.00261867e-01, 5.69288395e-02, 8.35833997e-02, 3.53004217e-01,
          3.53004217e-01, 2.75911123e-01, 3.53004217e-01, 3.53004217e-01,
          3.53004217e-01, 2.19230816e-01, 3.53004217e-01, 3.53004217e-01,
          5.54658175e-02, 8.96271020e-02, 1.05287403e-01, 1.47481784e-01,
          1.38603479e-01, 3.48281637e-02, 4.83124822e-01, 5.90054631e-01,
          5.90054631e-01, 3.94038647e-01, 3.94038647e-01, 3.94038647e-01,
          3.94038647e-01, 1.44897997e-01, 1.88538447e-01, 8.90082791e-02,
          3.94038647e-01, 3.94038647e-01, 3.50187868e-01, 3.36780787e-01,
          3.50187868e-01, 3.50187868e-01, 3.50187868e-01, 3.50187868e-01,
          1.57031909e-01, 3.50187868e-01, 3.50187868e-01, 8.45013708e-02,
          3.03057522e-01, 4.42172498e-01, 1.89654559e-01, 7.88328424e-02,
          1.01401046e-01, 3.71208489e-01, 5.05070984e-01, 5.05070984e-01,
          3.67441446e-01, 3.67441446e-01, 3.67441446e-01, 3.67441446e-01,
          2.27009565e-01, 2.76507944e-01, 2.41370350e-01, 3.67441446e-01,
          3.67441446e-01, 3.59127879e-01, 1.87441811e-01, 2.41800711e-01,
          3.59127879e-01, 3.59127879e-01, 3.59127879e-01, 3.59127879e-01,
          3.59127879e-01, 3.59127879e-01, 3.56340349e-01, 3.56340349e-01,
          3.56340349e-01, 3.56340349e-01, 3.56340349e-01, 3.56340349e-01,
          2.51516700e-01, 3.56340349e-01, 2.10547119e-01, 1.63924143e-01,
          3.57254893e-01, 3.57254893e-01, 3.57254893e-01, 3.57254893e-01,
          2.75938869e-01, 3.57254893e-01, 3.57254893e-01, 3.57254893e-01,
          1.60258412e-01, 1.03635773e-01, 4.08181012e-01, 4.08181012e-01,
          3.78039896e-01, 1.81514502e-01, 4.08181012e-01, 3.75672638e-01,
          3.77720177e-01, 3.33525389e-01, 3.33525389e-01, 3.33525389e-01,
          3.33525389e-01, 3.33525389e-01, 3.26732218e-01, 3.33525389e-01,
          3.33525389e-01, 3.33525389e-01, 3.28345507e-01, 1.38780057e-01,
          2.33922809e-01, 3.68449122e-01, 3.68449122e-01, 3.68449122e-01,
          3.68449122e-01, 3.68449122e-01, 3.68449122e-01, 1.35778382e-01,
          1.36712909e-01, 4.25616711e-01, 4.25616711e-01, 3.70131612e-01,
          4.25616711e-01, 4.25616711e-01, 2.77645022e-01, 1.41207978e-01,
          3.53004217e-01, 3.53004217e-01, 2.75911123e-01, 3.53004217e-01,
          3.53004217e-01, 3.53004217e-01, 2.19230816e-01, 3.53004217e-01,
          3.53004217e-01, 2.74576932e-01, 3.76882777e-02, 1.18753687e-01,
          4.15965170e-01, 4.15965170e-01, 1.99484795e-01, 4.15965170e-01,
          4.15965170e-01, 4.15965170e-01, 1.58148587e-01, 2.01259807e-01,
          4.48060006e-01, 1.40128896e-01, 4.48060006e-01, 2.75057167e-01,
          4.48060006e-01, 4.48060006e-01, 1.78001285e-01, 3.53004217e-01,
          3.53004217e-01, 2.75911123e-01, 3.53004217e-01, 3.53004217e-01,
          3.53004217e-01, 2.19230816e-01, 3.53004217e-01, 3.53004217e-01,
          2.74576932e-01, 3.76882777e-02, 1.18753687e-01, 4.15965170e-01,
          4.15965170e-01, 1.99484795e-01, 4.15965170e-01, 4.15965170e-01,
          4.15965170e-01, 1.58148587e-01, 2.01259807e-01, 4.48060006e-01,
          1.40128896e-01, 4.48060006e-01, 2.75057167e-01, 4.48060006e-01,
          4.48060006e-01, 1.78001285e-01, 3.50187868e-01, 3.36780787e-01,
          3.50187868e-01, 3.50187868e-01, 3.50187868e-01, 3.50187868e-01,
          1.57031909e-01, 3.50187868e-01, 3.50187868e-01, 2.99754739e-01,
          3.94605368e-01, 2.86096066e-01, 2.38482073e-01, 2.20033869e-01,
          3.94605368e-01, 3.94605368e-01, 3.94605368e-01, 3.10180098e-01,
          3.64178240e-01, 4.93569374e-01, 4.93569374e-01, 2.18264069e-02,
          3.71186174e-02, 2.78407186e-02, 4.93569374e-01, 2.64965385e-01,
          2.42438778e-01, 3.59127879e-01, 1.87441811e-01, 2.41800711e-01,
          3.59127879e-01, 3.59127879e-01, 3.59127879e-01, 3.59127879e-01,
          3.59127879e-01, 3.59127879e-01, 3.73541653e-01, 3.57285827e-01,
          4.81094606e-02, 1.70587644e-01, 3.73541653e-01, 3.73541653e-01,
          3.73541653e-01, 3.73541653e-01, 3.73541653e-01, 5.19501984e-01,
          5.19501984e-01, 2.02499136e-01, 2.02748571e-02, 9.79947001e-02,
          3.68901670e-01, 1.12472467e-01, 2.90756151e-02, 5.04423738e-01 ]
      - [ 1.23930529e-01, 1.66909888e-01, 5.56997247e-02, 1.91283207e-02,
          5.29733181e-01, 5.29733181e-01, 5.29733181e-01, 3.25761974e-01,
          7.15502910e-03, 3.64499450e-01, 4.29719985e-01, 4.29719985e-01,
          7.03855082e-02, 3.46701771e-01, 4.29719985e-01, 4.06258851e-01,
          1.12894177e-01, 7.69560412e-02, 3.56462002e-01, 3.56462002e-01,
          3.56462002e-01, 3.56462002e-01, 3.04728776e-01, 3.08120370e-01,
          3.56462002e-01, 3.56462002e-01, 2.15057582e-01, 7.30643049e-02,
          3.63816321e-02, 3.73729058e-02, 2.64794435e-02, 8.47213715e-02,
          5.69470584e-01, 5.69470584e-01, 5.69470584e-01, 7.40645677e-02,
          4.62030530e-01, 5.43498695e-01, 5.43498695e-01, 1.48285180e-01,
          2.90927798e-01, 2.60486573e-01, 8.44151452e-02, 4.30704877e-02,
          8.28069001e-02, 3.43320817e-01, 3.43320817e-01, 3.43320817e-01,
          3.43320817e-01, 3.43320817e-01, 3.43320817e-01, 2.31551811e-01,
          3.43320817e-01, 3.43320817e-01, 2.43742675e-01, 1.42629370e-01,
          1.28882602e-01, 6.51678741e-02, 3.38338107e-01, 3.06006134e-01,
          5.48550844e-01, 5.48550844e-01, 2.89797127e-01, 4.68957484e-01,
          4.68957484e-01, 4.68957484e-01, 1.70441806e-01, 1.48609012e-01,
          4.61480975e-01, 2.03295752e-01, 1.37647271e-01, 1.05721317e-01,
          3.56331319e-01, 3.56331319e-01, 2.84284025e-01, 3.56331319e-01,
          3.56331319e-01, 3.56331319e-01, 1.63763672e-01, 3.56331319e-01,
          3.56331319e-01, 2.43742675e-01, 1.42629370e-01, 1.28882602e-01,
          6.51678741e-02, 3.38338107e-01, 3.06006134e-01, 5.48550844e-01,
          5.48550844e-01, 2.89797127e-01, 4.68957484e-01, 4.68957484e-01,
          4.68957484e-01, 1.70441806e-01, 1.48609012e-01, 4.61480975e-01,
          2.03295752e-01, 1.37647271e-01, 1.05721317e-01, 3.56331319e-01,
          3.56331319e-01, 2.84284025e-01, 3.56331319e-01, 3.56331319e-01,
          3.56331319e-01, 1.63763672e-01, 3.56331319e-01, 3.56331319e-01,
          3.20236981e-02, 4.96814512e-02, 1.27048343e-01, 1.27761766e-01,
          1.17396116e-01, 9.18862000e-02, 5.05622208e-01, 5.83240628e-01,
          5.83240628e-01, 4.14213002e-01, 4.14213002e-01, 4.14213002e-01,
          4.14213002e-01, 9.47832987e-02, 1.34778619e-01, 8.60242769e-02,
          3.21637809e-01, 4.14213002e-01, 3.73962581e-01, 2.70700365e-01,
          2.48551846e-01, 3.73962581e-01, 3.73962581e-01, 3.73962581e-01,
          1.48725227e-01, 3.73962581e-01, 3.73962581e-01, 3.57316323e-02,
          7.24725798e-02, 4.45335895e-01, 3.40991616e-01, 2.10841432e-01,
          2.83861868e-02, 3.25251341e-01, 5.11232615e-01, 5.11232615e-01,
          3.53114814e-01, 3.53114814e-01, 3.53114814e-01, 3.53114814e-01,
          2.75173664e-01, 3.11646819e-01, 2.74749398e-01, 3.53114814e-01,
          3.53114814e-01, 2.99686342e-01, 2.28988886e-01, 1.86253116e-01,
          3.69542480e-01, 3.69542480e-01, 3.69542480e-01, 3.69542480e-01,
          3.69542480e-01, 3.69542480e-01, 3.56462002e-01, 3.56462002e-01,
          3.56462002e-01, 3.56462002e-01, 3.04728776e-01, 3.08120370e-01,
          3.56462002e-01, 3.56462002e-01, 2.15057582e-01, 3.32778692e-01,
          3.32778692e-01, 3.32778692e-01, 3.32778692e-01, 3.32778692e-01,
          3.32778692e-01, 3.32778692e-01, 3.32778692e-01, 3.32778692e-01,
          1.21698894e-01, 2.54840732e-01, 4.19512600e-01, 4.19512600e-01,
          1.23590596e-01, 4.19512600e-01, 4.19512600e-01, 3.97099644e-01,
          1.97810024e-01, 3.43320817e-01, 3.43320817e-01, 3.43320817e-01,
          3.43320817e-01, 3.43320817e-01, 3.43320817e-01, 2.31551811e-01,
          3.43320817e-01, 3.43320817e-01, 3.01507771e-01, 1.20151006e-02,
          3.03452536e-02, 4.00435269e-01, 4.00435269e-01, 3.19821030e-01,
          4.00435269e-01, 4.00435269e-01, 4.00435269e-01, 1.52965203e-01,
          7.89374858e-02, 3.94106001e-01, 3.94106001e-01, 3.94106001e-01,
          3.94106001e-01, 3.94106001e-01, 3.71559501e-01, 2.27550462e-01,
          3.56331319e-01, 3.56331319e-01, 2.84284025e-01, 3.56331319e-01,
          3.56331319e-01, 3.56331319e-01, 1.63763672e-01, 3.56331319e-01,
          3.56331319e-01, 1.08899541e-01, 1.20242693e-01, 2.33592853e-01,
          4.17928070e-01, 4.17928070e-01, 2.04016671e-01, 4.17928070e-01,
          4.17928070e-01, 4.17928070e-01, 2.15300709e-01, 2.06584692e-01,
          2.07095653e-01, 4.19921428e-02, 5.25049269e-01, 2.05400109e-01,
          5.25049269e-01, 4.44770515e-01, 2.64025509e-01, 3.56331319e-01,
          3.56331319e-01, 2.84284025e-01, 3.56331319e-01, 3.56331319e-01,
          3.56331319e-01, 1.63763672e-01, 3.56331319e-01, 3.56331319e-01,
          1.08899541e-01, 1.20242693e-01, 2.33592853e-01, 4.17928070e-01,
          4.17928070e-01, 2.04016671e-01, 4.17928070e-01, 4.17928070e-01,
          4.17928070e-01, 2.15300709e-01, 2.06584692e-01, 2.07095653e-01,
          4.19921428e-02, 5.25049269e-01, 2.05400109e-01, 5.25049269e-01,
          4.44770515e-01, 2.64025509e-01, 3.73962581e-01, 2.70700365e-01,
          2.48551846e-01, 3.73962581e-01, 3.73962581e-01, 3.73962581e-01,
          1.48725227e-01, 3.73962581e-01, 3.73962581e-01, 3.61654967e-01,
          4.14059073e-01, 2.02219039e-01, 1.70228288e-01, 2.37341464e-01,
          4.14059073e-01, 4.14059073e-01, 4.14059073e-01, 2.30409756e-01,
          2.58164823e-01, 5.40627956e-01, 5.40627956e-01, 1.17529139e-01,
          1.31462052e-01, 9.66272131e-02, 5.05700409e-01, 1.83946639e-01,
          1.15729049e-01, 2.99686342e-01, 2.28988886e-01, 1.86253116e-01,
          3.69542480e-01, 3.69542480e-01, 3.69542480e-01, 3.69542480e-01,
          3.69542480e-01, 3.69542480e-01, 3.78684044e-01, 2.84171999e-01,
          2.14182977e-02, 2.33655065e-01, 3.78684044e-01, 3.78684044e-01,
          3.78684044e-01, 3.78684044e-01, 3.78684044e-01, 6.10450566e-01,
          6.10450566e-01, 1.00192428e-01, 2.12170202e-02, 1.08650655e-01,
          3.96971852e-01, 1.15173861e-01, 3.91119570e-02, 2.32228249e-01 ]
      - [ 2.50972927e-01, 4.90241110e-01, 3.65927905e-01, 2.14519262e-01,
          4.79356885e-01, 4.90241110e-01, 2.00498611e-01, 1.73573885e-02,
          3.51820067e-02, 1.37354331e-02, 4.93116140e-01, 4.93116140e-01,
          1.44455820e-01, 4.93116140e-01, 4.93116140e-01, 3.05326637e-02,
          1.72973182e-02, 1.15474490e-02, 1.68936044e-01, 6.38313711e-01,
          6.38313711e-01, 1.49155483e-01, 1.41381755e-01, 8.31747651e-02,
          7.41477609e-02, 1.22659653e-01, 2.83727795e-01, 1.77405745e-01,
          4.02345359e-01, 1.64196834e-01, 2.16349773e-02, 1.45214289e-01,
          5.61855972e-01, 5.61855972e-01, 2.68384665e-01, 2.21640423e-01,
          4.77155559e-02, 6.73108995e-01, 6.73108995e-01, 5.10416329e-02,
          2.68129222e-02, 7.46619701e-02, 2.64355987e-01, 7.43263289e-02,
          2.33448148e-02, 3.09779053e-03, 6.77157760e-01, 6.77157760e-01,
          1.39324777e-02, 2.16706097e-02, 3.05645149e-02, 2.55931616e-01,
          9.50597003e-02, 3.13205738e-03, 9.05412808e-02, 7.25647807e-02,
          2.25629792e-01, 1.98082790e-01, 9.62483957e-02, 1.43566549e-01,
          6.32086813e-01, 6.32086813e-01, 2.47260347e-01, 3.25446315e-02,
          6.78171277e-01, 6.78171277e-01, 8.62384811e-02, 4.64351401e-02,
          1.66799396e-01, 1.82681262e-01, 3.63603048e-02, 1.51093761e-02,
          3.09201726e-03, 5.73600471e-01, 5.73600471e-01, 2.59238314e-02,
          9.41437483e-03, 2.58079618e-02, 5.73600471e-01, 7.60502070e-02,
          0., 9.05412808e-02, 7.25647807e-02, 2.25629792e-01,
          1.98082790e-01, 9.62483957e-02, 1.43566549e-01, 6.32086813e-01,
          6.32086813e-01, 2.47260347e-01, 3.25446315e-02, 6.78171277e-01,
          6.78171277e-01, 8.62384811e-02, 4.64351401e-02, 1.66799396e-01,
          1.82681262e-01, 3.63603048e-02, 1.51093761e-02, 3.09201726e-03,
          5.73600471e-01, 5.73600471e-01, 2.59238314e-02, 9.41437483e-03,
          2.58079618e-02, 5.73600471e-01, 7.60502070e-02, 0.,
          3.73098217e-02, 3.23327295e-02, 8.70543942e-02, 8.28412473e-02,
          3.65491062e-02, 1.79401673e-02, 2.42462143e-01, 6.76727414e-01,
          6.76727414e-01, 3.43122222e-02, 6.80963933e-01, 6.80963933e-01,
          6.56558853e-03, 2.16051582e-02, 3.42815295e-02, 1.60545371e-02,
          1.70298696e-01, 1.83456585e-01, 2.36287825e-02, 5.69454491e-01,
          5.69454491e-01, 2.46058423e-02, 2.86332853e-02, 3.88620533e-02,
          5.69454491e-01, 1.34023190e-01, 4.71884385e-03, 4.87586670e-02,
          8.49948917e-03, 7.56435767e-02, 1.21106565e-01, 2.14963369e-02,
          4.59854454e-02, 6.71011731e-02, 6.93957806e-01, 6.93957806e-01,
          2.21995488e-01, 4.71155375e-01, 4.71155375e-01, 2.28094950e-01,
          7.72040784e-02, 7.20182946e-03, 4.77873720e-03, 4.71155375e-01,
          4.71155375e-01, 6.30865172e-02, 3.92881334e-01, 4.28040177e-01,
          4.28040177e-01, 4.28040177e-01, 2.45075703e-01, 4.28040177e-01,
          1.41740635e-01, 1.56084687e-01, 1.68936044e-01, 6.38313711e-01,
          6.38313711e-01, 1.49155483e-01, 1.41381755e-01, 8.31747651e-02,
          7.41477609e-02, 1.22659653e-01, 2.83727795e-01, 9.40398723e-02,
          5.38641438e-02, 7.10423291e-02, 2.15707332e-01, 1.94233730e-01,
          1.25762373e-01, 5.82818627e-01, 5.82818627e-01, 4.44927931e-01,
          2.15864703e-01, 5.28364815e-03, 2.76254714e-01, 5.54008305e-01,
          4.45109695e-01, 8.38189423e-02, 5.54008305e-01, 8.62847716e-02,
          2.12324694e-01, 3.09779053e-03, 6.77157760e-01, 6.77157760e-01,
          1.39324777e-02, 2.16706097e-02, 3.05645149e-02, 2.55931616e-01,
          9.50597003e-02, 3.13205738e-03, 1.03894225e-03, 1.79719608e-02,
          5.44618964e-02, 1.18382936e-02, 5.90784196e-03, 3.14258486e-02,
          7.03033090e-01, 7.03033090e-01, 4.27560136e-03, 5.47371618e-02,
          3.33548523e-02, 5.23341596e-01, 5.23341596e-01, 9.38825384e-02,
          1.34945689e-02, 5.23341596e-01, 3.96440357e-01, 5.33346012e-02,
          3.09201726e-03, 5.73600471e-01, 5.73600471e-01, 2.59238314e-02,
          9.41437483e-03, 2.58079618e-02, 5.73600471e-01, 7.60502070e-02,
          0., 3.14333546e-03, 3.44795883e-02, 3.26908268e-02,
          6.04233425e-03, 3.91640887e-03, 1.24776416e-01, 9.24835026e-01,
          3.42784405e-01, 7.97676574e-03, 2.43082896e-01, 2.08904848e-01,
          2.18143001e-01, 3.10937554e-01, 2.33432159e-01, 3.36975873e-01,
          5.25664866e-01, 4.98896658e-01, 2.33423471e-01, 3.09201726e-03,
          5.73600471e-01, 5.73600471e-01, 2.59238314e-02, 9.41437483e-03,
          2.58079618e-02, 5.73600471e-01, 7.60502070e-02, 0.,
          3.14333546e-03, 3.44795883e-02, 3.26908268e-02, 6.04233425e-03,
          3.91640887e-03, 1.24776416e-01, 9.24835026e-01, 3.42784405e-01,
          7.97676574e-03, 2.43082896e-01, 2.08904848e-01, 2.18143001e-01,
          3.10937554e-01, 2.33432159e-01, 3.36975873e-01, 5.25664866e-01,
          4.98896658e-01, 2.33423471e-01, 2.36287825e-02, 5.69454491e-01,
          5.69454491e-01, 2.46058423e-02, 2.86332853e-02, 3.88620533e-02,
          5.69454491e-01, 1.34023190e-01, 4.71884385e-03, 2.76057348e-02,
          2.85292324e-02, 9.57819726e-03, 2.27058982e-03, 9.70762689e-03,
          2.26737469e-01, 9.45461869e-01, 2.07111791e-01, 2.44389772e-02,
          4.38960642e-01, 4.38960642e-01, 4.38960642e-01, 1.68220475e-01,
          1.47100925e-01, 3.79431546e-01, 4.38960642e-01, 8.71695578e-02,
          1.52858928e-01, 6.30865172e-02, 3.92881334e-01, 4.28040177e-01,
          4.28040177e-01, 4.28040177e-01, 2.45075703e-01, 4.28040177e-01,
          1.41740635e-01, 1.56084687e-01, 5.66540480e-01, 1.14400648e-01,
          1.59069561e-04, 2.15453617e-02, 6.90317899e-02, 1.72132894e-01,
          5.66540480e-01, 4.01315302e-01, 3.78689289e-01, 6.92632377e-01,
          6.92632377e-01, 4.39819247e-02, 2.15010112e-03, 7.27664353e-03,
          6.31552422e-03, 1.66442171e-02, 2.18031444e-02, 1.75562710e-01 ]
      - [ 3.68669093e-01, 5.06882608e-01, 8.16414058e-02, 3.32685038e-02,
          7.80215636e-02, 5.39308965e-01, 5.39308965e-01, 7.12220222e-02,
          3.35722901e-02, 6.01724396e-03, 6.96672380e-01, 6.96672380e-01,
          1.08293861e-01, 1.74219441e-02, 7.00389668e-02, 6.15899675e-02,
          3.74333113e-02, 1.31651619e-02, 1.54183188e-04, 4.10583407e-01,
          5.36768615e-01, 8.03207010e-02, 1.72620092e-03, 0.,
          5.36768615e-01, 4.93320674e-01, 0., 1.86057255e-01,
          2.06722111e-01, 2.30357736e-01, 6.76022619e-02, 1.56433910e-01,
          5.60425699e-01, 5.60425699e-01, 4.33748573e-01, 1.36580423e-01,
          5.49555151e-03, 7.03336477e-01, 7.03336477e-01, 5.97937554e-02,
          1.95505307e-03, 4.20836732e-05, 1.05925906e-03, 6.10378687e-04,
          1.97033794e-03, 0., 5.34456909e-01, 5.34456909e-01,
          3.29226367e-02, 1.13297836e-03, 5.67322888e-04, 5.34456909e-01,
          3.69654655e-01, 0., 1.77993059e-01, 3.94561857e-01,
          3.90929461e-01, 8.45816080e-03, 1.73761457e-01, 1.58764496e-02,
          5.41008174e-01, 5.41008174e-01, 1.96251243e-01, 1.24746896e-02,
          7.04559982e-01, 7.04559982e-01, 1.03788264e-03, 0., 0.,
          3.79383382e-05, 5.39211498e-04, 6.98777207e-04, 2.32397797e-04,
          6.12353027e-01, 6.12353027e-01, 5.37844235e-03, 9.14794020e-03,
          5.48079982e-03, 4.43785220e-01, 2.16437802e-01, 0.,
          1.77993059e-01, 3.94561857e-01, 3.90929461e-01, 8.45816080e-03,
          1.73761457e-01, 1.58764496e-02, 5.41008174e-01, 5.41008174e-01,
          1.96251243e-01, 1.24746896e-02, 7.04559982e-01, 7.04559982e-01,
          1.03788264e-03, 0., 0., 3.79383382e-05, 5.39211498e-04,
          6.98777207e-04, 2.32397797e-04, 6.12353027e-01, 6.12353027e-01,
          5.37844235e-03, 9.14794020e-03, 5.48079982e-03, 4.43785220e-01,
          2.16437802e-01, 0., 8.21590796e-02, 2.41098046e-01,
          3.09173793e-01, 2.88474858e-01, 3.51165354e-01, 3.31754647e-02,
          4.57285553e-01, 4.57285553e-01, 4.57285553e-01, 2.74919719e-02,
          6.72029197e-01, 6.72029197e-01, 2.97868192e-01, 2.37300955e-02,
          0., 0., 0., 1.58268813e-04, 3.13210214e-04, 5.76624632e-01,
          6.36843145e-01, 2.91829765e-01, 1.95669080e-03, 5.66565851e-03,
          3.88107777e-01, 1.40527412e-01, 5.81655186e-04, 2.16900092e-02,
          2.73897871e-02, 4.67127800e-01, 4.93994772e-01, 1.82958141e-01,
          3.41838598e-02, 9.43523943e-02, 4.93994772e-01, 4.93994772e-01,
          9.26022604e-02, 3.31359148e-01, 4.66813475e-01, 4.63501483e-01,
          8.82077962e-02, 2.31240746e-02, 8.34739581e-03, 4.66813475e-01,
          4.66813475e-01, 7.10812211e-03, 6.42905593e-01, 6.42905593e-01,
          2.33235300e-01, 2.00342894e-01, 4.54764962e-02, 2.50948340e-01,
          8.32914412e-02, 1.89491976e-02, 1.54183188e-04, 4.10583407e-01,
          5.36768615e-01, 8.03207010e-02, 1.72620092e-03, 0.,
          5.36768615e-01, 4.93320674e-01, 0., 6.91623660e-03,
          9.48636420e-03, 1.37934359e-02, 1.31387925e-02, 6.99594757e-03,
          9.53519531e-03, 7.04291403e-01, 7.04291403e-01, 1.66172851e-02,
          7.95480013e-02, 1.14832878e-01, 5.14603913e-01, 5.14603913e-01,
          3.30761641e-01, 7.16682374e-02, 2.98739821e-01, 3.89442444e-01,
          3.00435334e-01, 0., 5.34456909e-01, 5.34456909e-01,
          3.29226367e-02, 1.13297836e-03, 5.67322888e-04, 5.34456909e-01,
          3.69654655e-01, 0., 1.84649762e-04, 5.80754247e-04,
          1.81913585e-03, 1.29352929e-03, 1.64531055e-03, 3.38148163e-03,
          7.04482913e-01, 7.04482913e-01, 1.88601725e-02, 6.48225695e-02,
          1.11662604e-01, 5.02111971e-01, 2.68867880e-01, 1.31092027e-01,
          2.91765034e-01, 5.07127583e-01, 5.07127583e-01, 1.92846179e-01,
          2.32397797e-04, 6.12353027e-01, 6.12353027e-01, 5.37844235e-03,
          9.14794020e-03, 5.48079982e-03, 4.43785220e-01, 2.16437802e-01,
          0., 0., 1.40280958e-04, 4.89084225e-04, 4.82071569e-04,
          1.70542276e-03, 3.63351544e-03, 7.04608917e-01, 7.04608917e-01,
          1.51189964e-03, 1.73510700e-01, 5.70150726e-02, 3.10586970e-02,
          7.36591814e-04, 2.36776005e-02, 1.05327614e-01, 6.48432136e-01,
          6.48432136e-01, 3.26529503e-01, 2.32397797e-04, 6.12353027e-01,
          6.12353027e-01, 5.37844235e-03, 9.14794020e-03, 5.48079982e-03,
          4.43785220e-01, 2.16437802e-01, 0., 0., 1.40280958e-04,
          4.89084225e-04, 4.82071569e-04, 1.70542276e-03, 3.63351544e-03,
          7.04608917e-01, 7.04608917e-01, 1.51189964e-03, 1.73510700e-01,
          5.70150726e-02, 3.10586970e-02, 7.36591814e-04, 2.36776005e-02,
          1.05327614e-01, 6.48432136e-01, 6.48432136e-01, 3.26529503e-01,
          3.13210214e-04, 5.76624632e-01, 6.36843145e-01, 2.91829765e-01,
          1.95669080e-03, 5.66565851e-03, 3.88107777e-01, 1.40527412e-01,
          5.81655186e-04, 0., 1.46713777e-04, 4.40141332e-04, 0.,
          5.04294643e-04, 7.63248419e-03, 7.04594135e-01, 7.04594135e-01,
          1.40859268e-03, 1.95056349e-01, 4.32785511e-01, 2.13103384e-01,
          2.23059114e-02, 3.43721360e-02, 1.31052241e-01, 5.90214968e-01,
          5.90214968e-01, 8.82169828e-02, 7.10812211e-03, 6.42905593e-01,
          6.42905593e-01, 2.33235300e-01, 2.00342894e-01, 4.54764962e-02,
          2.50948340e-01, 8.32914412e-02, 1.89491976e-02, 6.01309724e-02,
          2.72473246e-02, 8.28659104e-04, 2.63544312e-03, 9.35360417e-02,
          1.83835030e-01, 6.87739730e-01, 6.87739730e-01, 1.58862043e-02,
          4.61391896e-01, 4.61391896e-01, 1.56633496e-01, 3.11651565e-02,
          1.79882646e-01, 4.61391896e-01, 4.61391896e-01, 2.69075811e-01,
          1.16604000e-01 ]
      - [ 4.82305974e-01, 4.82305974e-01, 4.61638644e-02, 4.46533822e-02,
          2.40553468e-01, 4.82305974e-01, 4.82305974e-01, 3.34581919e-02,
          3.99529748e-02, 1.89768285e-01, 5.20064771e-01, 5.20064771e-01,
          1.48674890e-01, 3.18312109e-01, 5.20064771e-01, 1.51129872e-01,
          1.19726183e-02, 3.13306004e-02, 4.10080105e-01, 3.81643564e-01,
          4.10080105e-01, 9.26288888e-02, 4.84807938e-02, 1.35435844e-02,
          4.10080105e-01, 4.08013314e-01, 4.10080105e-01, 3.66128981e-01,
          3.48159254e-01, 2.70060271e-01, 6.74493685e-02, 1.88668311e-01,
          5.19931018e-01, 5.19931018e-01, 2.39130616e-01, 1.69187874e-01,
          5.39340638e-02, 7.02468395e-01, 7.02468395e-01, 5.58436513e-02,
          3.67090735e-03, 2.68984074e-03, 4.27762687e-04, 9.97560914e-04,
          3.83330765e-03, 7.70097016e-04, 5.27612209e-01, 5.27612209e-01,
          3.19280997e-02, 2.82647610e-02, 5.49946446e-03, 5.27612209e-01,
          3.97182196e-01, 2.00669258e-03, 7.39988461e-02, 4.09581333e-01,
          5.05714834e-01, 7.72367343e-02, 1.83023006e-01, 7.04825968e-02,
          5.05714834e-01, 5.05714834e-01, 1.00216389e-01, 5.52552007e-03,
          7.04583108e-01, 7.04583108e-01, 7.46579561e-03, 1.51954300e-04,
          0., 2.24473723e-03, 7.48245744e-04, 3.16578880e-05, 0.,
          6.11489773e-01, 6.11489773e-01, 4.51784022e-03, 2.89994385e-03,
          3.11833713e-03, 4.26531583e-01, 2.53119349e-01, 4.22167405e-03,
          7.39988461e-02, 4.09581333e-01, 5.05714834e-01, 7.72367343e-02,
          1.83023006e-01, 7.04825968e-02, 5.05714834e-01, 5.05714834e-01,
          1.00216389e-01, 5.52552007e-03, 7.04583108e-01, 7.04583108e-01,
          7.46579561e-03, 1.51954300e-04, 0., 2.24473723e-03,
          7.48245744e-04, 3.16578880e-05, 0., 6.11489773e-01,
          6.11489773e-01, 4.51784022e-03, 2.89994385e-03, 3.11833713e-03,
          4.26531583e-01, 2.53119349e-01, 4.22167405e-03, 3.71083245e-02,
          1.89179584e-01, 4.33426946e-01, 3.20945650e-01, 3.22207421e-01,
          1.30739566e-02, 4.33455318e-01, 4.33455318e-01, 4.33455318e-01,
          1.95497018e-03, 6.67537570e-01, 7.17398107e-01, 1.80265501e-01,
          8.53853207e-03, 0., 5.04568234e-05, 1.68189399e-05, 0., 0.,
          5.23366868e-01, 7.09304094e-01, 1.20701693e-01, 1.04045938e-03,
          4.54964291e-04, 4.21873003e-01, 1.52772292e-01, 2.81570014e-03,
          2.16168277e-02, 1.00960143e-01, 3.66491616e-01, 5.19024193e-01,
          1.98463708e-01, 1.79550506e-03, 4.78628464e-02, 5.19024193e-01,
          5.19024193e-01, 1.06720716e-01, 2.54562020e-01, 5.10408640e-01,
          3.69706094e-01, 2.08970327e-02, 0., 6.41473150e-03,
          5.10408640e-01, 5.10408640e-01, 1.28468266e-02, 5.69854498e-01,
          6.97053850e-01, 1.93629533e-01, 2.29028791e-01, 4.02543470e-02,
          2.85597712e-01, 9.41120014e-02, 1.63782109e-02, 4.10080105e-01,
          3.81643564e-01, 4.10080105e-01, 9.26288888e-02, 4.84807938e-02,
          1.35435844e-02, 4.10080105e-01, 4.08013314e-01, 4.10080105e-01,
          7.86306858e-02, 4.52751294e-03, 7.32730031e-02, 3.36226642e-01,
          2.48099938e-01, 4.38924208e-02, 6.21008813e-01, 6.21008813e-01,
          1.85458779e-01, 1.05040595e-01, 2.29196213e-02, 4.12229508e-01,
          5.08439720e-01, 2.69419134e-01, 3.94906588e-02, 1.49359226e-01,
          5.08439720e-01, 4.47162092e-01, 7.70097016e-04, 5.27612209e-01,
          5.27612209e-01, 3.19280997e-02, 2.82647610e-02, 5.49946446e-03,
          5.27612209e-01, 3.97182196e-01, 2.00669258e-03, 7.60317838e-04,
          5.73721016e-04, 3.44580680e-04, 9.77194868e-04, 7.76991993e-03,
          1.07330515e-03, 7.04280078e-01, 7.04280078e-01, 2.97511257e-02,
          6.62631765e-02, 6.89420328e-02, 4.50528949e-01, 4.50528949e-01,
          9.15669948e-02, 1.37455747e-01, 4.50528949e-01, 4.50528949e-01,
          3.83630008e-01, 0., 6.11489773e-01, 6.11489773e-01,
          4.51784022e-03, 2.89994385e-03, 3.11833713e-03, 4.26531583e-01,
          2.53119349e-01, 4.22167405e-03, 0., 6.11808617e-04,
          1.34501013e-03, 0., 1.33546034e-03, 6.45860913e-04,
          7.04603672e-01, 7.04603672e-01, 5.42114861e-03, 5.13027646e-02,
          1.01890326e-01, 2.80076005e-02, 5.75900264e-03, 5.89369759e-02,
          7.26006329e-02, 6.87753320e-01, 6.87753320e-01, 1.56682119e-01,
          0., 6.11489773e-01, 6.11489773e-01, 4.51784022e-03,
          2.89994385e-03, 3.11833713e-03, 4.26531583e-01, 2.53119349e-01,
          4.22167405e-03, 0., 6.11808617e-04, 1.34501013e-03, 0.,
          1.33546034e-03, 6.45860913e-04, 7.04603672e-01, 7.04603672e-01,
          5.42114861e-03, 5.13027646e-02, 1.01890326e-01, 2.80076005e-02,
          5.75900264e-03, 5.89369759e-02, 7.26006329e-02, 6.87753320e-01,
          6.87753320e-01, 1.56682119e-01, 0., 5.23366868e-01,
          7.09304094e-01, 1.20701693e-01, 1.04045938e-03, 4.54964291e-04,
          4.21873003e-01, 1.52772292e-01, 2.81570014e-03, 0.,
          3.44785210e-03, 1.29055250e-02, 1.77666871e-03, 7.25835329e-04,
          3.39852669e-03, 7.04546094e-01, 7.04546094e-01, 1.78401533e-03,
          9.42916870e-02, 1.92721516e-01, 1.51934057e-01, 2.67408248e-02,
          3.72457653e-02, 1.10053450e-01, 6.74053848e-01, 6.74053848e-01,
          3.52597795e-02, 1.28468266e-02, 5.69854498e-01, 6.97053850e-01,
          1.93629533e-01, 2.29028791e-01, 4.02543470e-02, 2.85597712e-01,
          9.41120014e-02, 1.63782109e-02, 5.27491458e-02, 2.44686715e-02,
          2.02721693e-02, 3.81542440e-03, 9.93370116e-02, 2.10808814e-01,
          6.83492661e-01, 6.83492661e-01, 2.71524079e-02, 4.77340907e-01,
          4.77340907e-01, 1.32894307e-01, 1.71274692e-02, 9.18338522e-02,
          4.77340907e-01, 4.77340907e-01, 2.15227962e-01, 1.05376028e-01 ]
      - [ 4.33014840e-01, 1.74902841e-01, 9.98132750e-02, 1.07771583e-01,
          1.81314960e-01, 4.33014840e-01, 4.16269779e-01, 4.18144822e-01,
          4.33014840e-01, 3.96780103e-01, 3.01193058e-01, 1.31065965e-01,
          2.78389543e-01, 3.96780103e-01, 3.96780103e-01, 3.51747185e-01,
          2.39114910e-01, 3.96780103e-01, 3.44291359e-01, 4.03395981e-01,
          3.50467205e-01, 4.03395981e-01, 4.03395981e-01, 4.03395981e-01,
          1.43408909e-01, 9.86356586e-02, 2.70920485e-01, 1.71575159e-01,
          3.72791409e-01, 4.49068755e-01, 7.19526857e-02, 2.39341304e-01,
          5.10280907e-01, 5.10280907e-01, 1.91987902e-01, 6.88141212e-02,
          4.73807067e-01, 4.73807067e-01, 4.73807067e-01, 6.37166128e-02,
          1.60856426e-01, 2.41541460e-01, 8.53531882e-02, 4.16286886e-02,
          4.73807067e-01, 5.71356177e-01, 3.05822678e-02, 1.28808599e-02,
          5.12341224e-02, 5.71356177e-01, 1.03379861e-01, 2.14109831e-02,
          8.89271405e-03, 5.71356177e-01, 1.40386328e-01, 4.59599406e-01,
          4.59599406e-01, 1.82573423e-01, 6.31718859e-02, 3.43171567e-01,
          4.59599406e-01, 3.66587996e-01, 2.29191631e-01, 2.14864746e-01,
          4.74651337e-01, 4.74651337e-01, 1.55312847e-02, 1.89846665e-01,
          2.20266551e-01, 4.74651337e-01, 4.26670939e-01, 7.97641501e-02,
          2.58087963e-01, 2.45293658e-02, 1.76841468e-02, 7.35133290e-02,
          5.01866281e-01, 4.43257600e-01, 5.01866281e-01, 3.80407840e-01,
          2.77727664e-01, 1.40386328e-01, 4.59599406e-01, 4.59599406e-01,
          1.82573423e-01, 6.31718859e-02, 3.43171567e-01, 4.59599406e-01,
          3.66587996e-01, 2.29191631e-01, 2.14864746e-01, 4.74651337e-01,
          4.74651337e-01, 1.55312847e-02, 1.89846665e-01, 2.20266551e-01,
          4.74651337e-01, 4.26670939e-01, 7.97641501e-02, 2.58087963e-01,
          2.45293658e-02, 1.76841468e-02, 7.35133290e-02, 5.01866281e-01,
          4.43257600e-01, 5.01866281e-01, 3.80407840e-01, 2.77727664e-01,
          4.31734949e-01, 4.31734949e-01, 4.31734949e-01, 2.07511991e-01,
          3.67674045e-02, 4.26685391e-03, 1.38855353e-01, 4.31734949e-01,
          4.31734949e-01, 4.05576795e-01, 4.06444311e-01, 4.06444311e-01,
          6.60002530e-02, 1.64881367e-02, 2.88844947e-02, 4.06444311e-01,
          4.06444311e-01, 4.06444311e-01, 4.74960238e-01, 2.55307615e-01,
          5.01489006e-02, 1.16005680e-02, 4.04331423e-02, 1.53104112e-01,
          4.74960238e-01, 4.74960238e-01, 4.74960238e-01, 1.25470728e-01,
          2.12858588e-01, 4.66683716e-01, 4.66683716e-01, 1.14985511e-01,
          2.29894388e-02, 2.22175196e-01, 4.66683716e-01, 4.66683716e-01,
          1.42656371e-01, 9.93945375e-02, 4.35011029e-01, 4.84879315e-01,
          4.84879315e-01, 4.84879315e-01, 8.98132250e-02, 1.22076564e-01,
          2.17714384e-01, 1.90369412e-01, 5.76408356e-02, 3.86512317e-02,
          5.46679981e-02, 1.53099701e-01, 6.55418813e-01, 6.55418813e-01,
          1.94832757e-01, 1.69894397e-01, 3.44291359e-01, 4.03395981e-01,
          3.50467205e-01, 4.03395981e-01, 4.03395981e-01, 4.03395981e-01,
          1.43408909e-01, 9.86356586e-02, 2.70920485e-01, 2.50195593e-01,
          1.05997518e-01, 2.41897583e-01, 5.66872716e-01, 5.66872716e-01,
          3.80395681e-01, 7.17701539e-02, 6.09354973e-02, 2.56392956e-01,
          2.53288835e-01, 2.20430437e-02, 1.28121823e-01, 6.98895454e-01,
          5.98626494e-01, 1.28349047e-02, 6.62918165e-02, 4.61363569e-02,
          2.41807058e-01, 5.71356177e-01, 3.05822678e-02, 1.28808599e-02,
          5.12341224e-02, 5.71356177e-01, 1.03379861e-01, 2.14109831e-02,
          8.89271405e-03, 5.71356177e-01, 5.69681585e-01, 1.16353724e-02,
          9.78801027e-03, 1.11945681e-01, 5.69681585e-01, 8.51904675e-02,
          1.68725420e-02, 1.98706761e-02, 5.69681585e-01, 4.76004273e-01,
          4.98053767e-02, 1.28341317e-01, 4.76004273e-01, 4.76004273e-01,
          1.80534571e-01, 1.10084720e-01, 1.58939674e-01, 4.76004273e-01,
          2.58087963e-01, 2.45293658e-02, 1.76841468e-02, 7.35133290e-02,
          5.01866281e-01, 4.43257600e-01, 5.01866281e-01, 3.80407840e-01,
          2.77727664e-01, 3.04306835e-01, 4.27963063e-02, 4.21713963e-02,
          1.54520199e-01, 8.55472207e-01, 2.73299575e-01, 3.94348875e-02,
          2.87680794e-02, 2.49932721e-01, 1.58087403e-01, 9.81393177e-03,
          4.24332451e-03, 2.96761513e-01, 6.29686952e-01, 6.29686952e-01,
          1.57586738e-01, 7.85602331e-02, 2.37746075e-01, 2.58087963e-01,
          2.45293658e-02, 1.76841468e-02, 7.35133290e-02, 5.01866281e-01,
          4.43257600e-01, 5.01866281e-01, 3.80407840e-01, 2.77727664e-01,
          3.04306835e-01, 4.27963063e-02, 4.21713963e-02, 1.54520199e-01,
          8.55472207e-01, 2.73299575e-01, 3.94348875e-02, 2.87680794e-02,
          2.49932721e-01, 1.58087403e-01, 9.81393177e-03, 4.24332451e-03,
          2.96761513e-01, 6.29686952e-01, 6.29686952e-01, 1.57586738e-01,
          7.85602331e-02, 2.37746075e-01, 4.74960238e-01, 2.55307615e-01,
          5.01489006e-02, 1.16005680e-02, 4.04331423e-02, 1.53104112e-01,
          4.74960238e-01, 4.74960238e-01, 4.74960238e-01, 3.95812631e-01,
          4.14820671e-01, 2.34857172e-01, 1.37194723e-01, 2.46345356e-01,
          1.87222779e-01, 4.14820671e-01, 4.14820671e-01, 3.91460568e-01,
          1.16749138e-01, 2.09507853e-01, 5.54224439e-02, 1.61392078e-01,
          4.26403016e-01, 4.26403016e-01, 4.26403016e-01, 4.26403016e-01,
          4.26403016e-01, 1.90369412e-01, 5.76408356e-02, 3.86512317e-02,
          5.46679981e-02, 1.53099701e-01, 6.55418813e-01, 6.55418813e-01,
          1.94832757e-01, 1.69894397e-01, 4.67084944e-01, 4.12468344e-01,
          1.81579411e-01, 9.43574533e-02, 2.54254311e-01, 4.67084944e-01,
          4.67084944e-01, 1.99347600e-01, 1.56334445e-01, 6.81444526e-01,
          6.81444526e-01, 3.97439264e-02, 4.75971662e-02, 1.71789587e-01,
          1.44091696e-01, 6.36320487e-02, 4.17236239e-02, 6.74907789e-02 ]
      - [ 3.49160075e-01, 2.15642061e-02, 1.87880024e-01, 3.02116692e-01,
          3.47723424e-01, 4.18541044e-01, 4.18541044e-01, 3.16901386e-01,
          4.18541044e-01, 1.64533600e-01, 4.75159496e-01, 4.75159496e-01,
          1.24034353e-01, 3.76915365e-01, 4.75159496e-01, 1.90123394e-01,
          2.52880692e-01, 1.82504818e-01, 4.06111389e-01, 4.06111389e-01,
          4.06111389e-01, 4.93398272e-02, 9.19882283e-02, 7.23928213e-02,
          4.06111389e-01, 3.93921018e-01, 4.06111389e-01, 2.99923960e-02,
          4.69645858e-02, 1.08024321e-01, 6.93405345e-02, 1.62787542e-01,
          6.82442605e-01, 6.82442605e-01, 1.08371869e-01, 6.24865368e-02,
          1.17004768e-03, 6.63079441e-01, 6.63079441e-01, 7.57731497e-02,
          8.02868679e-02, 1.04404241e-01, 2.77750254e-01, 1.16717026e-01,
          1.31997475e-02, 9.97699797e-04, 5.26396096e-01, 5.26396096e-01,
          1.96758695e-02, 7.49725848e-03, 2.19918811e-03, 5.26396096e-01,
          4.03702497e-01, 6.28723204e-03, 1.52534470e-02, 1.48617521e-01,
          4.81832027e-01, 1.86445281e-01, 1.42220065e-01, 4.81832027e-01,
          4.81832027e-01, 4.65299129e-01, 6.99255019e-02, 3.03061097e-03,
          6.69814527e-01, 6.69814527e-01, 5.66964410e-02, 3.56577267e-03,
          2.38168798e-02, 2.94453859e-01, 7.41842687e-02, 1.36969960e-04,
          1.23953009e-02, 5.42271018e-01, 5.42271018e-01, 1.44192837e-02,
          0., 6.72740687e-04, 5.42271018e-01, 3.34727615e-01,
          2.58241361e-03, 1.52534470e-02, 1.48617521e-01, 4.81832027e-01,
          1.86445281e-01, 1.42220065e-01, 4.81832027e-01, 4.81832027e-01,
          4.65299129e-01, 6.99255019e-02, 3.03061097e-03, 6.69814527e-01,
          6.69814527e-01, 5.66964410e-02, 3.56577267e-03, 2.38168798e-02,
          2.94453859e-01, 7.41842687e-02, 1.36969960e-04, 1.23953009e-02,
          5.42271018e-01, 5.42271018e-01, 1.44192837e-02, 0.,
          6.72740687e-04, 5.42271018e-01, 3.34727615e-01, 2.58241361e-03,
          6.67990372e-02, 2.24768281e-01, 4.72578615e-01, 2.29135066e-01,
          2.39328489e-01, 3.02275587e-02, 4.72578615e-01, 4.72578615e-01,
          3.99513036e-01, 2.14728881e-02, 6.96529686e-01, 6.96529686e-01,
          4.41521360e-03, 6.13045355e-04, 5.48885111e-03, 1.26342848e-01,
          7.85550252e-02, 9.76021960e-03, 2.12916872e-03, 5.56324363e-01,
          5.56324363e-01, 1.09495679e-02, 9.06157016e-04, 0.,
          5.56324363e-01, 2.56571621e-01, 0., 8.29017609e-02,
          9.53116789e-02, 4.89160538e-01, 4.89160538e-01, 4.61070687e-02,
          4.15322296e-02, 1.34886369e-01, 4.89160538e-01, 4.89160538e-01,
          1.21512011e-01, 5.21750867e-01, 5.21750867e-01, 1.24136798e-01,
          4.50281277e-02, 2.77304705e-02, 6.94938898e-02, 3.74588460e-01,
          5.21750867e-01, 4.20433916e-02, 5.20641029e-01, 5.32958210e-01,
          1.41355485e-01, 3.84251326e-01, 1.35407820e-01, 4.79190469e-01,
          1.46711811e-01, 2.61677690e-02, 4.06111389e-01, 4.06111389e-01,
          4.06111389e-01, 4.93398272e-02, 9.19882283e-02, 7.23928213e-02,
          4.06111389e-01, 3.93921018e-01, 4.06111389e-01, 7.00692907e-02,
          3.82335559e-02, 1.06931545e-01, 3.64987671e-01, 4.16304499e-01,
          2.13365689e-01, 5.39172590e-01, 5.39172590e-01, 2.08194703e-01,
          1.56036587e-02, 5.21350168e-02, 4.04109746e-01, 7.45158136e-01,
          5.04859090e-01, 6.34642243e-02, 8.76412988e-02, 6.11089393e-02,
          2.66434327e-02, 9.97699797e-04, 5.26396096e-01, 5.26396096e-01,
          1.96758695e-02, 7.49725848e-03, 2.19918811e-03, 5.26396096e-01,
          4.03702497e-01, 6.28723204e-03, 1.24681927e-03, 3.16766649e-02,
          1.46941468e-01, 2.35638991e-02, 5.89765981e-03, 9.15667322e-03,
          6.96338356e-01, 6.96338356e-01, 1.97736500e-03, 9.58762318e-02,
          1.88657507e-01, 5.24473608e-01, 5.24473608e-01, 1.00124598e-01,
          1.18776031e-01, 5.24473608e-01, 2.83592314e-01, 1.42139018e-01,
          1.23953009e-02, 5.42271018e-01, 5.42271018e-01, 1.44192837e-02,
          0., 6.72740687e-04, 5.42271018e-01, 3.34727615e-01,
          2.58241361e-03, 8.17471463e-03, 2.42109895e-02, 6.55596480e-02,
          2.57371403e-02, 1.40819009e-02, 3.90737830e-03, 7.02551365e-01,
          7.02551365e-01, 1.73013203e-03, 1.65870488e-01, 4.54494566e-01,
          4.54494566e-01, 2.35058218e-01, 2.88028628e-01, 5.34803718e-02,
          4.54494566e-01, 4.54494566e-01, 2.47578956e-02, 1.23953009e-02,
          5.42271018e-01, 5.42271018e-01, 1.44192837e-02, 0.,
          6.72740687e-04, 5.42271018e-01, 3.34727615e-01, 2.58241361e-03,
          8.17471463e-03, 2.42109895e-02, 6.55596480e-02, 2.57371403e-02,
          1.40819009e-02, 3.90737830e-03, 7.02551365e-01, 7.02551365e-01,
          1.73013203e-03, 1.65870488e-01, 4.54494566e-01, 4.54494566e-01,
          2.35058218e-01, 2.88028628e-01, 5.34803718e-02, 4.54494566e-01,
          4.54494566e-01, 2.47578956e-02, 2.12916872e-03, 5.56324363e-01,
          5.56324363e-01, 1.09495679e-02, 9.06157016e-04, 0.,
          5.56324363e-01, 2.56571621e-01, 0., 1.07184546e-02,
          1.87272523e-02, 5.34692481e-02, 3.81370028e-03, 2.67802342e-03,
          6.96900953e-03, 7.03377664e-01, 7.03377664e-01, 1.01827933e-02,
          3.34113091e-01, 4.74145263e-01, 4.74145263e-01, 1.12367518e-01,
          9.61086750e-02, 8.36881548e-02, 4.74145263e-01, 4.19030845e-01,
          6.88307434e-02, 4.20433916e-02, 5.20641029e-01, 5.32958210e-01,
          1.41355485e-01, 3.84251326e-01, 1.35407820e-01, 4.79190469e-01,
          1.46711811e-01, 2.61677690e-02, 2.39128977e-01, 1.44102886e-01,
          5.69533184e-02, 8.20238981e-03, 1.01360910e-01, 2.46737227e-01,
          6.46793067e-01, 6.46793067e-01, 6.66881204e-02, 6.63810194e-01,
          6.63810194e-01, 1.55066535e-01, 3.95516045e-02, 2.54215486e-02,
          7.06055909e-02, 2.43777573e-01, 1.26882270e-01, 7.29167014e-02 ]
      - [ 5.39559126e-01, 5.39559126e-01, 1.49833441e-01, 1.19839221e-01,
          2.83577859e-01, 5.39559126e-01, 3.50695848e-02, 1.53130023e-02,
          5.04713990e-02, 3.85032415e-01, 4.05716062e-01, 5.64148016e-02,
          3.08090840e-02, 5.31127095e-01, 6.27612293e-01, 2.18154453e-02,
          8.44948646e-03, 1.43556911e-02, 1.45259380e-01, 4.50859547e-01,
          4.50859547e-01, 3.85690957e-01, 4.50859547e-01, 4.50859547e-01,
          5.87836206e-02, 5.09103164e-02, 8.05848464e-02, 2.69787788e-01,
          2.94009328e-01, 5.49164265e-02, 4.78600152e-02, 2.79083341e-01,
          5.57942688e-01, 5.57942688e-01, 3.49340081e-01, 8.58425647e-02,
          5.02608776e-01, 5.02608776e-01, 2.08684072e-01, 4.68145907e-02,
          2.68563211e-01, 5.02608776e-01, 1.02180645e-01, 1.63165703e-01,
          2.86710113e-01, 2.15670660e-01, 5.81773400e-01, 5.81773400e-01,
          3.02551150e-01, 1.26550823e-01, 6.46165535e-02, 8.35136473e-02,
          1.62798420e-01, 3.54331613e-01, 4.33617905e-02, 5.91961592e-02,
          1.91940382e-01, 4.03083339e-02, 8.22657347e-02, 2.03255728e-01,
          6.69689178e-01, 6.69689178e-01, 6.64553568e-02, 4.47487086e-01,
          2.90253252e-01, 1.80722952e-01, 4.47487086e-01, 4.47487086e-01,
          4.47487086e-01, 1.16850033e-01, 9.94163454e-02, 2.32607245e-01,
          2.72083193e-01, 4.57011133e-01, 4.57011133e-01, 4.57011133e-01,
          4.57011133e-01, 1.45586759e-01, 1.39804438e-01, 1.63541049e-01,
          1.35951549e-01, 4.33617905e-02, 5.91961592e-02, 1.91940382e-01,
          4.03083339e-02, 8.22657347e-02, 2.03255728e-01, 6.69689178e-01,
          6.69689178e-01, 6.64553568e-02, 4.47487086e-01, 2.90253252e-01,
          1.80722952e-01, 4.47487086e-01, 4.47487086e-01, 4.47487086e-01,
          1.16850033e-01, 9.94163454e-02, 2.32607245e-01, 2.72083193e-01,
          4.57011133e-01, 4.57011133e-01, 4.57011133e-01, 4.57011133e-01,
          1.45586759e-01, 1.39804438e-01, 1.63541049e-01, 1.35951549e-01,
          2.41216347e-02, 1.58753432e-02, 7.32519850e-02, 3.21683884e-01,
          6.49997965e-02, 3.76666039e-02, 5.01730919e-01, 5.60066700e-01,
          5.60066700e-01, 5.38052797e-01, 1.51996329e-01, 7.28555471e-02,
          1.31686538e-01, 2.05665499e-01, 1.64765850e-01, 1.04526892e-01,
          5.38052797e-01, 5.38052797e-01, 3.64783764e-01, 4.52388585e-01,
          4.52388585e-01, 4.52388585e-01, 2.11236179e-01, 7.02264309e-02,
          2.45453522e-01, 3.41679662e-01, 1.47996351e-01, 2.62739211e-02,
          7.84664229e-03, 3.56018692e-02, 5.53184271e-01, 2.72700816e-01,
          2.37636198e-03, 6.81855856e-03, 5.53184271e-01, 5.53184271e-01,
          5.59891611e-02, 1.55720944e-02, 3.64379622e-02, 5.72946668e-01,
          6.45743683e-02, 2.31720898e-02, 7.95751251e-03, 5.72946668e-01,
          5.72946668e-01, 2.21048027e-01, 4.40809935e-01, 4.40809935e-01,
          3.36433291e-01, 1.12599909e-01, 5.56009114e-02, 2.01304719e-01,
          4.40809935e-01, 4.40809935e-01, 1.45259380e-01, 4.50859547e-01,
          4.50859547e-01, 3.85690957e-01, 4.50859547e-01, 4.50859547e-01,
          5.87836206e-02, 5.09103164e-02, 8.05848464e-02, 2.90991008e-01,
          3.61928195e-01, 3.61928195e-01, 3.61928195e-01, 3.61928195e-01,
          3.22361231e-01, 3.61928195e-01, 3.61928195e-01, 1.47782072e-01,
          2.19321087e-01, 1.53729752e-01, 4.04666245e-01, 4.04666245e-01,
          4.04666245e-01, 2.71023870e-01, 1.78871572e-01, 4.04666245e-01,
          4.04666245e-01, 2.15670660e-01, 5.81773400e-01, 5.81773400e-01,
          3.02551150e-01, 1.26550823e-01, 6.46165535e-02, 8.35136473e-02,
          1.62798420e-01, 3.54331613e-01, 2.69279063e-01, 3.39870036e-01,
          3.39870036e-01, 3.39870036e-01, 3.39870036e-01, 3.39870036e-01,
          3.39870036e-01, 3.39870036e-01, 3.39870036e-01, 3.74319255e-01,
          4.19850573e-02, 1.47862837e-01, 4.19132560e-01, 4.19132560e-01,
          4.19132560e-01, 1.31954834e-01, 3.34621459e-01, 4.19132560e-01,
          2.72083193e-01, 4.57011133e-01, 4.57011133e-01, 4.57011133e-01,
          4.57011133e-01, 1.45586759e-01, 1.39804438e-01, 1.63541049e-01,
          1.35951549e-01, 3.70958030e-01, 3.70958030e-01, 3.70958030e-01,
          2.81796932e-01, 3.70958030e-01, 3.70958030e-01, 2.75610119e-01,
          1.45214856e-01, 3.63024533e-01, 4.33936179e-01, 6.44835159e-02,
          7.90613890e-02, 3.94190282e-01, 4.33936179e-01, 4.09188449e-01,
          5.88049926e-02, 3.06717247e-01, 4.33936179e-01, 2.72083193e-01,
          4.57011133e-01, 4.57011133e-01, 4.57011133e-01, 4.57011133e-01,
          1.45586759e-01, 1.39804438e-01, 1.63541049e-01, 1.35951549e-01,
          3.70958030e-01, 3.70958030e-01, 3.70958030e-01, 2.81796932e-01,
          3.70958030e-01, 3.70958030e-01, 2.75610119e-01, 1.45214856e-01,
          3.63024533e-01, 4.33936179e-01, 6.44835159e-02, 7.90613890e-02,
          3.94190282e-01, 4.33936179e-01, 4.09188449e-01, 5.88049926e-02,
          3.06717247e-01, 4.33936179e-01, 3.64783764e-01, 4.52388585e-01,
          4.52388585e-01, 4.52388585e-01, 2.11236179e-01, 7.02264309e-02,
          2.45453522e-01, 3.41679662e-01, 1.47996351e-01, 3.63905132e-01,
          3.63905132e-01, 3.63905132e-01, 3.63905132e-01, 2.50703245e-01,
          1.61679626e-01, 3.35872561e-01, 3.63905132e-01, 3.63905132e-01,
          3.94866318e-01, 3.21222514e-01, 1.82803571e-01, 3.94866318e-01,
          3.94866318e-01, 3.94866318e-01, 1.82400957e-01, 2.15840593e-01,
          3.94866318e-01, 2.21048027e-01, 4.40809935e-01, 4.40809935e-01,
          3.36433291e-01, 1.12599909e-01, 5.56009114e-02, 2.01304719e-01,
          4.40809935e-01, 4.40809935e-01, 3.94254744e-01, 3.94254744e-01,
          3.94254744e-01, 3.94254744e-01, 2.32529476e-01, 2.29001626e-01,
          2.81744331e-01, 2.61022210e-01, 3.46828610e-01, 4.01070029e-01,
          1.83676422e-01, 3.15217495e-01, 1.82944432e-01, 3.95508081e-01,
          4.01070029e-01, 4.01070029e-01, 1.71959609e-01, 4.01070029e-01 ]
      - [ 4.43823069e-01, 4.80796486e-01, 2.63401538e-01, 2.00221054e-02,
          4.61492203e-02, 4.80796486e-01, 4.80796486e-01, 3.50325629e-02,
          1.77721396e-01, 4.89705652e-01, 4.89705652e-01, 1.18569419e-01,
          4.13636938e-02, 1.27006486e-01, 4.39790487e-01, 1.19322784e-01,
          3.27605218e-01, 4.10617411e-01, 1.04394183e-01, 9.21639726e-02,
          2.50790864e-02, 2.06997301e-02, 6.76428825e-02, 4.12757993e-02,
          3.04302365e-01, 6.61086679e-01, 6.61086679e-01, 4.97305989e-02,
          4.70828354e-01, 4.70828354e-01, 2.19067499e-01, 2.36013830e-01,
          4.70828354e-01, 4.70828354e-01, 4.86245491e-02, 7.02048326e-03,
          5.14208637e-02, 4.12820190e-01, 4.12820190e-01, 3.64766836e-01,
          4.12820190e-01, 4.12820190e-01, 4.12820190e-01, 8.96917507e-02,
          5.47577161e-03, 9.88381542e-03, 1.81723610e-02, 8.38035271e-02,
          4.51203495e-01, 4.51203495e-01, 4.11960423e-01, 4.51203495e-01,
          4.51203495e-01, 6.31849915e-02, 1.36814276e-02, 3.96759599e-01,
          4.17304277e-01, 3.62159580e-01, 3.20846587e-01, 3.79167855e-01,
          4.17304277e-01, 3.32811624e-01, 3.61430049e-02, 1.94823195e-03,
          5.46496630e-01, 5.46496630e-01, 4.99781333e-02, 6.51712939e-02,
          1.36464432e-01, 5.46496630e-01, 2.69645572e-01, 2.20571645e-02,
          3.85827899e-01, 3.62213776e-02, 1.21989414e-01, 2.79323250e-01,
          1.81242481e-01, 1.23533383e-01, 4.84415263e-01, 4.84415263e-01,
          4.84415263e-01, 1.36814276e-02, 3.96759599e-01, 4.17304277e-01,
          3.62159580e-01, 3.20846587e-01, 3.79167855e-01, 4.17304277e-01,
          3.32811624e-01, 3.61430049e-02, 1.94823195e-03, 5.46496630e-01,
          5.46496630e-01, 4.99781333e-02, 6.51712939e-02, 1.36464432e-01,
          5.46496630e-01, 2.69645572e-01, 2.20571645e-02, 3.85827899e-01,
          3.62213776e-02, 1.21989414e-01, 2.79323250e-01, 1.81242481e-01,
          1.23533383e-01, 4.84415263e-01, 4.84415263e-01, 4.84415263e-01,
          2.50637680e-02, 1.89012870e-01, 5.46685040e-01, 1.88432291e-01,
          4.25300784e-02, 5.15464358e-02, 5.46685040e-01, 5.46685040e-01,
          1.47038668e-01, 2.26018932e-02, 3.76696795e-01, 5.16862214e-01,
          5.16862214e-01, 5.16862214e-01, 2.41364334e-02, 1.27663001e-01,
          1.64153278e-01, 8.46192092e-02, 5.14345229e-01, 1.71723049e-02,
          6.66249245e-02, 1.33734480e-01, 5.14345229e-01, 1.26091823e-01,
          1.82923511e-01, 3.59487683e-01, 5.14345229e-01, 1.93685926e-02,
          1.60053689e-02, 4.87283394e-02, 2.45512761e-02, 1.11669060e-02,
          2.39847619e-02, 1.94757029e-01, 6.89520836e-01, 6.89520836e-01,
          1.90992802e-01, 8.90465528e-02, 3.45822841e-01, 4.51463073e-01,
          4.51463073e-01, 1.05701052e-01, 7.10014403e-02, 4.51463073e-01,
          4.51463073e-01, 2.43947789e-01, 6.76566921e-03, 9.07721557e-03,
          1.87886253e-01, 7.40874708e-01, 3.71909022e-01, 8.64642952e-03,
          1.10685788e-01, 4.45115000e-01, 1.04394183e-01, 9.21639726e-02,
          2.50790864e-02, 2.06997301e-02, 6.76428825e-02, 4.12757993e-02,
          3.04302365e-01, 6.61086679e-01, 6.61086679e-01, 8.59015435e-02,
          1.42797157e-01, 1.45894468e-01, 8.53351131e-02, 1.55967221e-01,
          1.03986681e-01, 5.48648298e-01, 5.48648298e-01, 5.48648298e-01,
          6.08979687e-02, 8.22910219e-02, 3.45545381e-01, 4.26342487e-01,
          4.26342487e-01, 1.23734370e-01, 4.22183603e-01, 4.26342487e-01,
          3.56379151e-01, 9.88381542e-03, 1.81723610e-02, 8.38035271e-02,
          4.51203495e-01, 4.51203495e-01, 4.11960423e-01, 4.51203495e-01,
          4.51203495e-01, 6.31849915e-02, 1.63938031e-02, 2.07939539e-02,
          3.57361026e-02, 3.75313967e-01, 3.30329508e-01, 3.02751809e-01,
          5.68148077e-01, 5.68148077e-01, 7.16034174e-02, 2.04737172e-01,
          1.52949557e-01, 1.26596838e-01, 1.64836749e-01, 3.22876394e-01,
          4.83184665e-01, 4.83184665e-01, 4.41148728e-01, 3.47661942e-01,
          3.85827899e-01, 3.62213776e-02, 1.21989414e-01, 2.79323250e-01,
          1.81242481e-01, 1.23533383e-01, 4.84415263e-01, 4.84415263e-01,
          4.84415263e-01, 6.30301476e-01, 8.42973292e-02, 7.51240104e-02,
          1.51414737e-01, 1.27725318e-01, 1.37466565e-01, 2.43639782e-01,
          2.62488008e-01, 6.30301476e-01, 6.83203340e-01, 5.03862910e-02,
          3.27888466e-02, 3.38220857e-02, 1.88302118e-02, 5.04469126e-02,
          4.97529060e-02, 2.22515836e-01, 6.83203340e-01, 3.85827899e-01,
          3.62213776e-02, 1.21989414e-01, 2.79323250e-01, 1.81242481e-01,
          1.23533383e-01, 4.84415263e-01, 4.84415263e-01, 4.84415263e-01,
          6.30301476e-01, 8.42973292e-02, 7.51240104e-02, 1.51414737e-01,
          1.27725318e-01, 1.37466565e-01, 2.43639782e-01, 2.62488008e-01,
          6.30301476e-01, 6.83203340e-01, 5.03862910e-02, 3.27888466e-02,
          3.38220857e-02, 1.88302118e-02, 5.04469126e-02, 4.97529060e-02,
          2.22515836e-01, 6.83203340e-01, 5.14345229e-01, 1.71723049e-02,
          6.66249245e-02, 1.33734480e-01, 5.14345229e-01, 1.26091823e-01,
          1.82923511e-01, 3.59487683e-01, 5.14345229e-01, 5.71697354e-01,
          4.26841667e-04, 1.05980935e-03, 2.46962775e-02, 5.71697354e-01,
          1.13779418e-01, 1.04930423e-05, 1.48530053e-02, 5.71697354e-01,
          5.16524017e-01, 2.31935009e-02, 4.77378722e-03, 3.13877538e-02,
          5.16524017e-01, 1.98629647e-01, 2.97919601e-01, 2.54351377e-01,
          5.16524017e-01, 2.43947789e-01, 6.76566921e-03, 9.07721557e-03,
          1.87886253e-01, 7.40874708e-01, 3.71909022e-01, 8.64642952e-03,
          1.10685788e-01, 4.45115000e-01, 5.82725823e-01, 1.01829223e-01,
          0., 1.13745876e-01, 7.28082299e-01, 2.02846214e-01,
          1.23280650e-02, 2.49535888e-02, 2.40480363e-01, 5.31274617e-01,
          5.31274617e-01, 4.32530828e-02, 7.30406716e-02, 5.31274617e-01,
          3.41175824e-01, 1.18371420e-01, 1.85213219e-02, 9.98736545e-02 ]
      - [ 5.57542741e-01, 5.57542741e-01, 1.50311515e-01, 2.06560735e-02,
          1.60278291e-01, 5.57542741e-01, 1.01863272e-01, 1.93388741e-02,
          4.91043255e-02, 4.13115084e-01, 4.11038637e-01, 1.21355765e-01,
          6.65594488e-02, 5.62990606e-01, 5.62990606e-01, 2.56082006e-02,
          4.12299018e-03, 3.18474844e-02, 3.74346703e-01, 3.74346703e-01,
          3.74346703e-01, 3.74346703e-01, 3.74346703e-01, 3.03215444e-01,
          2.28499591e-01, 3.41508418e-01, 1.86555862e-01, 2.90721089e-01,
          2.44333893e-01, 2.96797097e-01, 1.37621770e-02, 3.66245687e-01,
          5.02639353e-01, 5.02639353e-01, 3.29278916e-01, 1.20959245e-01,
          4.20041174e-01, 3.57554913e-01, 4.20041174e-01, 3.75319034e-01,
          4.20041174e-01, 4.20041174e-01, 3.15828770e-02, 1.14583718e-02,
          1.42221093e-01, 3.21678817e-01, 3.68534595e-01, 3.68534595e-01,
          3.68534595e-01, 3.21860045e-01, 2.54567683e-01, 2.12964013e-01,
          3.68534595e-01, 3.68534595e-01, 5.87583482e-02, 2.32825831e-01,
          4.35385436e-01, 2.92193927e-02, 1.23582989e-01, 5.61906956e-02,
          5.97198546e-01, 5.97198546e-01, 1.19331300e-01, 1.90904126e-01,
          4.29055631e-01, 5.10486960e-01, 3.70565563e-01, 5.10486960e-01,
          2.18662560e-01, 1.98811591e-01, 1.14597298e-01, 1.24031954e-01,
          3.84851575e-01, 3.84851575e-01, 3.84851575e-01, 3.84851575e-01,
          3.84851575e-01, 3.84851575e-01, 2.20109299e-01, 1.55187696e-01,
          1.86974302e-01, 5.87583482e-02, 2.32825831e-01, 4.35385436e-01,
          2.92193927e-02, 1.23582989e-01, 5.61906956e-02, 5.97198546e-01,
          5.97198546e-01, 1.19331300e-01, 1.90904126e-01, 4.29055631e-01,
          5.10486960e-01, 3.70565563e-01, 5.10486960e-01, 2.18662560e-01,
          1.98811591e-01, 1.14597298e-01, 1.24031954e-01, 3.84851575e-01,
          3.84851575e-01, 3.84851575e-01, 3.84851575e-01, 3.84851575e-01,
          3.84851575e-01, 2.20109299e-01, 1.55187696e-01, 1.86974302e-01,
          2.31810249e-02, 5.24732172e-02, 2.18013495e-01, 5.45625806e-01,
          3.72402892e-02, 5.32386033e-03, 2.21794471e-01, 5.45625806e-01,
          5.45625806e-01, 1.09148875e-01, 1.78026691e-01, 5.50918102e-01,
          1.02476574e-01, 5.05755953e-02, 2.76329983e-02, 7.50401765e-02,
          5.60282648e-01, 5.60282648e-01, 3.97133976e-01, 3.97133976e-01,
          3.97133976e-01, 3.97133976e-01, 1.37222379e-01, 1.68776438e-01,
          2.30632633e-01, 3.27030361e-01, 3.97133976e-01, 2.91720424e-02,
          9.57187787e-02, 4.87758160e-01, 4.95902121e-01, 7.22222030e-02,
          3.00562195e-02, 5.70074283e-02, 4.95902121e-01, 4.95902121e-01,
          4.99210656e-02, 8.40968192e-02, 1.80952534e-01, 5.60758054e-01,
          8.92542601e-02, 1.12919491e-02, 2.54854858e-02, 5.60758054e-01,
          5.60758054e-01, 3.88877660e-01, 3.88877660e-01, 3.88877660e-01,
          3.88877660e-01, 1.54116645e-01, 2.07991511e-01, 1.47470921e-01,
          3.88877660e-01, 3.88877660e-01, 3.74346703e-01, 3.74346703e-01,
          3.74346703e-01, 3.74346703e-01, 3.74346703e-01, 3.03215444e-01,
          2.28499591e-01, 3.41508418e-01, 1.86555862e-01, 2.43712813e-01,
          2.12732464e-01, 4.00830507e-01, 4.00830507e-01, 4.00830507e-01,
          1.53815180e-01, 2.53693193e-01, 4.00830507e-01, 4.00830507e-01,
          2.12210596e-01, 5.00593074e-02, 2.30895549e-01, 4.21050221e-01,
          4.21050221e-01, 9.23329517e-02, 4.21050221e-01, 4.21050221e-01,
          4.21050221e-01, 3.21678817e-01, 3.68534595e-01, 3.68534595e-01,
          3.68534595e-01, 3.21860045e-01, 2.54567683e-01, 2.12964013e-01,
          3.68534595e-01, 3.68534595e-01, 3.00401300e-01, 1.76742554e-01,
          3.65279227e-01, 3.65279227e-01, 3.65279227e-01, 3.65279227e-01,
          2.72577256e-01, 3.65279227e-01, 3.65279227e-01, 1.58477932e-01,
          1.29579797e-01, 2.21540019e-01, 3.99620473e-01, 3.99620473e-01,
          3.99620473e-01, 3.99620473e-01, 3.99620473e-01, 3.26403141e-01,
          3.84851575e-01, 3.84851575e-01, 3.84851575e-01, 3.84851575e-01,
          3.84851575e-01, 3.84851575e-01, 2.20109299e-01, 1.55187696e-01,
          1.86974302e-01, 3.95255804e-01, 1.76402941e-01, 7.49885961e-02,
          3.95255804e-01, 3.95255804e-01, 3.89245898e-01, 1.63284704e-01,
          3.95255804e-01, 3.95255804e-01, 1.48519740e-01, 2.72900581e-01,
          8.73495117e-02, 2.79899567e-01, 4.03351992e-01, 4.03351992e-01,
          4.03351992e-01, 4.03351992e-01, 4.03351992e-01, 3.84851575e-01,
          3.84851575e-01, 3.84851575e-01, 3.84851575e-01, 3.84851575e-01,
          3.84851575e-01, 2.20109299e-01, 1.55187696e-01, 1.86974302e-01,
          3.95255804e-01, 1.76402941e-01, 7.49885961e-02, 3.95255804e-01,
          3.95255804e-01, 3.89245898e-01, 1.63284704e-01, 3.95255804e-01,
          3.95255804e-01, 1.48519740e-01, 2.72900581e-01, 8.73495117e-02,
          2.79899567e-01, 4.03351992e-01, 4.03351992e-01, 4.03351992e-01,
          4.03351992e-01, 4.03351992e-01, 3.97133976e-01, 3.97133976e-01,
          3.97133976e-01, 3.97133976e-01, 1.37222379e-01, 1.68776438e-01,
          2.30632633e-01, 3.27030361e-01, 3.97133976e-01, 3.47654343e-01,
          3.43024522e-01, 2.09687039e-01, 3.47654343e-01, 3.47654343e-01,
          3.47654343e-01, 3.31226200e-01, 3.47654343e-01, 3.47654343e-01,
          1.67423233e-01, 2.28145480e-01, 1.90268353e-01, 1.54856712e-01,
          8.16416666e-02, 5.06121814e-01, 5.06121814e-01, 5.06121814e-01,
          2.82025695e-01, 3.88877660e-01, 3.88877660e-01, 3.88877660e-01,
          3.88877660e-01, 1.54116645e-01, 2.07991511e-01, 1.47470921e-01,
          3.88877660e-01, 3.88877660e-01, 2.73560077e-01, 3.69039983e-01,
          1.99182615e-01, 3.23869318e-01, 3.69039983e-01, 3.69039983e-01,
          3.69039983e-01, 3.09774876e-01, 3.69039983e-01, 3.78982395e-01,
          3.78982395e-01, 2.24347506e-03, 1.57365222e-02, 3.66326630e-01,
          3.78982395e-01, 3.78982395e-01, 3.78982395e-01, 3.78982395e-01 ]
      - [ 4.97658253e-01, 4.97658253e-01, 3.65518481e-02, 4.84010354e-02,
          4.97658253e-01, 4.97658253e-01, 2.34215260e-02, 2.76982016e-03,
          1.18257618e-02, 4.13226604e-01, 5.18244088e-01, 6.13689199e-02,
          7.05907121e-02, 5.22687614e-01, 5.22687614e-01, 1.27264671e-02,
          7.81072676e-03, 8.37951526e-03, 1.54283464e-01, 4.66844618e-01,
          4.66844618e-01, 2.04746008e-01, 4.66844618e-01, 4.66844618e-01,
          1.80687115e-01, 1.52235746e-01, 4.48738746e-02, 5.04895389e-01,
          3.36371154e-01, 2.26145945e-02, 4.97327745e-03, 2.65510678e-01,
          5.10927439e-01, 5.10927439e-01, 1.73979878e-01, 5.86312860e-02,
          4.87503678e-01, 3.56297910e-01, 1.57770053e-01, 8.47334713e-02,
          4.81682837e-01, 4.87503678e-01, 8.24845508e-02, 1.23579390e-01,
          3.26646477e-01, 2.48712257e-01, 5.48555374e-01, 5.48555374e-01,
          3.56791735e-01, 5.78086376e-02, 8.56070369e-02, 1.78441107e-01,
          3.21822613e-01, 2.39700764e-01, 6.55119792e-02, 2.26846412e-02,
          1.02542892e-01, 1.05951883e-01, 1.18518114e-01, 1.74325317e-01,
          6.78351402e-01, 6.78351402e-01, 4.38588709e-02, 3.72976750e-01,
          1.43906757e-01, 4.52044934e-01, 4.52044934e-01, 4.52044934e-01,
          1.98259369e-01, 8.80431533e-02, 7.06870183e-02, 4.13007200e-01,
          3.29004318e-01, 4.40478086e-01, 4.40478086e-01, 4.40478086e-01,
          4.40478086e-01, 2.07555398e-01, 5.65136075e-02, 9.33781341e-02,
          2.37234175e-01, 6.55119792e-02, 2.26846412e-02, 1.02542892e-01,
          1.05951883e-01, 1.18518114e-01, 1.74325317e-01, 6.78351402e-01,
          6.78351402e-01, 4.38588709e-02, 3.72976750e-01, 1.43906757e-01,
          4.52044934e-01, 4.52044934e-01, 4.52044934e-01, 1.98259369e-01,
          8.80431533e-02, 7.06870183e-02, 4.13007200e-01, 3.29004318e-01,
          4.40478086e-01, 4.40478086e-01, 4.40478086e-01, 4.40478086e-01,
          2.07555398e-01, 5.65136075e-02, 9.33781341e-02, 2.37234175e-01,
          3.96014526e-02, 3.48764360e-02, 5.48257455e-02, 2.94147938e-01,
          6.46041706e-02, 2.80677602e-02, 5.46889246e-01, 5.46889246e-01,
          5.46889246e-01, 3.06921661e-01, 1.92933485e-01, 2.73649126e-01,
          3.02587837e-01, 3.55961263e-01, 4.73155268e-02, 8.09424296e-02,
          5.29784322e-01, 5.29784322e-01, 3.24881047e-01, 4.89145041e-01,
          4.89145041e-01, 4.89145041e-01, 2.39162937e-01, 1.41525060e-01,
          3.87144834e-02, 1.41912520e-01, 2.70022303e-01, 5.58595993e-02,
          3.24818455e-02, 9.96286646e-02, 5.44666648e-01, 3.00082028e-01,
          5.69714000e-03, 1.98148191e-02, 5.44666648e-01, 5.44666648e-01,
          2.91902218e-02, 2.33033579e-02, 4.67346273e-02, 5.73666513e-01,
          5.83643019e-02, 8.53934907e-04, 2.29588780e-03, 5.73666513e-01,
          5.73666513e-01, 3.40027660e-01, 4.39577907e-01, 4.39577907e-01,
          2.90421575e-01, 1.00332908e-01, 1.07060201e-01, 3.46698873e-02,
          4.39577907e-01, 4.39577907e-01, 1.54283464e-01, 4.66844618e-01,
          4.66844618e-01, 2.04746008e-01, 4.66844618e-01, 4.66844618e-01,
          1.80687115e-01, 1.52235746e-01, 4.48738746e-02, 3.59697044e-01,
          3.59697044e-01, 3.59697044e-01, 3.59697044e-01, 3.59697044e-01,
          2.17596799e-01, 3.59697044e-01, 3.59697044e-01, 2.08288401e-01,
          1.53002366e-01, 1.99026734e-01, 4.10742104e-01, 4.10742104e-01,
          4.10742104e-01, 1.67066142e-01, 2.47828662e-01, 4.10742104e-01,
          4.10742104e-01, 2.48712257e-01, 5.48555374e-01, 5.48555374e-01,
          3.56791735e-01, 5.78086376e-02, 8.56070369e-02, 1.78441107e-01,
          3.21822613e-01, 2.39700764e-01, 3.37105095e-01, 3.37105095e-01,
          3.37105095e-01, 3.37105095e-01, 2.95826286e-01, 3.37105095e-01,
          3.37105095e-01, 3.37105095e-01, 3.37105095e-01, 3.98652762e-01,
          6.58612922e-02, 1.57549292e-01, 3.98652762e-01, 3.98652762e-01,
          3.98652762e-01, 2.40371719e-01, 3.38318139e-01, 3.98652762e-01,
          3.29004318e-01, 4.40478086e-01, 4.40478086e-01, 4.40478086e-01,
          4.40478086e-01, 2.07555398e-01, 5.65136075e-02, 9.33781341e-02,
          2.37234175e-01, 3.81911337e-01, 3.81911337e-01, 3.81911337e-01,
          3.03479403e-01, 3.81911337e-01, 3.81911337e-01, 1.70310512e-01,
          1.40544966e-01, 3.55028033e-01, 4.36515152e-01, 4.60218936e-02,
          7.79911801e-02, 3.79750252e-01, 4.36515152e-01, 3.89297903e-01,
          9.56398100e-02, 3.33005428e-01, 4.36515152e-01, 3.29004318e-01,
          4.40478086e-01, 4.40478086e-01, 4.40478086e-01, 4.40478086e-01,
          2.07555398e-01, 5.65136075e-02, 9.33781341e-02, 2.37234175e-01,
          3.81911337e-01, 3.81911337e-01, 3.81911337e-01, 3.03479403e-01,
          3.81911337e-01, 3.81911337e-01, 1.70310512e-01, 1.40544966e-01,
          3.55028033e-01, 4.36515152e-01, 4.60218936e-02, 7.79911801e-02,
          3.79750252e-01, 4.36515152e-01, 3.89297903e-01, 9.56398100e-02,
          3.33005428e-01, 4.36515152e-01, 3.24881047e-01, 4.89145041e-01,
          4.89145041e-01, 4.89145041e-01, 2.39162937e-01, 1.41525060e-01,
          3.87144834e-02, 1.41912520e-01, 2.70022303e-01, 3.65654767e-01,
          3.65654767e-01, 3.65654767e-01, 3.65654767e-01, 2.31982991e-01,
          2.67614216e-01, 2.62093604e-01, 3.65654767e-01, 3.65654767e-01,
          3.69137049e-01, 3.69137049e-01, 2.77397811e-01, 3.69137049e-01,
          3.69137049e-01, 3.69137049e-01, 1.09759279e-01, 2.99570382e-01,
          3.69137049e-01, 3.40027660e-01, 4.39577907e-01, 4.39577907e-01,
          2.90421575e-01, 1.00332908e-01, 1.07060201e-01, 3.46698873e-02,
          4.39577907e-01, 4.39577907e-01, 3.97755742e-01, 3.97755742e-01,
          3.97755742e-01, 3.97755742e-01, 1.03613675e-01, 2.82442302e-01,
          2.73458332e-01, 2.18406036e-01, 3.87553692e-01, 3.56178582e-01,
          2.36647964e-01, 1.71477109e-01, 1.42838433e-01, 4.15356368e-01,
          4.15356368e-01, 4.15356368e-01, 2.70359874e-01, 4.15356368e-01 ]
      - [ 4.87227440e-01, 4.87227440e-01, 2.33320400e-01, 1.97835248e-02,
          3.11345100e-01, 4.87227440e-01, 3.47205043e-01, 7.12297112e-02,
          7.46419579e-02, 9.62599292e-02, 4.87785310e-01, 4.87785310e-01,
          1.80022761e-01, 4.87785310e-01, 4.87785310e-01, 2.36014016e-02,
          3.26728784e-02, 9.56082996e-03, 3.50967169e-01, 4.94547099e-01,
          4.94547099e-01, 1.58011034e-01, 3.24788511e-01, 4.22899909e-02,
          5.39976805e-02, 5.47087491e-02, 4.94547099e-01, 2.65609026e-01,
          2.15343595e-01, 1.04079813e-01, 1.06717952e-01, 2.03328043e-01,
          6.18549347e-01, 6.18549347e-01, 1.99015900e-01, 9.23336744e-02,
          5.17513976e-02, 6.78196549e-01, 6.78196549e-01, 2.00540155e-01,
          1.14762820e-01, 8.96190032e-02, 8.23578835e-02, 3.93698029e-02,
          2.99843308e-02, 1.92880034e-02, 6.58693731e-01, 6.58693731e-01,
          2.25300118e-02, 1.11098867e-02, 5.52463206e-03, 3.44170034e-01,
          7.74736777e-02, 1.34377005e-02, 1.16398178e-01, 3.67341936e-01,
          3.86265218e-01, 5.67363314e-02, 1.46511152e-01, 2.72666276e-01,
          5.34681022e-01, 5.34681022e-01, 1.61777467e-01, 2.04249267e-02,
          7.01638877e-01, 7.01638877e-01, 3.32169309e-02, 1.54165272e-02,
          2.41670781e-03, 2.21272185e-02, 6.32346123e-02, 4.63612936e-02,
          2.98219896e-03, 5.72353542e-01, 5.72353542e-01, 2.09802501e-02,
          7.66283367e-03, 3.09728701e-02, 5.72353542e-01, 9.92603227e-02,
          1.41186574e-02, 1.16398178e-01, 3.67341936e-01, 3.86265218e-01,
          5.67363314e-02, 1.46511152e-01, 2.72666276e-01, 5.34681022e-01,
          5.34681022e-01, 1.61777467e-01, 2.04249267e-02, 7.01638877e-01,
          7.01638877e-01, 3.32169309e-02, 1.54165272e-02, 2.41670781e-03,
          2.21272185e-02, 6.32346123e-02, 4.63612936e-02, 2.98219896e-03,
          5.72353542e-01, 5.72353542e-01, 2.09802501e-02, 7.66283367e-03,
          3.09728701e-02, 5.72353542e-01, 9.92603227e-02, 1.41186574e-02,
          9.78969187e-02, 1.62801534e-01, 1.46241158e-01, 2.15546004e-02,
          2.36420538e-02, 3.12592909e-02, 2.04661965e-01, 6.67821527e-01,
          6.67821527e-01, 3.94523218e-02, 7.00604618e-01, 7.00604618e-01,
          1.97361074e-02, 8.42630025e-03, 2.47902032e-02, 3.89378443e-02,
          6.58706576e-02, 5.31585105e-02, 1.37969041e-02, 5.61294138e-01,
          5.61294138e-01, 2.86214035e-02, 1.46534871e-02, 2.09762510e-02,
          5.61294138e-01, 2.18109831e-01, 2.33722012e-03, 4.12823148e-02,
          4.74307314e-02, 8.63132104e-02, 1.45704262e-02, 3.84408981e-03,
          1.87930968e-02, 8.08929801e-02, 6.98034465e-01, 6.98034465e-01,
          1.89884171e-01, 4.73376721e-01, 4.73376721e-01, 2.16400668e-01,
          1.25994518e-01, 7.38703366e-03, 1.07426159e-02, 4.73376721e-01,
          4.73376721e-01, 7.03897253e-02, 4.24595743e-01, 4.24595743e-01,
          4.24595743e-01, 4.24595743e-01, 2.24266618e-01, 4.24595743e-01,
          1.60516351e-01, 1.15477532e-01, 3.50967169e-01, 4.94547099e-01,
          4.94547099e-01, 1.58011034e-01, 3.24788511e-01, 4.22899909e-02,
          5.39976805e-02, 5.47087491e-02, 4.94547099e-01, 2.38508001e-01,
          7.04116300e-02, 2.72325967e-02, 3.51993471e-01, 3.49614650e-01,
          1.73472241e-01, 4.67803240e-01, 4.67803240e-01, 4.67803240e-01,
          2.83919543e-01, 2.33784169e-02, 2.52205729e-01, 6.04949653e-01,
          4.37785089e-01, 8.90376940e-02, 4.43595201e-01, 1.21227115e-01,
          2.68653601e-01, 1.92880034e-02, 6.58693731e-01, 6.58693731e-01,
          2.25300118e-02, 1.11098867e-02, 5.52463206e-03, 3.44170034e-01,
          7.74736777e-02, 1.34377005e-02, 1.85746234e-02, 3.98259051e-02,
          3.31873596e-02, 2.67076083e-02, 1.12905195e-02, 1.38755605e-01,
          9.46428418e-01, 2.67446697e-01, 1.33042978e-02, 2.37280373e-02,
          5.79629280e-02, 5.37495434e-01, 5.37495434e-01, 2.28292316e-01,
          2.50806779e-01, 5.37495434e-01, 9.16998461e-02, 2.39837244e-02,
          2.98219896e-03, 5.72353542e-01, 5.72353542e-01, 2.09802501e-02,
          7.66283367e-03, 3.09728701e-02, 5.72353542e-01, 9.92603227e-02,
          1.41186574e-02, 2.96598971e-02, 4.28580604e-02, 4.35486482e-03,
          7.05084344e-03, 2.82321312e-03, 9.66073200e-02, 9.47881341e-01,
          2.81971902e-01, 2.07410697e-02, 4.67264116e-01, 2.29030818e-01,
          2.33615577e-01, 2.79568374e-01, 1.45170867e-01, 1.49381444e-01,
          4.81722176e-01, 2.90105224e-01, 4.81722176e-01, 2.98219896e-03,
          5.72353542e-01, 5.72353542e-01, 2.09802501e-02, 7.66283367e-03,
          3.09728701e-02, 5.72353542e-01, 9.92603227e-02, 1.41186574e-02,
          2.96598971e-02, 4.28580604e-02, 4.35486482e-03, 7.05084344e-03,
          2.82321312e-03, 9.66073200e-02, 9.47881341e-01, 2.81971902e-01,
          2.07410697e-02, 4.67264116e-01, 2.29030818e-01, 2.33615577e-01,
          2.79568374e-01, 1.45170867e-01, 1.49381444e-01, 4.81722176e-01,
          2.90105224e-01, 4.81722176e-01, 1.37969041e-02, 5.61294138e-01,
          5.61294138e-01, 2.86214035e-02, 1.46534871e-02, 2.09762510e-02,
          5.61294138e-01, 2.18109831e-01, 2.33722012e-03, 2.93135047e-02,
          6.52124882e-02, 1.36232534e-02, 1.88130513e-03, 1.40637755e-02,
          5.06146364e-02, 8.70313764e-01, 4.75126296e-01, 7.98982661e-03,
          3.92292678e-01, 3.97986293e-01, 2.55100042e-01, 2.07671344e-01,
          3.02543372e-01, 3.97986293e-01, 3.97986293e-01, 2.82420009e-01,
          2.95726687e-01, 7.03897253e-02, 4.24595743e-01, 4.24595743e-01,
          4.24595743e-01, 4.24595743e-01, 2.24266618e-01, 4.24595743e-01,
          1.60516351e-01, 1.15477532e-01, 6.02854431e-01, 4.79613841e-02,
          2.99472897e-03, 2.54166666e-02, 6.33965060e-02, 2.07096159e-01,
          6.02854431e-01, 4.09383565e-01, 2.22835451e-01, 6.80895984e-01,
          6.80895984e-01, 6.27155378e-02, 3.80218029e-02, 4.23871651e-02,
          2.74261199e-02, 7.40051717e-02, 1.36962116e-01, 1.83849737e-01 ]
      - [ 5.42825639e-01, 5.42825639e-01, 1.52065769e-01, 1.62956230e-02,
          1.80112109e-01, 5.42825639e-01, 2.26980910e-01, 2.67152488e-02,
          5.03612645e-02, 3.44072640e-01, 4.03061152e-01, 1.52542487e-01,
          7.21570477e-02, 5.54756939e-01, 6.10342383e-01, 4.97238562e-02,
          3.24541400e-03, 4.27751802e-02, 3.44389081e-01, 3.62888724e-01,
          3.62888724e-01, 3.62888724e-01, 3.62888724e-01, 3.50471973e-01,
          2.97552377e-01, 3.62888724e-01, 8.92267302e-02, 1.90404609e-01,
          2.35759705e-01, 3.29620600e-01, 6.72594458e-02, 2.29387015e-01,
          4.93222803e-01, 4.93222803e-01, 4.93222803e-01, 8.74024108e-02,
          4.09227341e-01, 3.00343961e-01, 4.09227341e-01, 4.09227341e-01,
          4.09227341e-01, 3.76567543e-01, 1.32322162e-02, 7.85084348e-03,
          3.06263804e-01, 1.64948747e-01, 3.75983119e-01, 3.75983119e-01,
          3.75983119e-01, 3.75983119e-01, 2.84329414e-01, 2.00031400e-01,
          3.75983119e-01, 3.75983119e-01, 8.58444534e-03, 1.64146632e-01,
          4.43096042e-01, 2.37596668e-02, 4.27686200e-02, 3.43483128e-02,
          6.12253189e-01, 6.12253189e-01, 1.31352633e-01, 8.13901052e-02,
          4.26100403e-01, 5.58360279e-01, 2.69856125e-01, 5.58360279e-01,
          1.44454867e-01, 1.76617160e-01, 1.89237326e-01, 1.48364902e-01,
          3.76512140e-01, 3.76512140e-01, 3.76512140e-01, 3.41620445e-01,
          3.76512140e-01, 3.76512140e-01, 2.34811440e-01, 1.33325517e-01,
          3.12753946e-01, 8.58444534e-03, 1.64146632e-01, 4.43096042e-01,
          2.37596668e-02, 4.27686200e-02, 3.43483128e-02, 6.12253189e-01,
          6.12253189e-01, 1.31352633e-01, 8.13901052e-02, 4.26100403e-01,
          5.58360279e-01, 2.69856125e-01, 5.58360279e-01, 1.44454867e-01,
          1.76617160e-01, 1.89237326e-01, 1.48364902e-01, 3.76512140e-01,
          3.76512140e-01, 3.76512140e-01, 3.41620445e-01, 3.76512140e-01,
          3.76512140e-01, 2.34811440e-01, 1.33325517e-01, 3.12753946e-01,
          8.26516561e-03, 5.12968190e-02, 3.00619811e-01, 5.34351647e-01,
          2.22127009e-02, 1.02557903e-02, 2.10708365e-01, 5.34351647e-01,
          5.34351647e-01, 9.81588438e-02, 2.01708451e-01, 5.09917915e-01,
          1.12731993e-01, 7.47265369e-02, 2.25120503e-03, 9.75153893e-02,
          5.72772145e-01, 5.72772145e-01, 3.95243675e-01, 3.95243675e-01,
          3.95243675e-01, 3.95243675e-01, 1.52577072e-01, 1.36909842e-01,
          1.76368982e-01, 3.76607984e-01, 3.95243675e-01, 8.98993015e-02,
          1.22099668e-01, 4.57400978e-01, 5.01485407e-01, 8.02904963e-02,
          2.99496055e-02, 3.12913507e-02, 5.01485407e-01, 5.01485407e-01,
          5.65180518e-02, 6.75328448e-02, 2.21242458e-01, 5.55284023e-01,
          1.12185895e-01, 1.10697551e-02, 4.72340221e-03, 5.55284023e-01,
          5.55284023e-01, 3.86453599e-01, 3.86453599e-01, 3.86453599e-01,
          3.86453599e-01, 1.23150200e-01, 2.12306336e-01, 1.99551716e-01,
          3.86453599e-01, 3.86453599e-01, 3.44389081e-01, 3.62888724e-01,
          3.62888724e-01, 3.62888724e-01, 3.62888724e-01, 3.50471973e-01,
          2.97552377e-01, 3.62888724e-01, 8.92267302e-02, 1.82393938e-01,
          1.97309569e-01, 3.82172227e-01, 3.82172227e-01, 3.82172227e-01,
          2.48392686e-01, 3.63326728e-01, 3.82172227e-01, 3.82172227e-01,
          1.26820818e-01, 7.03137815e-02, 3.68365228e-01, 3.97785455e-01,
          3.97785455e-01, 2.19406873e-01, 3.97785455e-01, 3.97785455e-01,
          3.97785455e-01, 1.64948747e-01, 3.75983119e-01, 3.75983119e-01,
          3.75983119e-01, 3.75983119e-01, 2.84329414e-01, 2.00031400e-01,
          3.75983119e-01, 3.75983119e-01, 3.21101844e-01, 1.62423998e-01,
          2.93388128e-01, 3.78046036e-01, 3.78046036e-01, 3.78046036e-01,
          2.57030368e-01, 3.78046036e-01, 3.78046036e-01, 1.41547412e-01,
          1.71814099e-01, 1.79446995e-01, 3.90372306e-01, 3.90372306e-01,
          3.90372306e-01, 3.90372306e-01, 3.90372306e-01, 3.90372306e-01,
          3.76512140e-01, 3.76512140e-01, 3.76512140e-01, 3.41620445e-01,
          3.76512140e-01, 3.76512140e-01, 2.34811440e-01, 1.33325517e-01,
          3.12753946e-01, 4.08210337e-01, 1.80356249e-01, 1.22344598e-01,
          4.08210337e-01, 4.08210337e-01, 2.95078665e-01, 1.67856351e-01,
          4.08210337e-01, 4.08210337e-01, 2.03537434e-01, 1.57322899e-01,
          1.32502019e-01, 2.56746948e-01, 4.11396801e-01, 4.11396801e-01,
          4.11396801e-01, 4.11396801e-01, 4.11396801e-01, 3.76512140e-01,
          3.76512140e-01, 3.76512140e-01, 3.41620445e-01, 3.76512140e-01,
          3.76512140e-01, 2.34811440e-01, 1.33325517e-01, 3.12753946e-01,
          4.08210337e-01, 1.80356249e-01, 1.22344598e-01, 4.08210337e-01,
          4.08210337e-01, 2.95078665e-01, 1.67856351e-01, 4.08210337e-01,
          4.08210337e-01, 2.03537434e-01, 1.57322899e-01, 1.32502019e-01,
          2.56746948e-01, 4.11396801e-01, 4.11396801e-01, 4.11396801e-01,
          4.11396801e-01, 4.11396801e-01, 3.95243675e-01, 3.95243675e-01,
          3.95243675e-01, 3.95243675e-01, 1.52577072e-01, 1.36909842e-01,
          1.76368982e-01, 3.76607984e-01, 3.95243675e-01, 3.58395815e-01,
          2.53896207e-01, 2.93947101e-01, 3.58395815e-01, 3.58395815e-01,
          3.58395815e-01, 2.73616076e-01, 3.58395815e-01, 3.58395815e-01,
          2.17275456e-01, 1.44799843e-01, 2.67016917e-01, 1.02043390e-01,
          9.88812149e-02, 4.91721064e-01, 4.91721064e-01, 4.91721064e-01,
          3.31747085e-01, 3.86453599e-01, 3.86453599e-01, 3.86453599e-01,
          3.86453599e-01, 1.23150200e-01, 2.12306336e-01, 1.99551716e-01,
          3.86453599e-01, 3.86453599e-01, 3.30556273e-01, 3.52989972e-01,
          2.06401572e-01, 3.52989972e-01, 3.52989972e-01, 3.52989972e-01,
          3.52989972e-01, 3.11436296e-01, 3.52989972e-01, 3.77130717e-01,
          3.77130717e-01, 8.32797866e-03, 2.38698665e-02, 3.77130717e-01,
          3.77130717e-01, 3.77130717e-01, 3.77130717e-01, 3.77130717e-01 ]
      - [ 5.34816980e-01, 5.34816980e-01, 1.49508089e-01, 1.27329186e-01,
          3.12176704e-01, 5.34816980e-01, 2.09674016e-02, 2.93035206e-04,
          1.05841598e-02, 4.10526603e-01, 4.40358520e-01, 2.73921192e-02,
          9.05710645e-03, 5.17370164e-01, 6.02208793e-01, 1.03456983e-02,
          7.72346649e-03, 1.45957628e-02, 2.33387068e-01, 4.63158756e-01,
          4.63158756e-01, 2.79863536e-01, 4.63158756e-01, 4.63158756e-01,
          3.67246084e-02, 2.18453389e-02, 5.18706813e-02, 3.79311025e-01,
          3.78000617e-01, 4.03350964e-03, 1.19184488e-02, 2.83342808e-01,
          5.23510635e-01, 5.23510635e-01, 2.71161586e-01, 7.69006014e-02,
          3.63937318e-01, 4.31089163e-01, 1.58252522e-01, 1.16947860e-01,
          4.75579411e-01, 4.75579411e-01, 2.35049054e-01, 2.44380459e-01,
          2.66307175e-01, 3.69704276e-01, 5.84822536e-01, 5.84822536e-01,
          2.60233253e-01, 4.07212675e-02, 3.91177200e-02, 1.09098718e-01,
          2.05379054e-01, 2.20116884e-01, 9.45050791e-02, 8.92237499e-02,
          1.01836063e-01, 1.06638052e-01, 7.81357512e-02, 1.55437246e-01,
          6.76750183e-01, 6.76750183e-01, 9.14440751e-02, 4.11170959e-01,
          4.11170959e-01, 2.37756416e-01, 1.00496538e-01, 4.11170959e-01,
          4.11170959e-01, 3.27151060e-01, 2.85376787e-01, 2.54068643e-01,
          3.05298626e-01, 4.64059442e-01, 4.64059442e-01, 4.64059442e-01,
          4.64059442e-01, 1.54199272e-01, 5.15708849e-02, 8.17541406e-02,
          8.73624757e-02, 9.45050791e-02, 8.92237499e-02, 1.01836063e-01,
          1.06638052e-01, 7.81357512e-02, 1.55437246e-01, 6.76750183e-01,
          6.76750183e-01, 9.14440751e-02, 4.11170959e-01, 4.11170959e-01,
          2.37756416e-01, 1.00496538e-01, 4.11170959e-01, 4.11170959e-01,
          3.27151060e-01, 2.85376787e-01, 2.54068643e-01, 3.05298626e-01,
          4.64059442e-01, 4.64059442e-01, 4.64059442e-01, 4.64059442e-01,
          1.54199272e-01, 5.15708849e-02, 8.17541406e-02, 8.73624757e-02,
          2.56181154e-02, 2.97394278e-03, 1.04621485e-01, 4.46165025e-01,
          9.06851366e-02, 4.38828804e-02, 5.07970929e-01, 5.07970929e-01,
          5.07970929e-01, 4.38449532e-01, 1.66393563e-01, 2.01055661e-01,
          2.34244615e-01, 2.91731626e-01, 3.41893971e-01, 3.06474894e-01,
          4.38449532e-01, 4.38449532e-01, 2.39431113e-01, 5.15093744e-01,
          5.15093744e-01, 5.15093744e-01, 1.41636297e-01, 2.19702780e-01,
          2.36178815e-01, 9.39939469e-02, 9.28360000e-02, 1.83958977e-01,
          3.88542190e-02, 2.33800188e-01, 5.44517338e-01, 1.22197211e-01,
          5.21154981e-03, 9.61745158e-03, 5.44517338e-01, 5.44517338e-01,
          4.15717997e-02, 1.54507142e-02, 8.21343660e-02, 5.71640193e-01,
          4.64164764e-02, 1.51079213e-02, 5.36522530e-02, 5.71640193e-01,
          5.71640193e-01, 3.51298243e-01, 4.30817336e-01, 4.30817336e-01,
          3.10086250e-01, 6.94880038e-02, 1.29018947e-01, 1.10651687e-01,
          4.30817336e-01, 4.30817336e-01, 2.33387068e-01, 4.63158756e-01,
          4.63158756e-01, 2.79863536e-01, 4.63158756e-01, 4.63158756e-01,
          3.67246084e-02, 2.18453389e-02, 5.18706813e-02, 3.66784334e-01,
          3.66784334e-01, 3.66784334e-01, 3.66784334e-01, 3.66784334e-01,
          2.13722408e-01, 3.66784334e-01, 3.66784334e-01, 9.45673734e-02,
          1.76534772e-01, 2.20322713e-01, 4.12393063e-01, 4.12393063e-01,
          4.12393063e-01, 1.45840630e-01, 2.11101875e-01, 4.12393063e-01,
          4.12393063e-01, 3.69704276e-01, 5.84822536e-01, 5.84822536e-01,
          2.60233253e-01, 4.07212675e-02, 3.91177200e-02, 1.09098718e-01,
          2.05379054e-01, 2.20116884e-01, 3.01370651e-01, 3.59744281e-01,
          3.59744281e-01, 3.59744281e-01, 1.40261441e-01, 3.30775797e-01,
          3.59744281e-01, 3.59744281e-01, 3.59744281e-01, 2.44209424e-01,
          8.47269669e-02, 2.17229858e-01, 4.09794778e-01, 4.09794778e-01,
          4.09794778e-01, 2.05528066e-01, 4.09794778e-01, 4.09794778e-01,
          3.05298626e-01, 4.64059442e-01, 4.64059442e-01, 4.64059442e-01,
          4.64059442e-01, 1.54199272e-01, 5.15708849e-02, 8.17541406e-02,
          8.73624757e-02, 3.53474855e-01, 3.53474855e-01, 3.53474855e-01,
          3.53474855e-01, 3.53474855e-01, 3.53474855e-01, 3.40788335e-01,
          1.52182996e-01, 3.27879697e-01, 4.68244791e-01, 4.03483324e-02,
          7.41921887e-02, 3.93680900e-01, 4.68244791e-01, 2.71451503e-01,
          1.15044177e-01, 2.97531843e-01, 4.68244791e-01, 3.05298626e-01,
          4.64059442e-01, 4.64059442e-01, 4.64059442e-01, 4.64059442e-01,
          1.54199272e-01, 5.15708849e-02, 8.17541406e-02, 8.73624757e-02,
          3.53474855e-01, 3.53474855e-01, 3.53474855e-01, 3.53474855e-01,
          3.53474855e-01, 3.53474855e-01, 3.40788335e-01, 1.52182996e-01,
          3.27879697e-01, 4.68244791e-01, 4.03483324e-02, 7.41921887e-02,
          3.93680900e-01, 4.68244791e-01, 2.71451503e-01, 1.15044177e-01,
          2.97531843e-01, 4.68244791e-01, 2.39431113e-01, 5.15093744e-01,
          5.15093744e-01, 5.15093744e-01, 1.41636297e-01, 2.19702780e-01,
          2.36178815e-01, 9.39939469e-02, 9.28360000e-02, 3.45132977e-01,
          3.45132977e-01, 3.45132977e-01, 3.45132977e-01, 2.93499500e-01,
          2.76753217e-01, 3.45132977e-01, 3.45132977e-01, 3.45132977e-01,
          3.59554976e-01, 3.55926365e-01, 3.32753658e-01, 3.59554976e-01,
          3.59554976e-01, 3.59554976e-01, 1.92054421e-01, 2.75164217e-01,
          3.59554976e-01, 3.51298243e-01, 4.30817336e-01, 4.30817336e-01,
          3.10086250e-01, 6.94880038e-02, 1.29018947e-01, 1.10651687e-01,
          4.30817336e-01, 4.30817336e-01, 3.81154358e-01, 3.81154358e-01,
          3.81154358e-01, 3.81154358e-01, 2.00812265e-01, 1.97286487e-01,
          3.81154358e-01, 2.12773919e-01, 3.81154358e-01, 3.95029128e-01,
          1.98392391e-01, 3.32245380e-01, 1.73949450e-01, 3.95029128e-01,
          3.95029128e-01, 3.95029128e-01, 1.89231634e-01, 3.95029128e-01 ]
      - [ 4.61875290e-01, 1.11945592e-01, 1.22745529e-01, 3.19817401e-02,
          1.98129967e-01, 4.61875290e-01, 4.61875290e-01, 2.72387236e-01,
          4.61875290e-01, 2.64302164e-01, 4.69072551e-01, 4.69072551e-01,
          1.36429310e-01, 4.69072551e-01, 4.69072551e-01, 1.37612522e-01,
          6.63531646e-02, 5.82244657e-02, 4.30210650e-01, 4.30210650e-01,
          4.30210650e-01, 8.87215734e-02, 3.48349988e-01, 1.87738821e-01,
          2.26872101e-01, 1.98599368e-01, 4.30210650e-01, 3.35873425e-01,
          3.75724614e-01, 1.65241688e-01, 5.77182025e-02, 1.02518328e-01,
          5.86508930e-01, 5.86508930e-01, 9.06353369e-02, 5.30775264e-02,
          8.82818624e-02, 6.81400478e-01, 6.81400478e-01, 6.82898313e-02,
          7.42886290e-02, 1.93074048e-01, 8.44470933e-02, 4.57326286e-02,
          1.03932144e-02, 1.40210958e-02, 6.34464443e-01, 6.34464443e-01,
          9.80576407e-03, 2.08449643e-03, 1.27378581e-02, 4.01752830e-01,
          1.63375810e-01, 4.33928333e-03, 1.95410654e-01, 3.03707361e-01,
          2.34994128e-01, 1.80011302e-01, 1.30149394e-01, 2.19972521e-01,
          5.92768490e-01, 5.92768490e-01, 8.91946033e-02, 2.64117159e-02,
          7.00223982e-01, 7.00223982e-01, 6.70142025e-02, 8.41461122e-03,
          2.72913417e-03, 5.97301088e-02, 3.96673009e-02, 4.44403701e-02,
          1.01389992e-03, 6.62669241e-01, 6.62669241e-01, 1.15902042e-02,
          1.16385476e-04, 1.08844170e-03, 3.13699394e-01, 1.28756061e-01,
          1.09753630e-03, 1.95410654e-01, 3.03707361e-01, 2.34994128e-01,
          1.80011302e-01, 1.30149394e-01, 2.19972521e-01, 5.92768490e-01,
          5.92768490e-01, 8.91946033e-02, 2.64117159e-02, 7.00223982e-01,
          7.00223982e-01, 6.70142025e-02, 8.41461122e-03, 2.72913417e-03,
          5.97301088e-02, 3.96673009e-02, 4.44403701e-02, 1.01389992e-03,
          6.62669241e-01, 6.62669241e-01, 1.15902042e-02, 1.16385476e-04,
          1.08844170e-03, 3.13699394e-01, 1.28756061e-01, 1.09753630e-03,
          1.41046137e-01, 1.87242910e-01, 2.02944472e-01, 3.60271096e-01,
          1.50680423e-01, 4.13570516e-02, 2.85802186e-01, 5.75421810e-01,
          5.75421810e-01, 1.16541043e-01, 5.15947163e-01, 5.42456686e-01,
          1.45079434e-01, 6.74370602e-02, 2.68798713e-02, 3.10716666e-02,
          3.93816590e-01, 4.88021523e-01, 3.18017742e-03, 6.16042972e-01,
          7.32139409e-01, 6.64301068e-02, 9.90921631e-02, 3.17647569e-02,
          2.28542507e-01, 9.73679349e-02, 1.38416486e-02, 1.14143461e-01,
          1.89707309e-01, 5.40407263e-02, 3.20347399e-01, 4.54545796e-01,
          4.54545796e-01, 1.20215736e-01, 4.54545796e-01, 4.54545796e-01,
          2.59153694e-01, 3.53904694e-01, 3.94121617e-01, 3.94121617e-01,
          3.94121617e-01, 1.37208119e-01, 9.03780013e-02, 3.94121617e-01,
          3.94121617e-01, 1.28457397e-01, 3.87463450e-01, 4.26659554e-01,
          4.26659554e-01, 4.26659554e-01, 4.26659554e-01, 2.66628563e-01,
          1.57826096e-01, 7.03940317e-02, 4.30210650e-01, 4.30210650e-01,
          4.30210650e-01, 8.87215734e-02, 3.48349988e-01, 1.87738821e-01,
          2.26872101e-01, 1.98599368e-01, 4.30210650e-01, 1.58124760e-01,
          6.73403032e-03, 4.32347916e-02, 4.01402712e-01, 4.83883619e-01,
          1.94354072e-01, 4.83883619e-01, 4.83883619e-01, 2.58691072e-01,
          4.34035324e-02, 9.87999588e-02, 4.59349990e-01, 5.89572966e-01,
          5.89572966e-01, 1.04415670e-01, 2.03360468e-01, 1.49635822e-01,
          4.02973779e-02, 1.40210958e-02, 6.34464443e-01, 6.34464443e-01,
          9.80576407e-03, 2.08449643e-03, 1.27378581e-02, 4.01752830e-01,
          1.63375810e-01, 4.33928333e-03, 7.01023499e-03, 2.45615393e-02,
          1.18577436e-01, 1.92137342e-02, 3.23764817e-03, 1.33673502e-02,
          6.99194849e-01, 6.99194849e-01, 1.41311286e-03, 7.22574443e-02,
          1.89307258e-01, 4.24876183e-01, 4.24876183e-01, 4.24876183e-01,
          2.17624456e-01, 4.24876183e-01, 4.24876183e-01, 6.88342154e-02,
          1.01389992e-03, 6.62669241e-01, 6.62669241e-01, 1.15902042e-02,
          1.16385476e-04, 1.08844170e-03, 3.13699394e-01, 1.28756061e-01,
          1.09753630e-03, 4.61403187e-03, 2.73830537e-02, 5.59757650e-02,
          2.07634154e-03, 9.48388260e-05, 1.33179710e-03, 7.03230977e-01,
          7.03230977e-01, 1.42021617e-03, 4.58224975e-02, 2.81549960e-01,
          4.75105226e-01, 2.16029808e-02, 7.33342320e-02, 9.98296067e-02,
          5.78387201e-01, 5.78387201e-01, 4.74912561e-02, 1.01389992e-03,
          6.62669241e-01, 6.62669241e-01, 1.15902042e-02, 1.16385476e-04,
          1.08844170e-03, 3.13699394e-01, 1.28756061e-01, 1.09753630e-03,
          4.61403187e-03, 2.73830537e-02, 5.59757650e-02, 2.07634154e-03,
          9.48388260e-05, 1.33179710e-03, 7.03230977e-01, 7.03230977e-01,
          1.42021617e-03, 4.58224975e-02, 2.81549960e-01, 4.75105226e-01,
          2.16029808e-02, 7.33342320e-02, 9.98296067e-02, 5.78387201e-01,
          5.78387201e-01, 4.74912561e-02, 3.18017742e-03, 6.16042972e-01,
          7.32139409e-01, 6.64301068e-02, 9.90921631e-02, 3.17647569e-02,
          2.28542507e-01, 9.73679349e-02, 1.38416486e-02, 2.43452359e-02,
          1.22374501e-02, 5.54350242e-02, 1.79551486e-02, 4.79278341e-02,
          6.09025396e-02, 7.00922072e-01, 7.00922072e-01, 1.65974498e-02,
          4.51955378e-01, 4.51955378e-01, 3.01363587e-01, 5.17631806e-02,
          1.61631748e-01, 1.89243481e-01, 4.51955378e-01, 4.46164310e-01,
          1.67912364e-01, 1.28457397e-01, 3.87463450e-01, 4.26659554e-01,
          4.26659554e-01, 4.26659554e-01, 4.26659554e-01, 2.66628563e-01,
          1.57826096e-01, 7.03940317e-02, 3.11871737e-01, 1.66977376e-01,
          2.42538735e-01, 2.56153613e-01, 4.13093150e-01, 4.13093150e-01,
          4.13093150e-01, 4.13093150e-01, 2.52397358e-01, 4.90613222e-01,
          4.90613222e-01, 3.76293212e-01, 1.31404027e-01, 1.34363785e-01,
          1.06213681e-01, 2.57271379e-01, 1.36413515e-01, 4.90613222e-01 ]
      - [ 5.31880140e-01, 5.31880140e-01, 2.62313820e-02, 8.72452836e-03,
          1.56609982e-01, 5.31880140e-01, 3.33486676e-01, 2.60526258e-02,
          9.38929394e-02, 2.83096999e-01, 4.74563926e-01, 4.74563926e-01,
          9.99897793e-02, 4.74563926e-01, 4.74563926e-01, 3.26275416e-02,
          2.80018104e-03, 5.65866418e-02, 4.30045605e-01, 4.30045605e-01,
          4.30045605e-01, 1.40363187e-01, 3.15961242e-01, 1.31502301e-01,
          2.50482291e-01, 2.37443730e-01, 4.30045605e-01, 1.60972133e-01,
          3.86800557e-01, 7.90608823e-02, 7.25033060e-02, 9.92544964e-02,
          6.30270898e-01, 6.30270898e-01, 2.60463003e-02, 4.07482944e-02,
          5.27735539e-02, 5.71662903e-01, 6.97232783e-01, 1.63589701e-01,
          1.41292378e-01, 3.14771891e-01, 1.65164307e-01, 5.36137074e-02,
          3.69152017e-02, 7.09089451e-03, 6.54100955e-01, 6.54100955e-01,
          5.09519987e-02, 1.62829589e-02, 1.09545635e-02, 3.34025860e-01,
          1.52190939e-01, 2.59786635e-03, 2.52948273e-02, 1.19685568e-01,
          4.34900522e-01, 2.27680713e-01, 1.34113804e-01, 1.88111588e-01,
          5.84983826e-01, 5.84983826e-01, 2.08020099e-02, 1.25534255e-02,
          5.19768298e-01, 7.07128227e-01, 2.22561713e-02, 2.08170917e-02,
          2.71293074e-02, 4.24027443e-01, 2.02805072e-01, 6.33822929e-04,
          1.19588873e-03, 5.92214882e-01, 7.70867765e-01, 2.19556736e-03,
          4.02199861e-04, 4.23525320e-03, 1.84494570e-01, 1.15225889e-01,
          3.32635781e-03, 2.52948273e-02, 1.19685568e-01, 4.34900522e-01,
          2.27680713e-01, 1.34113804e-01, 1.88111588e-01, 5.84983826e-01,
          5.84983826e-01, 2.08020099e-02, 1.25534255e-02, 5.19768298e-01,
          7.07128227e-01, 2.22561713e-02, 2.08170917e-02, 2.71293074e-02,
          4.24027443e-01, 2.02805072e-01, 6.33822929e-04, 1.19588873e-03,
          5.92214882e-01, 7.70867765e-01, 2.19556736e-03, 4.02199861e-04,
          4.23525320e-03, 1.84494570e-01, 1.15225889e-01, 3.32635781e-03,
          3.50950174e-02, 1.97264001e-01, 3.25080067e-01, 1.38956040e-01,
          1.39896855e-01, 2.10534688e-02, 5.71752965e-01, 5.71752965e-01,
          3.94135475e-01, 4.51337919e-02, 5.24593472e-01, 5.74401319e-01,
          3.75292525e-02, 3.24258544e-02, 1.73182711e-01, 5.74401319e-01,
          1.50292560e-01, 4.59906645e-02, 1.00764642e-02, 6.39281571e-01,
          7.56598353e-01, 4.52911388e-03, 0., 1.01930508e-02,
          1.00807846e-01, 2.96598319e-02, 7.65380869e-03, 3.80913951e-02,
          8.80081579e-02, 2.02981040e-01, 4.89659756e-01, 4.64302838e-01,
          8.45638141e-02, 5.18025383e-02, 4.89659756e-01, 4.89659756e-01,
          1.20077632e-01, 2.97611326e-01, 5.03762722e-01, 2.07329139e-01,
          4.68689501e-02, 1.72997847e-01, 2.35662445e-01, 5.03762722e-01,
          5.03762722e-01, 9.14129615e-02, 6.19970977e-01, 6.86423540e-01,
          2.09849179e-01, 2.16708407e-01, 3.17480676e-02, 3.76718529e-02,
          2.88506467e-02, 1.87059417e-01, 4.30045605e-01, 4.30045605e-01,
          4.30045605e-01, 1.40363187e-01, 3.15961242e-01, 1.31502301e-01,
          2.50482291e-01, 2.37443730e-01, 4.30045605e-01, 1.00969963e-01,
          6.24670945e-02, 1.24142438e-01, 3.92482132e-01, 5.00961542e-01,
          1.27743140e-01, 5.00961542e-01, 5.00961542e-01, 2.05524310e-01,
          3.40285078e-02, 6.59237355e-02, 2.64664710e-01, 5.84615111e-01,
          5.31612754e-01, 4.29391339e-02, 2.21495792e-01, 4.00080979e-01,
          2.88539916e-01, 7.09089451e-03, 6.54100955e-01, 6.54100955e-01,
          5.09519987e-02, 1.62829589e-02, 1.09545635e-02, 3.34025860e-01,
          1.52190939e-01, 2.59786635e-03, 7.87359197e-03, 8.12464654e-02,
          1.23820707e-01, 2.64386721e-02, 1.54899620e-02, 5.52285276e-03,
          6.96443975e-01, 6.96443975e-01, 3.92941525e-03, 8.16971138e-02,
          1.81252301e-01, 4.46885169e-01, 4.46885169e-01, 3.43005925e-01,
          1.21946573e-01, 4.46885169e-01, 4.46885169e-01, 1.57034576e-01,
          1.19588873e-03, 5.92214882e-01, 7.70867765e-01, 2.19556736e-03,
          4.02199861e-04, 4.23525320e-03, 1.84494570e-01, 1.15225889e-01,
          3.32635781e-03, 7.44507881e-04, 2.28630286e-02, 6.09841682e-02,
          5.67032432e-04, 1.19089987e-03, 1.17043639e-02, 7.03062594e-01,
          7.03062594e-01, 2.59727915e-03, 1.11823030e-01, 3.56261581e-01,
          2.93587714e-01, 1.64035916e-01, 1.32996202e-01, 2.04478100e-01,
          5.80401599e-01, 5.80401599e-01, 9.18963552e-02, 1.19588873e-03,
          5.92214882e-01, 7.70867765e-01, 2.19556736e-03, 4.02199861e-04,
          4.23525320e-03, 1.84494570e-01, 1.15225889e-01, 3.32635781e-03,
          7.44507881e-04, 2.28630286e-02, 6.09841682e-02, 5.67032432e-04,
          1.19089987e-03, 1.17043639e-02, 7.03062594e-01, 7.03062594e-01,
          2.59727915e-03, 1.11823030e-01, 3.56261581e-01, 2.93587714e-01,
          1.64035916e-01, 1.32996202e-01, 2.04478100e-01, 5.80401599e-01,
          5.80401599e-01, 9.18963552e-02, 1.00764642e-02, 6.39281571e-01,
          7.56598353e-01, 4.52911388e-03, 0., 1.01930508e-02,
          1.00807846e-01, 2.96598319e-02, 7.65380869e-03, 3.78764304e-03,
          5.04278243e-02, 1.39927447e-01, 8.01084563e-03, 1.89929688e-03,
          2.48355009e-02, 6.96497083e-01, 6.96497083e-01, 3.05100181e-03,
          1.49440408e-01, 5.19519687e-01, 2.45294750e-01, 5.04749902e-02,
          1.84004158e-01, 1.38436630e-01, 5.37891984e-01, 5.37891984e-01,
          8.94429609e-02, 9.14129615e-02, 6.19970977e-01, 6.86423540e-01,
          2.09849179e-01, 2.16708407e-01, 3.17480676e-02, 3.76718529e-02,
          2.88506467e-02, 1.87059417e-01, 1.96069583e-01, 1.19956203e-01,
          1.18138947e-01, 6.61116838e-02, 2.64211953e-01, 2.29869023e-01,
          6.30971193e-01, 6.30971193e-01, 6.03563450e-02, 4.90543187e-01,
          4.90543187e-01, 3.90328132e-02, 2.11694068e-03, 7.12935328e-02,
          1.83020815e-01, 4.90543187e-01, 4.66124475e-01, 1.25790402e-01 ]
      - [ 5.57257175e-01, 5.57257175e-01, 6.00876696e-02, 3.30903195e-02,
          1.83764920e-01, 5.57257175e-01, 1.40194744e-01, 3.49136479e-02,
          5.89911975e-02, 4.49813694e-01, 4.21735555e-01, 1.73578307e-01,
          1.08483277e-01, 5.27112722e-01, 5.27112722e-01, 1.23315133e-01,
          7.01757148e-03, 4.11470160e-02, 3.56624544e-01, 3.56624544e-01,
          3.56624544e-01, 3.56624544e-01, 3.56624544e-01, 3.56624544e-01,
          2.16945738e-01, 3.56624544e-01, 2.43113324e-01, 2.69612104e-01,
          2.91342407e-01, 2.43010938e-01, 5.19828685e-03, 1.38688073e-01,
          5.38239717e-01, 5.38239717e-01, 4.02702600e-01, 1.31014392e-01,
          3.98050189e-01, 3.98050189e-01, 3.98050189e-01, 2.72091538e-01,
          3.98050189e-01, 3.98050189e-01, 4.89420369e-02, 2.90572923e-02,
          3.55711043e-01, 3.52114916e-01, 3.52114916e-01, 3.52114916e-01,
          3.52114916e-01, 3.19863379e-01, 3.52114916e-01, 1.62095398e-01,
          3.52114916e-01, 3.52114916e-01, 1.62851233e-02, 1.42804578e-01,
          3.38943839e-01, 2.03722995e-02, 6.86658248e-02, 1.77783445e-01,
          6.35178626e-01, 6.35178626e-01, 1.20317273e-01, 2.27012619e-01,
          5.04875064e-01, 5.04875064e-01, 2.55827665e-01, 5.04875064e-01,
          2.73298055e-01, 1.09008737e-01, 5.99658452e-02, 1.52013212e-01,
          3.72186333e-01, 3.72186333e-01, 3.72186333e-01, 3.72186333e-01,
          3.72186333e-01, 3.72186333e-01, 1.67613789e-01, 1.65389106e-01,
          3.31206530e-01, 1.62851233e-02, 1.42804578e-01, 3.38943839e-01,
          2.03722995e-02, 6.86658248e-02, 1.77783445e-01, 6.35178626e-01,
          6.35178626e-01, 1.20317273e-01, 2.27012619e-01, 5.04875064e-01,
          5.04875064e-01, 2.55827665e-01, 5.04875064e-01, 2.73298055e-01,
          1.09008737e-01, 5.99658452e-02, 1.52013212e-01, 3.72186333e-01,
          3.72186333e-01, 3.72186333e-01, 3.72186333e-01, 3.72186333e-01,
          3.72186333e-01, 1.67613789e-01, 1.65389106e-01, 3.31206530e-01,
          1.14809508e-02, 3.82045172e-02, 2.28648141e-01, 5.37505329e-01,
          1.26664257e-02, 7.88137317e-03, 2.71665841e-01, 5.37505329e-01,
          5.37505329e-01, 4.80721667e-02, 2.81275719e-01, 5.42616546e-01,
          1.51132777e-01, 1.78084522e-02, 1.91193502e-02, 7.95757696e-02,
          5.42616546e-01, 5.42616546e-01, 3.91548216e-01, 3.91548216e-01,
          3.91548216e-01, 3.91548216e-01, 1.51177302e-01, 1.95789486e-01,
          1.22638188e-01, 3.91548216e-01, 3.91548216e-01, 1.03162207e-01,
          5.69111258e-02, 2.35183358e-01, 5.48064411e-01, 1.27348259e-01,
          5.24797924e-02, 7.23809153e-02, 5.48064411e-01, 5.48064411e-01,
          4.93426993e-02, 6.90111443e-02, 2.10661680e-01, 5.58789909e-01,
          7.50183240e-02, 6.42411131e-03, 2.09053457e-02, 5.58789909e-01,
          5.58789909e-01, 3.78049612e-01, 3.78049612e-01, 3.78049612e-01,
          3.78049612e-01, 2.79296935e-01, 1.95917219e-01, 2.41477117e-01,
          3.26977015e-01, 3.78049612e-01, 3.56624544e-01, 3.56624544e-01,
          3.56624544e-01, 3.56624544e-01, 3.56624544e-01, 3.56624544e-01,
          2.16945738e-01, 3.56624544e-01, 2.43113324e-01, 2.07077250e-01,
          2.49013007e-01, 3.96264493e-01, 3.96264493e-01, 3.96264493e-01,
          2.05229655e-01, 2.52796113e-01, 3.96264493e-01, 3.96264493e-01,
          1.43525839e-01, 5.59679046e-02, 1.77101508e-01, 4.39571768e-01,
          4.39571768e-01, 2.14410067e-01, 3.48779261e-01, 4.39571768e-01,
          4.39571768e-01, 3.52114916e-01, 3.52114916e-01, 3.52114916e-01,
          3.52114916e-01, 3.19863379e-01, 3.52114916e-01, 1.62095398e-01,
          3.52114916e-01, 3.52114916e-01, 3.30403447e-01, 1.32778317e-01,
          3.01282316e-01, 3.70187998e-01, 3.70187998e-01, 3.70187998e-01,
          3.05840462e-01, 3.70187998e-01, 3.70187998e-01, 2.12630332e-01,
          1.60293326e-01, 2.20304176e-01, 4.02576685e-01, 2.89534032e-01,
          4.02576685e-01, 4.02576685e-01, 4.02576685e-01, 3.80048364e-01,
          3.72186333e-01, 3.72186333e-01, 3.72186333e-01, 3.72186333e-01,
          3.72186333e-01, 3.72186333e-01, 1.67613789e-01, 1.65389106e-01,
          3.31206530e-01, 3.89350444e-01, 1.94085762e-01, 1.20345764e-01,
          3.89350444e-01, 3.89350444e-01, 3.89350444e-01, 1.85459569e-01,
