%YAML:1.0
---
opencv_ml_svm:
   format: 3
   svmType: C_SVC
   kernel:
      type: RBF
      gamma: 5.0624999999999998e-01
   C: 1.2500000000000000e+01
   term_criteria: { epsilon:1.1920928955078125e-07, iterations:1000 }
   var_count: 324
   class_count: 4
   class_labels: !!opencv-matrix
      rows: 4
      cols: 1
      dt: i
      data: [ 0, 1, 2, 3 ]
   sv_total: 167
   support_vectors:
      - [ 5.59761167e-01, 5.59761167e-01, 7.54065737e-02, 1.80654619e-02,
          1.79151222e-01, 5.59761167e-01, 8.98528323e-02, 3.79339270e-02,
          8.24151263e-02, 4.02598262e-01, 4.50640410e-01, 1.99370384e-01,
          1.14328146e-01, 5.32362819e-01, 5.32362819e-01, 9.06802192e-02,
          1.12866545e-02, 3.91319245e-02, 3.60431880e-01, 3.60431880e-01,
          3.60431880e-01, 3.60431880e-01, 3.60431880e-01, 3.60431880e-01,
          1.63796201e-01, 3.60431880e-01, 2.45339870e-01, 2.78161049e-01,
          3.14997762e-01, 2.56298810e-01, 1.53184989e-02, 2.14163780e-01,
          5.05221725e-01, 5.05221725e-01, 4.38482255e-01, 6.16639555e-02,
          4.01126295e-01, 4.01126295e-01, 4.01126295e-01, 4.01126295e-01,
          4.01126295e-01, 4.01126295e-01, 3.47958803e-02, 7.27792010e-02,
          1.55149445e-01, 3.52206677e-01, 3.52206677e-01, 3.52206677e-01,
          3.52206677e-01, 3.52206677e-01, 2.81469136e-01, 2.21154347e-01,
          3.52206677e-01, 3.52206677e-01, 2.23204270e-02, 1.68476179e-01,
          3.82460654e-01, 2.99803820e-02, 1.30485252e-01, 1.42518505e-01,
          6.21082306e-01, 6.21082306e-01, 9.44296718e-02, 1.42906070e-01,
          4.87479210e-01, 4.87479210e-01, 3.99287283e-01, 4.87479210e-01,
          2.79891819e-01, 6.84996545e-02, 5.47334664e-02, 1.27841130e-01,
          3.89190882e-01, 3.89190882e-01, 3.89190882e-01, 2.34262332e-01,
          3.89190882e-01, 3.89190882e-01, 2.41934508e-01, 1.73773944e-01,
          3.08473229e-01, 2.23204270e-02, 1.68476179e-01, 3.82460654e-01,
          2.99803820e-02, 1.30485252e-01, 1.42518505e-01, 6.21082306e-01,
          6.21082306e-01, 9.44296718e-02, 1.42906070e-01, 4.87479210e-01,
          4.87479210e-01, 3.99287283e-01, 4.87479210e-01, 2.79891819e-01,
          6.84996545e-02, 5.47334664e-02, 1.27841130e-01, 3.89190882e-01,
          3.89190882e-01, 3.89190882e-01, 2.34262332e-01, 3.89190882e-01,
          3.89190882e-01, 2.41934508e-01, 1.73773944e-01, 3.08473229e-01,
          2.31430177e-02, 4.06577215e-02, 2.38116443e-01, 5.25157690e-01,
          1.36908405e-02, 3.59601108e-03, 3.29082370e-01, 5.25157690e-01,
          5.25157690e-01, 1.05425723e-01, 3.85980159e-01, 5.19750834e-01,
          1.37966320e-01, 4.00803685e-02, 2.55625620e-02, 5.47421277e-02,
          5.19750834e-01, 5.19750834e-01, 3.74223948e-01, 3.74223948e-01,
          3.74223948e-01, 3.74223948e-01, 2.35473379e-01, 2.82302588e-01,
          1.44420594e-01, 3.74223948e-01, 3.74223948e-01, 6.64588138e-02,
          3.32447588e-02, 2.34138459e-01, 5.52847147e-01, 1.21569373e-01,
          6.21925993e-03, 4.89769056e-02, 5.52847147e-01, 5.52847147e-01,
          4.83807959e-02, 6.67030811e-02, 3.14535111e-01, 5.42378783e-01,
          7.82575011e-02, 3.51820199e-04, 1.45875374e-02, 5.42378783e-01,
          5.42378783e-01, 3.57628316e-01, 3.66892695e-01, 3.66892695e-01,
          3.66892695e-01, 2.43284404e-01, 3.66892695e-01, 3.98439541e-02,
          3.66892695e-01, 3.66892695e-01, 3.60431880e-01, 3.60431880e-01,
          3.60431880e-01, 3.60431880e-01, 3.60431880e-01, 3.60431880e-01,
          1.63796201e-01, 3.60431880e-01, 2.45339870e-01, 2.86710411e-01,
          1.23479724e-01, 3.88328880e-01, 3.88328880e-01, 3.88328880e-01,
          2.17373714e-01, 3.12125444e-01, 3.88328880e-01, 3.88328880e-01,
          1.13608092e-01, 2.31422111e-02, 1.78550914e-01, 4.55054373e-01,
          4.44866300e-01, 1.63442075e-01, 3.22938025e-01, 4.55054373e-01,
          4.55054373e-01, 3.52206677e-01, 3.52206677e-01, 3.52206677e-01,
          3.52206677e-01, 3.52206677e-01, 2.81469136e-01, 2.21154347e-01,
          3.52206677e-01, 3.52206677e-01, 3.64127427e-01, 8.03955123e-02,
          2.76786387e-01, 3.64127427e-01, 3.64127427e-01, 3.64127427e-01,
          3.43154788e-01, 3.64127427e-01, 3.64127427e-01, 2.20562682e-01,
          1.75477684e-01, 2.33416840e-01, 4.08008575e-01, 2.95386136e-01,
          4.08008575e-01, 4.08008575e-01, 4.08008575e-01, 3.29944670e-01,
          3.89190882e-01, 3.89190882e-01, 3.89190882e-01, 2.34262332e-01,
          3.89190882e-01, 3.89190882e-01, 2.41934508e-01, 1.73773944e-01,
          3.08473229e-01, 4.01031166e-01, 1.53643176e-01, 1.27179503e-01,
          4.01031166e-01, 4.01031166e-01, 3.50163460e-01, 1.71663553e-01,
          4.01031166e-01, 4.01031166e-01, 1.00728847e-01, 3.97049189e-01,
          1.70370892e-01, 1.04749650e-01, 3.97049189e-01, 3.97049189e-01,
          3.97049189e-01, 3.97049189e-01, 3.97049189e-01, 3.89190882e-01,
          3.89190882e-01, 3.89190882e-01, 2.34262332e-01, 3.89190882e-01,
          3.89190882e-01, 2.41934508e-01, 1.73773944e-01, 3.08473229e-01,
          4.01031166e-01, 1.53643176e-01, 1.27179503e-01, 4.01031166e-01,
          4.01031166e-01, 3.50163460e-01, 1.71663553e-01, 4.01031166e-01,
          4.01031166e-01, 1.00728847e-01, 3.97049189e-01, 1.70370892e-01,
          1.04749650e-01, 3.97049189e-01, 3.97049189e-01, 3.97049189e-01,
          3.97049189e-01, 3.97049189e-01, 3.74223948e-01, 3.74223948e-01,
          3.74223948e-01, 3.74223948e-01, 2.35473379e-01, 2.82302588e-01,
          1.44420594e-01, 3.74223948e-01, 3.74223948e-01, 3.41813654e-01,
          3.25625420e-01, 2.69623727e-01, 3.41813654e-01, 3.41813654e-01,
          3.41813654e-01, 3.41813654e-01, 3.41813654e-01, 3.41813654e-01,
          1.60317957e-01, 1.85257986e-01, 1.88026145e-01, 7.93111175e-02,
          8.01065490e-02, 5.15246093e-01, 5.15246093e-01, 5.15246093e-01,
          3.00558299e-01, 3.57628316e-01, 3.66892695e-01, 3.66892695e-01,
          3.66892695e-01, 2.43284404e-01, 3.66892695e-01, 3.98439541e-02,
          3.66892695e-01, 3.66892695e-01, 2.91788399e-01, 2.98107564e-01,
          9.68825147e-02, 2.77543664e-01, 4.00463670e-01, 4.00463670e-01,
          4.00463670e-01, 3.06740075e-01, 4.00463670e-01, 4.08768624e-01,
          4.08768624e-01, 1.72830392e-02, 2.37725470e-02, 3.02349776e-01,
          4.08768624e-01, 4.08768624e-01, 2.61109740e-01, 4.08768624e-01 ]
      - [ 2.85600662e-01, 2.72450089e-01, 2.53340125e-01, 3.74205457e-03,
          1.44122973e-01, 5.25863111e-01, 4.55462992e-01, 3.23356897e-01,
          4.06751305e-01, 2.29905233e-01, 4.12640125e-01, 4.81737942e-01,
          1.38770759e-01, 4.49234277e-01, 4.81737942e-01, 1.64807409e-01,
          5.82195781e-02, 2.37271085e-01, 4.21666235e-01, 4.21666235e-01,
          4.21666235e-01, 1.21691115e-01, 9.14014801e-02, 6.67104721e-02,
          3.92654389e-01, 3.22222173e-01, 4.20431405e-01, 4.61763255e-02,
          9.45631489e-02, 2.34669447e-01, 9.74814296e-02, 1.13798693e-01,
          6.66869342e-01, 6.66869342e-01, 8.40495527e-02, 9.08387303e-02,
          2.54919399e-02, 6.68818474e-01, 6.68818474e-01, 1.18055470e-01,
          9.70752388e-02, 2.20070541e-01, 1.46661282e-01, 4.14713621e-02,
          5.49149215e-02, 1.03777628e-02, 5.52194357e-01, 5.52194357e-01,
          1.96125805e-02, 8.31577275e-03, 1.45919225e-03, 5.52194357e-01,
          2.81313956e-01, 5.35989972e-03, 2.36078829e-01, 1.16632819e-01,
          5.20895645e-02, 1.11420386e-01, 1.35099083e-01, 3.35294127e-01,
          6.13412857e-01, 6.13412857e-01, 1.61822453e-01, 2.61043478e-02,
          6.77483976e-01, 6.77483976e-01, 4.44450118e-02, 6.14630654e-02,
          3.66598070e-02, 2.47787893e-01, 7.47203529e-02, 2.25243382e-02,
          9.12360905e-04, 5.76122165e-01, 5.76122165e-01, 4.05490864e-03,
          4.54924349e-03, 8.60572699e-03, 5.10935307e-01, 2.63042361e-01,
          7.44479103e-03, 2.36078829e-01, 1.16632819e-01, 5.20895645e-02,
          1.11420386e-01, 1.35099083e-01, 3.35294127e-01, 6.13412857e-01,
          6.13412857e-01, 1.61822453e-01, 2.61043478e-02, 6.77483976e-01,
          6.77483976e-01, 4.44450118e-02, 6.14630654e-02, 3.66598070e-02,
          2.47787893e-01, 7.47203529e-02, 2.25243382e-02, 9.12360905e-04,
          5.76122165e-01, 5.76122165e-01, 4.05490864e-03, 4.54924349e-03,
          8.60572699e-03, 5.10935307e-01, 2.63042361e-01, 7.44479103e-03,
          1.17021129e-01, 1.56072512e-01, 1.25368193e-01, 8.11058953e-02,
          1.95276305e-01, 7.58226663e-02, 6.17232025e-01, 6.17232025e-01,
          3.57290626e-01, 4.51698294e-03, 6.61457717e-01, 6.61457717e-01,
          1.73180290e-02, 4.49317768e-02, 5.56929335e-02, 3.21540147e-01,
          9.55035463e-02, 1.98461637e-02, 3.32577212e-04, 5.87799907e-01,
          5.87799907e-01, 2.72875559e-03, 0., 1.72283426e-02,
          5.24001777e-01, 1.68017164e-01, 1.18027697e-03, 3.12081221e-02,
          2.10587345e-02, 1.64770707e-02, 3.42274457e-01, 4.52120095e-01,
          3.38068962e-01, 2.90231019e-01, 4.86499280e-01, 4.86499280e-01,
          2.52794296e-01, 4.79121417e-01, 4.79121417e-01, 1.45185515e-01,
          1.10282585e-01, 2.07908619e-02, 6.66433349e-02, 4.52242255e-01,
          4.79121417e-01, 7.71073401e-02, 5.24528921e-01, 5.24528921e-01,
          1.36041641e-01, 5.24528921e-01, 1.87295675e-01, 2.92666554e-01,
          1.32054731e-01, 8.21296796e-02, 4.21666235e-01, 4.21666235e-01,
          4.21666235e-01, 1.21691115e-01, 9.14014801e-02, 6.67104721e-02,
          3.92654389e-01, 3.22222173e-01, 4.20431405e-01, 1.25859171e-01,
          6.27460852e-02, 1.35955274e-01, 3.18499088e-01, 5.08646369e-01,
          2.05012783e-01, 5.08970976e-01, 5.08970976e-01, 1.90681338e-01,
          4.80597764e-02, 9.53877792e-02, 5.42960107e-01, 6.26350760e-01,
          5.19485652e-01, 5.59393466e-02, 1.38614461e-01, 3.76985334e-02,
          3.98403294e-02, 1.03777628e-02, 5.52194357e-01, 5.52194357e-01,
          1.96125805e-02, 8.31577275e-03, 1.45919225e-03, 5.52194357e-01,
          2.81313956e-01, 5.35989972e-03, 5.39296586e-03, 2.30618641e-02,
          2.38876551e-01, 5.22357598e-02, 1.04938345e-02, 1.07481433e-02,
          6.82815492e-01, 6.82815492e-01, 1.14991115e-02, 6.87093660e-02,
          1.88571274e-01, 4.77195323e-01, 4.77195323e-01, 4.17414457e-01,
          1.23951174e-01, 4.77195323e-01, 2.65232354e-01, 1.08906157e-01,
          9.12360905e-04, 5.76122165e-01, 5.76122165e-01, 4.05490864e-03,
          4.54924349e-03, 8.60572699e-03, 5.10935307e-01, 2.63042361e-01,
          7.44479103e-03, 5.30088507e-03, 2.02839300e-02, 7.24297091e-02,
          2.67227218e-02, 3.04472097e-03, 8.10397603e-03, 7.02254474e-01,
          7.02254474e-01, 1.38643701e-02, 3.67332660e-02, 3.78737837e-01,
          4.52238768e-01, 4.52238768e-01, 1.51231363e-01, 9.86249447e-02,
          4.52238768e-01, 4.52238768e-01, 3.69437831e-03, 9.12360905e-04,
          5.76122165e-01, 5.76122165e-01, 4.05490864e-03, 4.54924349e-03,
          8.60572699e-03, 5.10935307e-01, 2.63042361e-01, 7.44479103e-03,
          5.30088507e-03, 2.02839300e-02, 7.24297091e-02, 2.67227218e-02,
          3.04472097e-03, 8.10397603e-03, 7.02254474e-01, 7.02254474e-01,
          1.38643701e-02, 3.67332660e-02, 3.78737837e-01, 4.52238768e-01,
          4.52238768e-01, 1.51231363e-01, 9.86249447e-02, 4.52238768e-01,
          4.52238768e-01, 3.69437831e-03, 3.32577212e-04, 5.87799907e-01,
          5.87799907e-01, 2.72875559e-03, 0., 1.72283426e-02,
          5.24001777e-01, 1.68017164e-01, 1.18027697e-03, 1.48344403e-02,
          3.59554589e-02, 5.38125820e-02, 1.49404316e-03, 0.,
          5.75663755e-03, 7.03037977e-01, 7.03037977e-01, 3.62821179e-03,
          4.70062107e-01, 4.70062107e-01, 3.31889480e-01, 1.65040158e-02,
          1.26415715e-02, 2.61568557e-02, 4.70062107e-01, 4.70062107e-01,
          1.42929060e-02, 7.71073401e-02, 5.24528921e-01, 5.24528921e-01,
          1.36041641e-01, 5.24528921e-01, 1.87295675e-01, 2.92666554e-01,
          1.32054731e-01, 8.21296796e-02, 3.25973630e-01, 1.19662575e-01,
          4.77713495e-02, 3.15072923e-03, 1.96037054e-01, 3.11871588e-01,
          6.01225853e-01, 6.01225853e-01, 1.11747392e-01, 6.30194128e-01,
          6.30194128e-01, 1.84983552e-01, 1.43521717e-02, 1.61762666e-02,
          1.35185178e-02, 3.53496134e-01, 1.76263034e-01, 9.23107192e-02 ]
      - [ 4.07093257e-01, 4.07093257e-01, 3.55992705e-01, 1.17921561e-01,
          2.00937554e-01, 4.07093257e-01, 4.02001739e-01, 2.00156346e-01,
          3.40702713e-01, 3.00187647e-01, 4.16659504e-01, 4.16659504e-01,
          8.05842727e-02, 4.16659504e-01, 4.16659504e-01, 4.16659504e-01,
          1.44455358e-01, 1.01677261e-01, 4.45817322e-01, 5.24648368e-01,
          5.24648368e-01, 5.87494522e-02, 1.28289670e-01, 7.64681473e-02,
          3.59113179e-02, 1.98007170e-02, 4.66965318e-01, 4.24659580e-01,
          4.24659580e-01, 1.77229136e-01, 1.38366729e-01, 4.24659580e-01,
          4.24659580e-01, 4.24659580e-01, 1.24446705e-01, 1.67441458e-01,
          5.22425771e-03, 7.02589750e-01, 7.02589750e-01, 5.31039909e-02,
          4.20124307e-02, 2.01575309e-02, 2.03900058e-02, 1.04317730e-02,
          1.33590335e-02, 2.60883500e-03, 6.91777110e-01, 6.91777110e-01,
          2.20153350e-02, 1.15626520e-02, 5.91980701e-04, 1.77200913e-01,
          6.28432781e-02, 2.86936504e-03, 1.99324757e-01, 8.67715925e-02,
          1.85901657e-01, 2.31613129e-01, 4.22795236e-01, 2.45745018e-01,
          5.40535450e-01, 5.40535450e-01, 1.88771755e-01, 7.03552598e-03,
          7.00124383e-01, 7.00124383e-01, 1.09737210e-01, 2.02639736e-02,
          7.87608977e-03, 5.79720177e-03, 4.03531222e-03, 6.96361298e-03,
          2.13261247e-02, 5.72599232e-01, 5.72599232e-01, 1.75108667e-02,
          1.72237412e-03, 8.62734318e-02, 5.65351963e-01, 1.02497198e-01,
          1.43670654e-02, 1.99324757e-01, 8.67715925e-02, 1.85901657e-01,
          2.31613129e-01, 4.22795236e-01, 2.45745018e-01, 5.40535450e-01,
          5.40535450e-01, 1.88771755e-01, 7.03552598e-03, 7.00124383e-01,
          7.00124383e-01, 1.09737210e-01, 2.02639736e-02, 7.87608977e-03,
          5.79720177e-03, 4.03531222e-03, 6.96361298e-03, 2.13261247e-02,
          5.72599232e-01, 5.72599232e-01, 1.75108667e-02, 1.72237412e-03,
          8.62734318e-02, 5.65351963e-01, 1.02497198e-01, 1.43670654e-02,
          3.15812618e-01, 6.62904158e-02, 1.39487386e-01, 8.40400904e-02,
          4.60842609e-01, 1.23457231e-01, 4.60842609e-01, 4.60842609e-01,
          4.60842609e-01, 8.37665983e-03, 7.04436183e-01, 7.04436183e-01,
          8.27949960e-03, 1.47393215e-02, 6.78712502e-03, 8.84751696e-03,
          2.68003973e-03, 4.45568375e-03, 5.25495876e-03, 5.54611921e-01,
          5.54611921e-01, 2.75420514e-03, 5.69353718e-03, 1.30503386e-01,
          5.54611921e-01, 2.33584762e-01, 4.22668224e-03, 1.06535055e-01,
          9.79201049e-02, 4.40036207e-01, 4.40036207e-01, 3.82927239e-01,
          1.68993875e-01, 1.57945186e-01, 4.40036207e-01, 4.40036207e-01,
          9.97219980e-02, 6.26899421e-01, 6.26899421e-01, 2.69015253e-01,
          1.20340839e-01, 8.59266520e-03, 1.81174111e-02, 2.28562400e-01,
          2.41446793e-01, 5.19082090e-03, 4.43527192e-01, 4.43527192e-01,
          2.02911004e-01, 4.43527192e-01, 2.69432187e-01, 4.43527192e-01,
          3.08045298e-01, 4.33275383e-03, 4.45817322e-01, 5.24648368e-01,
          5.24648368e-01, 5.87494522e-02, 1.28289670e-01, 7.64681473e-02,
          3.59113179e-02, 1.98007170e-02, 4.66965318e-01, 2.81927645e-01,
          9.51394364e-02, 1.67474896e-01, 1.24073364e-01, 1.94882885e-01,
          7.59623498e-02, 5.22511661e-01, 5.22511661e-01, 5.22511661e-01,
          5.67142293e-02, 4.43025231e-02, 3.64762425e-01, 4.26345199e-01,
          3.46067369e-01, 1.03279315e-01, 4.26345199e-01, 4.26345199e-01,
          4.26345199e-01, 2.60883500e-03, 6.91777110e-01, 6.91777110e-01,
          2.20153350e-02, 1.15626520e-02, 5.91980701e-04, 1.77200913e-01,
          6.28432781e-02, 2.86936504e-03, 3.92878021e-04, 1.23185478e-02,
          3.51376571e-02, 5.80860069e-03, 3.24432342e-03, 4.16908860e-01,
          7.33005047e-01, 5.29285312e-01, 4.40886186e-04, 8.62892494e-02,
          2.01849654e-01, 4.29964423e-01, 4.73357260e-01, 8.26152414e-02,
          3.38749379e-01, 4.73357260e-01, 4.31094766e-01, 8.16106945e-02,
          2.13261247e-02, 5.72599232e-01, 5.72599232e-01, 1.75108667e-02,
          1.72237412e-03, 8.62734318e-02, 5.65351963e-01, 1.02497198e-01,
          1.43670654e-02, 1.44940871e-03, 6.83383038e-03, 2.78318264e-02,
          4.08385787e-03, 1.18375535e-03, 3.55657905e-01, 7.22242951e-01,
          5.86357892e-01, 2.49149604e-03, 1.58996373e-01, 4.27360982e-01,
          3.63840640e-01, 1.74689874e-01, 2.39317477e-01, 4.89348710e-01,
          4.89348710e-01, 2.96588778e-01, 1.16901649e-02, 2.13261247e-02,
          5.72599232e-01, 5.72599232e-01, 1.75108667e-02, 1.72237412e-03,
          8.62734318e-02, 5.65351963e-01, 1.02497198e-01, 1.43670654e-02,
          1.44940871e-03, 6.83383038e-03, 2.78318264e-02, 4.08385787e-03,
          1.18375535e-03, 3.55657905e-01, 7.22242951e-01, 5.86357892e-01,
          2.49149604e-03, 1.58996373e-01, 4.27360982e-01, 3.63840640e-01,
          1.74689874e-01, 2.39317477e-01, 4.89348710e-01, 4.89348710e-01,
          2.96588778e-01, 1.16901649e-02, 5.25495876e-03, 5.54611921e-01,
          5.54611921e-01, 2.75420514e-03, 5.69353718e-03, 1.30503386e-01,
          5.54611921e-01, 2.33584762e-01, 4.22668224e-03, 2.12890492e-03,
          3.50566581e-03, 3.53739038e-03, 1.01058627e-03, 1.42762717e-02,
          3.72338802e-01, 7.45228767e-01, 5.46177030e-01, 4.01385687e-03,
          4.22935396e-01, 4.22935396e-01, 3.75877440e-01, 3.64383698e-01,
          1.52552724e-01, 1.74864098e-01, 4.22935396e-01, 3.59360814e-01,
          4.58569340e-02, 5.19082090e-03, 4.43527192e-01, 4.43527192e-01,
          2.02911004e-01, 4.43527192e-01, 2.69432187e-01, 4.43527192e-01,
          3.08045298e-01, 4.33275383e-03, 9.28434134e-02, 3.52316983e-02,
          7.38114398e-03, 1.56574305e-02, 6.00385144e-02, 4.77352440e-01,
          6.69304430e-01, 5.48395395e-01, 5.46035133e-02, 5.27496397e-01,
          5.27496397e-01, 2.33511537e-01, 1.17049456e-01, 2.03744799e-01,
          5.27496397e-01, 2.11117923e-01, 1.92778353e-02, 7.27465376e-02 ]
      - [ 2.04583049e-01, 7.11547211e-02, 1.09613545e-01, 1.07110858e-01,
          3.83138299e-01, 5.61920345e-01, 5.61920345e-01, 1.63908094e-01,
          3.44693989e-01, 4.24360514e-01, 2.19663650e-01, 8.46439824e-02,
          1.31236166e-01, 4.24360514e-01, 4.24360514e-01, 4.24360514e-01,
          1.50704935e-01, 4.24360514e-01, 5.18072009e-01, 5.53462394e-02,
          1.41738072e-01, 1.50236130e-01, 4.75808471e-01, 2.80912161e-01,
          2.65479475e-01, 1.91103071e-01, 5.18072009e-01, 6.83056638e-02,
          3.85097742e-01, 4.99594897e-01, 8.82857218e-02, 9.06017646e-02,
          4.99594897e-01, 4.99594897e-01, 1.88258350e-01, 2.04487115e-01,
          4.61619705e-01, 4.61619705e-01, 4.61619705e-01, 4.17949744e-02,
          9.74602103e-02, 2.21489444e-01, 3.05045813e-01, 7.39346668e-02,
          4.44171757e-01, 4.93409485e-01, 4.03517820e-02, 1.53183602e-02,
          1.62060201e-01, 4.93409485e-01, 4.20300275e-01, 2.41122052e-01,
          4.23628651e-02, 4.93409485e-01, 3.03405464e-01, 4.50196743e-01,
          4.50196743e-01, 8.75697136e-02, 7.08784685e-02, 1.43786147e-01,
          4.50196743e-01, 4.50196743e-01, 2.43665710e-01, 7.64533877e-02,
          4.93391335e-01, 4.93391335e-01, 3.51352687e-03, 3.26486528e-02,
          8.99889618e-02, 4.93391335e-01, 4.93391335e-01, 7.94400945e-02,
          4.13462400e-01, 1.44335553e-02, 3.90927941e-02, 1.37759775e-01,
          4.13462400e-01, 3.46986562e-01, 4.13462400e-01, 4.13462400e-01,
          4.13462400e-01, 3.03405464e-01, 4.50196743e-01, 4.50196743e-01,
          8.75697136e-02, 7.08784685e-02, 1.43786147e-01, 4.50196743e-01,
          4.50196743e-01, 2.43665710e-01, 7.64533877e-02, 4.93391335e-01,
          4.93391335e-01, 3.51352687e-03, 3.26486528e-02, 8.99889618e-02,
          4.93391335e-01, 4.93391335e-01, 7.94400945e-02, 4.13462400e-01,
          1.44335553e-02, 3.90927941e-02, 1.37759775e-01, 4.13462400e-01,
          3.46986562e-01, 4.13462400e-01, 4.13462400e-01, 4.13462400e-01,
          3.68577808e-01, 4.03288037e-01, 4.03288037e-01, 2.14700595e-01,
          1.68494321e-02, 2.31304076e-02, 4.03288037e-01, 4.03288037e-01,
          4.03288037e-01, 4.18515354e-01, 4.23387975e-01, 4.23387975e-01,
          1.77241534e-01, 2.47044815e-03, 7.84882233e-02, 3.15262109e-01,
          3.81932050e-01, 4.23387975e-01, 4.55586970e-01, 1.28462687e-02,
          4.58278544e-02, 7.81106204e-03, 1.11808768e-02, 4.03435469e-01,
          4.55586970e-01, 4.55586970e-01, 4.55586970e-01, 5.82965985e-02,
          1.29000187e-01, 4.22763318e-01, 4.22763318e-01, 4.22763318e-01,
          2.40230411e-01, 3.00926268e-01, 4.22763318e-01, 3.35492015e-01,
          1.07907459e-01, 1.16116054e-01, 4.14225221e-01, 4.99811321e-01,
          4.99811321e-01, 4.99811321e-01, 1.83580220e-01, 6.41756877e-02,
          1.05092146e-01, 1.48544982e-01, 3.71329822e-02, 1.90916285e-02,
          3.92085798e-02, 1.60980642e-01, 6.63465679e-01, 6.63465679e-01,
          1.46277934e-01, 2.00860068e-01, 5.18072009e-01, 5.53462394e-02,
          1.41738072e-01, 1.50236130e-01, 4.75808471e-01, 2.80912161e-01,
          2.65479475e-01, 1.91103071e-01, 5.18072009e-01, 5.27149022e-01,
          1.43620381e-02, 2.59255376e-02, 3.71795565e-01, 5.27149022e-01,
          7.61702433e-02, 1.01818018e-01, 7.61447251e-02, 5.27149022e-01,
          4.59313124e-01, 2.23262206e-01, 4.59313124e-01, 4.59313124e-01,
          2.72213548e-01, 5.24905436e-02, 1.01145960e-01, 1.20855257e-01,
          4.59313124e-01, 4.93409485e-01, 4.03517820e-02, 1.53183602e-02,
          1.62060201e-01, 4.93409485e-01, 4.20300275e-01, 2.41122052e-01,
          4.23628651e-02, 4.93409485e-01, 4.98650461e-01, 8.09167163e-04,
          0., 1.76127627e-02, 4.98650461e-01, 4.98650461e-01,
          3.85751529e-03, 9.20908991e-03, 4.98650461e-01, 4.44512755e-01,
          4.68982831e-02, 6.99597076e-02, 1.76908106e-01, 4.44512755e-01,
          4.44512755e-01, 3.83928269e-01, 1.39291942e-01, 4.44512755e-01,
          4.13462400e-01, 1.44335553e-02, 3.90927941e-02, 1.37759775e-01,
          4.13462400e-01, 3.46986562e-01, 4.13462400e-01, 4.13462400e-01,
          4.13462400e-01, 1.52350634e-01, 2.05364525e-01, 2.28718489e-01,
          1.89098671e-01, 5.15786886e-01, 5.15786886e-01, 4.29620385e-01,
          2.62403041e-01, 2.36414582e-01, 2.29832724e-01, 3.83268327e-01,
          2.58309901e-01, 1.02245204e-01, 5.43651402e-01, 5.43651402e-01,
          3.39998424e-01, 7.44462833e-02, 7.36225247e-02, 4.13462400e-01,
          1.44335553e-02, 3.90927941e-02, 1.37759775e-01, 4.13462400e-01,
          3.46986562e-01, 4.13462400e-01, 4.13462400e-01, 4.13462400e-01,
          1.52350634e-01, 2.05364525e-01, 2.28718489e-01, 1.89098671e-01,
          5.15786886e-01, 5.15786886e-01, 4.29620385e-01, 2.62403041e-01,
          2.36414582e-01, 2.29832724e-01, 3.83268327e-01, 2.58309901e-01,
          1.02245204e-01, 5.43651402e-01, 5.43651402e-01, 3.39998424e-01,
          7.44462833e-02, 7.36225247e-02, 4.55586970e-01, 1.28462687e-02,
          4.58278544e-02, 7.81106204e-03, 1.11808768e-02, 4.03435469e-01,
          4.55586970e-01, 4.55586970e-01, 4.55586970e-01, 2.84018248e-01,
          3.07105631e-01, 2.50693649e-01, 1.31250232e-01, 1.79604173e-01,
          4.06683981e-01, 4.77253050e-01, 4.71350104e-01, 3.04283142e-01,
          5.00811398e-01, 5.00811398e-01, 3.33443820e-01, 2.35469475e-01,
          4.35053766e-01, 3.39824647e-01, 1.28325328e-01, 2.89270133e-02,
          6.84610009e-02, 1.48544982e-01, 3.71329822e-02, 1.90916285e-02,
          3.92085798e-02, 1.60980642e-01, 6.63465679e-01, 6.63465679e-01,
          1.46277934e-01, 2.00860068e-01, 4.27651644e-01, 4.27651644e-01,
          1.56367540e-01, 1.06357247e-01, 1.97089449e-01, 4.19043720e-01,
          4.27651644e-01, 1.18235655e-01, 4.27651644e-01, 6.96956575e-01,
          6.96956575e-01, 7.61228353e-02, 1.29577620e-02, 1.85781103e-02,
          1.82626732e-02, 1.77824181e-02, 7.35876476e-03, 1.20557830e-01 ]
      - [ 4.39210951e-01, 4.39210951e-01, 2.35565752e-01, 2.40856379e-01,
          1.36705056e-01, 4.39210951e-01, 4.39210951e-01, 1.43194124e-01,
          2.67005563e-01, 2.67833948e-01, 4.40718800e-01, 4.40718800e-01,
          7.37023726e-02, 4.40718800e-01, 4.40718800e-01, 3.22511137e-01,
          1.86770245e-01, 5.10080196e-02, 3.39112222e-01, 5.61310649e-01,
          5.61310649e-01, 2.65764240e-02, 1.40477657e-01, 4.08265665e-02,
          3.80895473e-02, 1.53978039e-02, 4.74829912e-01, 4.50028032e-01,
          4.50028032e-01, 1.01674192e-01, 2.21811831e-01, 2.90657073e-01,
          4.50028032e-01, 4.50028032e-01, 1.49814710e-01, 1.37621686e-01,
          8.25197995e-03, 7.02869594e-01, 7.02869594e-01, 3.96042578e-02,
          5.22701889e-02, 1.76387560e-02, 1.01218624e-02, 1.06247896e-02,
          6.09321054e-03, 1.77549687e-03, 6.77504599e-01, 6.77504599e-01,
          8.79544672e-03, 1.68721043e-02, 4.78267437e-03, 2.60929406e-01,
          8.20906162e-02, 6.23146479e-04, 2.47721389e-01, 1.68934941e-01,
          2.31490225e-01, 1.52197003e-01, 3.92126828e-01, 2.42851362e-01,
          5.45595706e-01, 5.45595706e-01, 1.40731439e-01, 5.66534372e-03,
          7.02285230e-01, 7.02285230e-01, 7.81046599e-02, 1.74991805e-02,
          8.80764611e-03, 2.43170559e-03, 3.56812822e-03, 6.75412500e-03,
          1.66084990e-02, 5.66481650e-01, 5.66481650e-01, 1.03826290e-02,
          4.65765782e-03, 1.25437811e-01, 5.66481650e-01, 1.22154355e-01,
          2.40255352e-02, 2.47721389e-01, 1.68934941e-01, 2.31490225e-01,
          1.52197003e-01, 3.92126828e-01, 2.42851362e-01, 5.45595706e-01,
          5.45595706e-01, 1.40731439e-01, 5.66534372e-03, 7.02285230e-01,
          7.02285230e-01, 7.81046599e-02, 1.74991805e-02, 8.80764611e-03,
          2.43170559e-03, 3.56812822e-03, 6.75412500e-03, 1.66084990e-02,
          5.66481650e-01, 5.66481650e-01, 1.03826290e-02, 4.65765782e-03,
          1.25437811e-01, 5.66481650e-01, 1.22154355e-01, 2.40255352e-02,
          3.42646390e-01, 1.27195895e-01, 1.64680526e-01, 5.40248640e-02,
          4.49473232e-01, 1.54213592e-01, 4.49473232e-01, 4.49473232e-01,
          4.49473232e-01, 6.77748956e-03, 7.04232752e-01, 7.04232752e-01,
          1.19646210e-02, 1.09926257e-02, 2.39530616e-02, 1.30757568e-02,
          3.62840365e-03, 3.85642843e-03, 1.69790408e-03, 5.47708213e-01,
          5.47708213e-01, 2.30770092e-02, 3.10798292e-03, 1.07760429e-01,
          5.47708213e-01, 2.87046671e-01, 4.93125897e-03, 1.23154245e-01,
          1.99951768e-01, 4.16069835e-01, 4.16069835e-01, 4.16069835e-01,
          2.23418251e-01, 1.58775955e-01, 4.16069835e-01, 4.16069835e-01,
          8.85248408e-02, 6.22820318e-01, 6.22820318e-01, 3.09077352e-01,
          1.46046862e-01, 1.91798192e-02, 2.23425012e-02, 2.07461759e-01,
          2.22190365e-01, 1.42725732e-03, 4.28822249e-01, 4.28822249e-01,
          2.14477345e-01, 4.28822249e-01, 3.03551763e-01, 4.28822249e-01,
          3.49209428e-01, 8.30200315e-03, 3.39112222e-01, 5.61310649e-01,
          5.61310649e-01, 2.65764240e-02, 1.40477657e-01, 4.08265665e-02,
          3.80895473e-02, 1.53978039e-02, 4.74829912e-01, 2.15471730e-01,
          3.84212770e-02, 1.59539863e-01, 1.53737739e-01, 9.70314890e-02,
          1.79002941e-01, 5.34233153e-01, 5.34233153e-01, 5.34233153e-01,
          2.26905718e-02, 1.79479588e-02, 3.72243524e-01, 4.44484323e-01,
          2.40961984e-01, 8.84875283e-02, 4.44484323e-01, 4.44484323e-01,
          4.44484323e-01, 1.77549687e-03, 6.77504599e-01, 6.77504599e-01,
          8.79544672e-03, 1.68721043e-02, 4.78267437e-03, 2.60929406e-01,
          8.20906162e-02, 6.23146479e-04, 7.79205526e-04, 1.18176620e-02,
          2.74275225e-02, 5.28837740e-03, 3.31213628e-03, 4.06560868e-01,
          7.08277404e-01, 5.70131242e-01, 2.59454391e-04, 6.55819625e-02,
          2.08484903e-01, 4.64896917e-01, 4.64896917e-01, 1.44876093e-01,
          3.04766357e-01, 4.64896917e-01, 4.09699202e-01, 1.32200748e-01,
          1.66084990e-02, 5.66481650e-01, 5.66481650e-01, 1.03826290e-02,
          4.65765782e-03, 1.25437811e-01, 5.66481650e-01, 1.22154355e-01,
          2.40255352e-02, 1.13353052e-03, 7.95680285e-03, 1.38083976e-02,
          2.82523851e-03, 2.37904279e-03, 4.65092599e-01, 6.67442620e-01,
          5.75561643e-01, 2.42984062e-03, 1.89962566e-01, 4.35179025e-01,
          2.23398611e-01, 3.08337033e-01, 2.00267345e-01, 3.67232919e-01,
          4.96041298e-01, 4.40323591e-01, 9.84460562e-02, 1.66084990e-02,
          5.66481650e-01, 5.66481650e-01, 1.03826290e-02, 4.65765782e-03,
          1.25437811e-01, 5.66481650e-01, 1.22154355e-01, 2.40255352e-02,
          1.13353052e-03, 7.95680285e-03, 1.38083976e-02, 2.82523851e-03,
          2.37904279e-03, 4.65092599e-01, 6.67442620e-01, 5.75561643e-01,
          2.42984062e-03, 1.89962566e-01, 4.35179025e-01, 2.23398611e-01,
          3.08337033e-01, 2.00267345e-01, 3.67232919e-01, 4.96041298e-01,
          4.40323591e-01, 9.84460562e-02, 1.69790408e-03, 5.47708213e-01,
          5.47708213e-01, 2.30770092e-02, 3.10798292e-03, 1.07760429e-01,
          5.47708213e-01, 2.87046671e-01, 4.93125897e-03, 7.73243606e-04,
          6.37765229e-03, 1.22984294e-02, 2.34537316e-03, 7.33385561e-03,
          2.74599135e-01, 7.30733693e-01, 6.18926406e-01, 2.83514732e-03,
          3.34129155e-01, 4.72988039e-01, 4.72988039e-01, 3.36738020e-01,
          1.25640303e-01, 1.06031232e-01, 4.52559203e-01, 2.71972537e-01,
          1.30378112e-01, 1.42725732e-03, 4.28822249e-01, 4.28822249e-01,
          2.14477345e-01, 4.28822249e-01, 3.03551763e-01, 4.28822249e-01,
          3.49209428e-01, 8.30200315e-03, 1.07848167e-01, 2.62506586e-02,
          2.17360314e-02, 1.78219061e-02, 6.91573620e-02, 5.23924470e-01,
          6.10229373e-01, 5.70228159e-01, 6.30641580e-02, 4.85705912e-01,
          4.85705912e-01, 3.86490941e-01, 5.14361933e-02, 2.36764923e-01,
          4.85705912e-01, 2.60436416e-01, 1.40057271e-02, 1.06378518e-01 ]
      - [ 4.70366962e-02, 1.74180433e-01, 2.89712071e-01, 1.27834380e-01,
          1.27702430e-01, 5.24625957e-01, 5.24625957e-01, 5.24625957e-01,
          1.41171679e-01, 3.84921908e-01, 1.56027287e-01, 1.80809796e-01,
          2.23894089e-01, 3.84921908e-01, 3.84921908e-01, 3.84921908e-01,
          3.84921908e-01, 3.84921908e-01, 4.60500717e-01, 2.19380230e-01,
          1.29801542e-01, 2.62286216e-01, 4.60500717e-01, 4.60500717e-01,
          1.08120553e-01, 4.11887877e-02, 4.60500717e-01, 1.53015450e-01,
          3.16365808e-01, 3.43355030e-01, 1.88321337e-01, 1.17447726e-01,
          5.79618990e-01, 5.79618990e-01, 1.25573426e-01, 1.25994861e-01,
          4.70423758e-01, 4.70423758e-01, 4.70423758e-01, 1.29266396e-01,
          8.85053352e-02, 2.25187674e-01, 1.62238106e-01, 9.23776627e-02,
          4.70423758e-01, 5.33648014e-01, 4.64416482e-02, 2.55526155e-02,
          6.61451221e-02, 5.33648014e-01, 3.54195833e-01, 8.54176804e-02,
          1.98534746e-02, 5.33648014e-01, 2.04917684e-01, 4.37317044e-01,
          4.37317044e-01, 6.45793676e-02, 1.22336105e-01, 4.35133785e-01,
          4.37317044e-01, 2.85536230e-01, 2.99821556e-01, 1.10417634e-01,
          5.17781675e-01, 5.17781675e-01, 2.00206283e-02, 3.63319255e-02,
          1.01398125e-01, 5.17781675e-01, 3.94601643e-01, 1.03103586e-01,
          2.84051418e-01, 4.95760925e-02, 7.36216754e-02, 6.80090189e-02,
          4.35540110e-01, 4.35540110e-01, 4.35540110e-01, 4.35540110e-01,
          3.79051715e-01, 2.04917684e-01, 4.37317044e-01, 4.37317044e-01,
          6.45793676e-02, 1.22336105e-01, 4.35133785e-01, 4.37317044e-01,
          2.85536230e-01, 2.99821556e-01, 1.10417634e-01, 5.17781675e-01,
          5.17781675e-01, 2.00206283e-02, 3.63319255e-02, 1.01398125e-01,
          5.17781675e-01, 3.94601643e-01, 1.03103586e-01, 2.84051418e-01,
          4.95760925e-02, 7.36216754e-02, 6.80090189e-02, 4.35540110e-01,
          4.35540110e-01, 4.35540110e-01, 4.35540110e-01, 3.79051715e-01,
          3.48768443e-01, 4.36348051e-01, 4.36348051e-01, 2.90930927e-01,
          5.54646105e-02, 2.95109884e-03, 1.57091185e-01, 4.36348051e-01,
          4.36348051e-01, 4.23134327e-01, 4.23134327e-01, 4.23134327e-01,
          1.69359803e-01, 4.45094146e-02, 3.01473346e-02, 2.64814794e-01,
          4.21785563e-01, 4.23134327e-01, 4.57360178e-01, 1.81663871e-01,
          6.25380650e-02, 1.01806000e-02, 3.26687694e-02, 3.47325087e-01,
          4.57360178e-01, 4.57360178e-01, 4.57360178e-01, 4.48682994e-01,
          1.84474945e-01, 4.48682994e-01, 4.48682994e-01, 4.08354774e-02,
          0., 2.78103482e-02, 3.92148674e-01, 4.48682994e-01,
          2.44514197e-01, 5.27596623e-02, 4.25839096e-01, 4.60723847e-01,
          2.88397074e-01, 4.60723847e-01, 6.67455345e-02, 1.64502501e-01,
          4.60723847e-01, 2.12489471e-01, 2.09831055e-02, 1.42821968e-02,
          6.39751852e-02, 1.91317126e-01, 6.38824880e-01, 6.38824880e-01,
          1.92148417e-01, 2.32412189e-01, 4.60500717e-01, 2.19380230e-01,
          1.29801542e-01, 2.62286216e-01, 4.60500717e-01, 4.60500717e-01,
          1.08120553e-01, 4.11887877e-02, 4.60500717e-01, 4.62142766e-01,
          3.74388397e-02, 1.09469965e-01, 4.62142766e-01, 4.62142766e-01,
          3.35310549e-01, 9.60334316e-02, 7.77133256e-02, 4.62142766e-01,
          5.04150569e-01, 1.03122674e-01, 5.04150569e-01, 5.04150569e-01,
          1.87577486e-01, 1.95537470e-02, 3.16433683e-02, 3.73205021e-02,
          4.28795367e-01, 5.33648014e-01, 4.64416482e-02, 2.55526155e-02,
          6.61451221e-02, 5.33648014e-01, 3.54195833e-01, 8.54176804e-02,
          1.98534746e-02, 5.33648014e-01, 5.62529981e-01, 0.,
          1.11269113e-03, 3.95166613e-02, 5.62529981e-01, 2.08552599e-01,
          9.78363096e-04, 2.20874860e-03, 5.62529981e-01, 4.46997166e-01,
          1.61043406e-02, 6.40654862e-02, 3.16018134e-01, 4.46997166e-01,
          4.46997166e-01, 1.71527460e-01, 2.50312477e-01, 4.46997166e-01,
          2.84051418e-01, 4.95760925e-02, 7.36216754e-02, 6.80090189e-02,
          4.35540110e-01, 4.35540110e-01, 4.35540110e-01, 4.35540110e-01,
          3.79051715e-01, 2.14956746e-01, 8.57259035e-02, 6.86004460e-02,
          1.91536292e-01, 7.21898317e-01, 5.19496441e-01, 7.42999539e-02,
          1.97221562e-01, 2.49832243e-01, 9.49426740e-02, 4.41336893e-02,
          5.67043349e-02, 1.90402910e-01, 6.68713748e-01, 6.68713748e-01,
          1.93608075e-01, 6.98176771e-02, 7.86063895e-02, 2.84051418e-01,
          4.95760925e-02, 7.36216754e-02, 6.80090189e-02, 4.35540110e-01,
          4.35540110e-01, 4.35540110e-01, 4.35540110e-01, 3.79051715e-01,
          2.14956746e-01, 8.57259035e-02, 6.86004460e-02, 1.91536292e-01,
          7.21898317e-01, 5.19496441e-01, 7.42999539e-02, 1.97221562e-01,
          2.49832243e-01, 9.49426740e-02, 4.41336893e-02, 5.67043349e-02,
          1.90402910e-01, 6.68713748e-01, 6.68713748e-01, 1.93608075e-01,
          6.98176771e-02, 7.86063895e-02, 4.57360178e-01, 1.81663871e-01,
          6.25380650e-02, 1.01806000e-02, 3.26687694e-02, 3.47325087e-01,
          4.57360178e-01, 4.57360178e-01, 4.57360178e-01, 1.88291788e-01,
          4.84064639e-01, 3.17228079e-01, 4.15603779e-02, 8.02956596e-02,
          2.61851311e-01, 4.99580055e-01, 4.99580055e-01, 2.20687971e-01,
          4.64236081e-01, 4.64236081e-01, 1.37702152e-01, 4.72899862e-02,
          1.82910874e-01, 4.64236081e-01, 4.64236081e-01, 1.77918136e-01,
          2.16779038e-01, 2.12489471e-01, 2.09831055e-02, 1.42821968e-02,
          6.39751852e-02, 1.91317126e-01, 6.38824880e-01, 6.38824880e-01,
          1.92148417e-01, 2.32412189e-01, 4.75105256e-01, 3.49995017e-01,
          8.31247717e-02, 2.39996612e-02, 1.89515486e-01, 4.75105256e-01,
          4.75105256e-01, 3.41254205e-01, 1.89015806e-01, 6.94532275e-01,
          6.94532275e-01, 4.75428216e-02, 1.12837763e-03, 2.81071365e-02,
          1.18306503e-01, 6.56001940e-02, 1.92209929e-02, 8.12155381e-02 ]
      - [ 4.98178005e-01, 4.98178005e-01, 1.44368842e-01, 4.72422950e-02,
          1.41126752e-01, 4.98178005e-01, 4.40964550e-01, 4.49683592e-02,
          1.04964465e-01, 4.76413012e-01, 3.64343047e-01, 8.22478384e-02,
          9.49615538e-02, 3.71126741e-01, 4.76413012e-01, 1.27786353e-01,
          1.08354695e-01, 4.76413012e-01, 6.15896344e-01, 9.11013037e-02,
          2.54417472e-02, 7.38336518e-02, 4.29938853e-01, 1.66279703e-01,
          2.96466090e-02, 8.61423835e-02, 6.15896344e-01, 2.29777008e-01,
          4.70781565e-01, 4.70781565e-01, 1.71437979e-01, 8.84489343e-02,
          4.70781565e-01, 4.70781565e-01, 1.09049641e-01, 8.27837586e-02,
          4.43814188e-01, 4.43814188e-01, 4.43814188e-01, 2.92176846e-02,
          2.58496821e-01, 1.26967445e-01, 3.40053141e-01, 9.08383057e-02,
          4.43814188e-01, 5.31420946e-01, 9.24366526e-03, 2.69913813e-03,
          7.77655914e-02, 5.31420946e-01, 3.19571376e-01, 1.91337183e-01,
          5.09126633e-02, 5.31420946e-01, 1.75420582e-01, 4.69559252e-01,
          4.69559252e-01, 1.56008393e-01, 5.59030958e-02, 5.12701236e-02,
          3.03364635e-01, 4.25390989e-01, 4.69559252e-01, 4.19803783e-02,
          4.93431628e-01, 4.93431628e-01, 2.49816161e-02, 6.65473863e-02,
          8.33892226e-02, 4.93431628e-01, 4.93431628e-01, 8.60464796e-02,
          4.21544909e-01, 1.75872922e-01, 5.67660388e-03, 7.66920373e-02,
          4.57571268e-01, 3.05491060e-01, 4.57571268e-01, 4.57571268e-01,
          2.43813366e-01, 1.75420582e-01, 4.69559252e-01, 4.69559252e-01,
          1.56008393e-01, 5.59030958e-02, 5.12701236e-02, 3.03364635e-01,
          4.25390989e-01, 4.69559252e-01, 4.19803783e-02, 4.93431628e-01,
          4.93431628e-01, 2.49816161e-02, 6.65473863e-02, 8.33892226e-02,
          4.93431628e-01, 4.93431628e-01, 8.60464796e-02, 4.21544909e-01,
          1.75872922e-01, 5.67660388e-03, 7.66920373e-02, 4.57571268e-01,
          3.05491060e-01, 4.57571268e-01, 4.57571268e-01, 2.43813366e-01,
          2.21598938e-01, 4.63801950e-01, 4.63801950e-01, 2.52967119e-01,
          4.49905433e-02, 5.18029183e-02, 1.30813748e-01, 4.63801950e-01,
          4.63801950e-01, 4.04236048e-01, 4.04236048e-01, 4.04236048e-01,
          1.21487670e-01, 2.33406872e-02, 1.47322817e-02, 4.04236048e-01,
          4.04236048e-01, 4.04236048e-01, 4.28422511e-01, 4.28422511e-01,
          1.68446102e-03, 6.51408976e-04, 3.98406899e-03, 3.28064471e-01,
          4.28422511e-01, 4.28422511e-01, 3.92290324e-01, 2.76031524e-01,
          1.87330633e-01, 4.29934025e-01, 4.29934025e-01, 1.77378595e-01,
          2.50524729e-01, 2.25433215e-01, 4.29934025e-01, 4.29934025e-01,
          6.81420192e-02, 4.00185287e-02, 3.87962043e-01, 5.61425745e-01,
          2.92624325e-01, 5.61425745e-01, 2.10294515e-01, 1.86064094e-01,
          2.06794441e-01, 8.94315392e-02, 2.93699279e-02, 2.36327797e-02,
          5.16711250e-02, 1.08519495e-01, 6.83140934e-01, 6.83140934e-01,
          1.44514412e-01, 1.22749150e-01, 6.15896344e-01, 9.11013037e-02,
          2.54417472e-02, 7.38336518e-02, 4.29938853e-01, 1.66279703e-01,
          2.96466090e-02, 8.61423835e-02, 6.15896344e-01, 5.22137940e-01,
          3.24989371e-02, 9.33399796e-02, 5.22137940e-01, 3.90560269e-01,
          7.98118636e-02, 1.58581678e-02, 8.92975926e-02, 5.22137940e-01,
          5.35964489e-01, 5.12754126e-03, 2.70670712e-01, 5.35964489e-01,
          1.93158254e-01, 3.39504294e-02, 8.91241655e-02, 1.14799902e-01,
          5.35964489e-01, 5.31420946e-01, 9.24366526e-03, 2.69913813e-03,
          7.77655914e-02, 5.31420946e-01, 3.19571376e-01, 1.91337183e-01,
          5.09126633e-02, 5.31420946e-01, 5.55046022e-01, 1.83407625e-03,
          2.22058664e-03, 8.52491632e-02, 5.55046022e-01, 2.50857770e-01,
          2.88399984e-03, 3.89663852e-03, 5.55046022e-01, 4.39632982e-01,
          2.34518340e-03, 4.63360213e-02, 1.66212693e-01, 4.39632982e-01,
          3.88657540e-01, 4.39632982e-01, 2.04122394e-01, 4.39632982e-01,
          4.21544909e-01, 1.75872922e-01, 5.67660388e-03, 7.66920373e-02,
          4.57571268e-01, 3.05491060e-01, 4.57571268e-01, 4.57571268e-01,
          2.43813366e-01, 8.97565633e-02, 2.04004124e-02, 5.24438825e-03,
          1.42507553e-01, 6.81402981e-01, 5.46254575e-01, 3.51466060e-01,
          2.23641306e-01, 1.67753741e-01, 6.03952557e-02, 7.31822699e-02,
          1.02786332e-01, 1.51075080e-01, 7.53599107e-01, 5.76551259e-01,
          2.04586923e-01, 7.29423612e-02, 5.08613251e-02, 4.21544909e-01,
          1.75872922e-01, 5.67660388e-03, 7.66920373e-02, 4.57571268e-01,
          3.05491060e-01, 4.57571268e-01, 4.57571268e-01, 2.43813366e-01,
          8.97565633e-02, 2.04004124e-02, 5.24438825e-03, 1.42507553e-01,
          6.81402981e-01, 5.46254575e-01, 3.51466060e-01, 2.23641306e-01,
          1.67753741e-01, 6.03952557e-02, 7.31822699e-02, 1.02786332e-01,
          1.51075080e-01, 7.53599107e-01, 5.76551259e-01, 2.04586923e-01,
          7.29423612e-02, 5.08613251e-02, 4.28422511e-01, 4.28422511e-01,
          1.68446102e-03, 6.51408976e-04, 3.98406899e-03, 3.28064471e-01,
          4.28422511e-01, 4.28422511e-01, 3.92290324e-01, 2.13548988e-01,
          9.35908556e-02, 4.12026932e-03, 0., 4.07518260e-03,
          2.46071577e-01, 6.34576797e-01, 6.34576797e-01, 2.70816445e-01,
          4.99808282e-01, 5.37739456e-01, 3.37382019e-01, 5.00980066e-03,
          3.28625292e-02, 6.06779242e-03, 2.52721667e-01, 4.45118904e-01,
          2.80517936e-01, 8.94315392e-02, 2.93699279e-02, 2.36327797e-02,
          5.16711250e-02, 1.08519495e-01, 6.83140934e-01, 6.83140934e-01,
          1.44514412e-01, 1.22749150e-01, 4.37279791e-01, 1.94704771e-01,
          3.20705213e-02, 0., 2.50075329e-02, 4.37279791e-01,
          4.37279791e-01, 4.37279791e-01, 4.37279791e-01, 7.00764179e-01,
          7.00764179e-01, 1.95142832e-02, 0., 3.37425596e-03,
          1.46495469e-03, 4.43901904e-02, 4.03450467e-02, 8.28936249e-02 ]
      - [ 1.03353932e-01, 1.66322708e-01, 2.53261477e-01, 6.16091192e-02,
          2.21129000e-01, 4.53770876e-01, 5.58463097e-01, 5.58463097e-01,
          9.78394002e-02, 1.87216476e-02, 7.02735007e-01, 7.02735007e-01,
          1.14104189e-02, 2.75361817e-03, 8.40287947e-04, 1.96450055e-02,
          6.12545647e-02, 2.61751413e-02, 1.36304018e-03, 5.39638817e-01,
          5.39638817e-01, 5.98845584e-03, 9.30961315e-03, 2.41275644e-03,
          5.39638817e-01, 3.47632587e-01, 1.45238684e-03, 2.32647240e-01,
          3.96175325e-01, 2.95047134e-01, 9.67757255e-02, 1.20284639e-01,
          2.24966463e-02, 5.71135104e-01, 5.71135104e-01, 1.39404878e-01,
          3.72315012e-02, 7.03975141e-01, 7.03975141e-01, 3.08942050e-04,
          3.97053780e-04, 0., 2.97433068e-03, 1.03639048e-02,
          1.75507199e-02, 2.21388577e-03, 5.94193101e-01, 5.94193101e-01,
          0., 7.04826182e-03, 3.04954615e-03, 4.81860548e-01,
          2.35967904e-01, 1.27112807e-03, 7.62067884e-02, 3.62337857e-01,
          3.21373641e-01, 7.62795284e-02, 2.79123157e-01, 4.20038775e-02,
          4.72374111e-01, 4.72374111e-01, 4.72374111e-01, 1.15629500e-02,
          7.03296483e-01, 7.03296483e-01, 5.98031543e-02, 1.29954994e-03,
          0., 1.66440703e-04, 5.54802355e-05, 3.97930760e-03,
          1.34416833e-03, 6.29547358e-01, 6.30766213e-01, 6.51648566e-02,
          6.80011511e-03, 6.99480250e-03, 4.15839165e-01, 1.49128824e-01,
          1.17511896e-03, 7.62067884e-02, 3.62337857e-01, 3.21373641e-01,
          7.62795284e-02, 2.79123157e-01, 4.20038775e-02, 4.72374111e-01,
          4.72374111e-01, 4.72374111e-01, 1.15629500e-02, 7.03296483e-01,
          7.03296483e-01, 5.98031543e-02, 1.29954994e-03, 0.,
          1.66440703e-04, 5.54802355e-05, 3.97930760e-03, 1.34416833e-03,
          6.29547358e-01, 6.30766213e-01, 6.51648566e-02, 6.80011511e-03,
          6.99480250e-03, 4.15839165e-01, 1.49128824e-01, 1.17511896e-03,
          4.02328111e-02, 9.32660028e-02, 2.65643716e-01, 4.66847420e-01,
          2.06134543e-01, 1.32517684e-02, 4.66847420e-01, 4.66847420e-01,
          4.66847420e-01, 1.91063900e-02, 6.69485331e-01, 7.20731437e-01,
          1.51653945e-01, 1.00317923e-02, 0., 9.87147447e-03,
          3.88829187e-02, 8.21577478e-03, 3.17137875e-03, 5.51665664e-01,
          7.24893808e-01, 1.14186749e-01, 1.52343055e-02, 8.81623570e-03,
          3.66244584e-01, 1.24334432e-01, 2.37443042e-03, 2.79875100e-02,
          7.27531910e-02, 4.92992222e-01, 4.92992222e-01, 9.65930000e-02,
          4.61681336e-02, 7.32993931e-02, 4.92992222e-01, 4.92992222e-01,
          6.04984872e-02, 3.29697937e-01, 4.85150784e-01, 4.16812032e-01,
          4.94658388e-02, 3.77872889e-03, 2.20517181e-02, 4.85150784e-01,
          4.85150784e-01, 2.34764908e-02, 5.68346620e-01, 5.68346620e-01,
          2.01865137e-01, 5.08749664e-01, 4.80202027e-02, 1.94823846e-01,
          7.41133168e-02, 4.90617938e-02, 1.36304018e-03, 5.39638817e-01,
          5.39638817e-01, 5.98845584e-03, 9.30961315e-03, 2.41275644e-03,
          5.39638817e-01, 3.47632587e-01, 1.45238684e-03, 1.34260987e-03,
          3.40294180e-04, 1.02088263e-03, 0., 2.02566781e-03,
          6.56921184e-03, 7.04443574e-01, 7.04443574e-01, 2.08911449e-02,
          1.84865952e-01, 8.00117552e-02, 5.00363946e-01, 4.86946329e-02,
          0., 1.17840543e-01, 5.00363946e-01, 5.00363946e-01,
          4.32522327e-01, 2.21388577e-03, 5.94193101e-01, 5.94193101e-01,
          0., 7.04826182e-03, 3.04954615e-03, 4.81860548e-01,
          2.35967904e-01, 1.27112807e-03, 3.30294046e-04, 3.43664287e-04,
          1.03099283e-03, 0., 2.04993202e-03, 4.27421508e-03,
          7.04604328e-01, 7.04604328e-01, 2.86805909e-03, 1.77799556e-02,
          1.64834922e-03, 9.62930382e-04, 0., 8.50051567e-02,
          1.97394237e-01, 6.87070072e-01, 6.87070072e-01, 5.00051752e-02,
          1.34416833e-03, 6.29547358e-01, 6.30766213e-01, 6.51648566e-02,
          6.80011511e-03, 6.99480250e-03, 4.15839165e-01, 1.49128824e-01,
          1.17511896e-03, 1.72353792e-03, 8.01149581e-05, 2.40344874e-04,
          0., 2.97542458e-04, 7.09308824e-03, 7.04593480e-01,
          7.04593480e-01, 3.01763625e-03, 8.38964283e-02, 6.64553232e-03,
          8.22859351e-03, 5.34037407e-03, 2.34655477e-02, 9.58969370e-02,
          6.30783260e-01, 6.30783260e-01, 4.25442219e-01, 1.34416833e-03,
          6.29547358e-01, 6.30766213e-01, 6.51648566e-02, 6.80011511e-03,
          6.99480250e-03, 4.15839165e-01, 1.49128824e-01, 1.17511896e-03,
          1.72353792e-03, 8.01149581e-05, 2.40344874e-04, 0.,
          2.97542458e-04, 7.09308824e-03, 7.04593480e-01, 7.04593480e-01,
          3.01763625e-03, 8.38964283e-02, 6.64553232e-03, 8.22859351e-03,
          5.34037407e-03, 2.34655477e-02, 9.58969370e-02, 6.30783260e-01,
          6.30783260e-01, 4.25442219e-01, 3.17137875e-03, 5.51665664e-01,
          7.24893808e-01, 1.14186749e-01, 1.52343055e-02, 8.81623570e-03,
          3.66244584e-01, 1.24334432e-01, 2.37443042e-03, 6.90552813e-04,
          9.88504151e-04, 2.44869897e-03, 1.72473153e-03, 2.16666213e-03,
          8.39667022e-03, 7.04584658e-01, 7.04584658e-01, 1.35558774e-03,
          4.04664934e-01, 4.58594650e-01, 3.92171860e-01, 2.15302431e-03,
          2.95351688e-02, 1.72394767e-01, 4.58594650e-01, 4.58594650e-01,
          1.27838716e-01, 2.34764908e-02, 5.68346620e-01, 5.68346620e-01,
          2.01865137e-01, 5.08749664e-01, 4.80202027e-02, 1.94823846e-01,
          7.41133168e-02, 4.90617938e-02, 1.22293361e-01, 9.00819227e-02,
          1.65632064e-03, 5.08389063e-03, 2.77115136e-01, 2.44977608e-01,
          6.45031035e-01, 6.45031035e-01, 3.90427969e-02, 4.86987114e-01,
          4.86987114e-01, 1.09533943e-01, 1.09717948e-02, 1.12583578e-01,
          4.86987114e-01, 4.86987114e-01, 1.32916719e-01, 6.36418909e-02 ]
      - [ 3.69464129e-01, 6.21542692e-01, 2.88848057e-02, 1.88564677e-02,
          5.36414832e-02, 6.21542692e-01, 2.82628477e-01, 2.19948664e-02,
          1.51679264e-02, 2.10071757e-01, 4.11799401e-01, 4.11799401e-01,
          4.11799401e-01, 4.11799401e-01, 4.11799401e-01, 2.27059826e-01,
          2.23702148e-01, 4.75790910e-02, 1.66652709e-01, 3.82180870e-01,
          3.82180870e-01, 3.82180870e-01, 3.82180870e-01, 1.88524798e-01,
          2.47818977e-01, 3.82180870e-01, 3.75688285e-01, 3.42390865e-01,
          1.78801119e-01, 3.89109068e-02, 2.30824612e-02, 1.67700931e-01,
          5.36172330e-01, 5.36172330e-01, 4.03050631e-01, 2.79038221e-01,
          3.04830313e-01, 4.65524524e-01, 4.65524524e-01, 2.39848375e-01,
          1.35286376e-01, 1.83007419e-01, 3.17384362e-01, 4.52906579e-01,
          2.31999800e-01, 3.47518653e-01, 2.01488793e-01, 3.47518653e-01,
          3.47518653e-01, 3.47518653e-01, 3.32484245e-01, 3.47518653e-01,
          3.47518653e-01, 3.47518653e-01, 8.42040256e-02, 5.59050925e-02,
          1.02908038e-01, 8.38421956e-02, 4.57441598e-01, 4.59047318e-01,
          5.14877677e-01, 5.14877677e-01, 1.29797786e-01, 4.05555218e-01,
          4.05555218e-01, 4.05555218e-01, 4.05555218e-01, 3.96121651e-01,
          3.32326144e-01, 2.26985812e-01, 9.28826332e-02, 1.02692291e-01,
          3.55582118e-01, 3.48258883e-01, 2.17693225e-01, 3.55582118e-01,
          3.55582118e-01, 3.55582118e-01, 2.62946457e-01, 3.55582118e-01,
          3.55582118e-01, 8.42040256e-02, 5.59050925e-02, 1.02908038e-01,
          8.38421956e-02, 4.57441598e-01, 4.59047318e-01, 5.14877677e-01,
          5.14877677e-01, 1.29797786e-01, 4.05555218e-01, 4.05555218e-01,
          4.05555218e-01, 4.05555218e-01, 3.96121651e-01, 3.32326144e-01,
          2.26985812e-01, 9.28826332e-02, 1.02692291e-01, 3.55582118e-01,
          3.48258883e-01, 2.17693225e-01, 3.55582118e-01, 3.55582118e-01,
          3.55582118e-01, 2.62946457e-01, 3.55582118e-01, 3.55582118e-01,
          5.69009110e-02, 3.48875001e-02, 5.34643345e-02, 1.86631426e-01,
          4.84211706e-02, 9.44727845e-03, 4.95786726e-01, 5.93167067e-01,
          5.93167067e-01, 3.45670760e-01, 4.57541227e-01, 4.57541227e-01,
          4.57541227e-01, 4.40031514e-02, 1.54767707e-01, 1.62467241e-01,
          3.53729367e-01, 2.65518606e-01, 3.47981960e-01, 3.47981960e-01,
          3.47981960e-01, 3.47981960e-01, 3.09716940e-01, 3.47981960e-01,
          2.30127245e-01, 3.47981960e-01, 3.47981960e-01, 1.45048508e-02,
          1.23237809e-02, 2.24833205e-01, 5.60684741e-01, 1.25598619e-02,
          5.68945613e-03, 1.40241357e-02, 5.60684741e-01, 5.60684741e-01,
          4.03122723e-01, 4.03122723e-01, 4.03122723e-01, 4.03122723e-01,
          8.19053948e-02, 9.68020856e-02, 6.96144551e-02, 4.03122723e-01,
          4.03122723e-01, 3.54379714e-01, 2.76042134e-01, 3.54379714e-01,
          3.54379714e-01, 3.54379714e-01, 3.54379714e-01, 3.54379714e-01,
          2.02892110e-01, 3.54379714e-01, 1.66652709e-01, 3.82180870e-01,
          3.82180870e-01, 3.82180870e-01, 3.82180870e-01, 1.88524798e-01,
          2.47818977e-01, 3.82180870e-01, 3.75688285e-01, 1.03294045e-01,
          1.34961367e-01, 3.95390660e-01, 3.95390660e-01, 3.83886516e-01,
          2.54130453e-01, 3.95390660e-01, 3.95390660e-01, 3.60388130e-01,
          1.10549957e-01, 2.66315583e-02, 4.41677332e-01, 5.08445084e-01,
          3.96540537e-02, 3.14094573e-02, 9.38316211e-02, 5.08445084e-01,
          5.08445084e-01, 3.47518653e-01, 2.01488793e-01, 3.47518653e-01,
          3.47518653e-01, 3.47518653e-01, 3.32484245e-01, 3.47518653e-01,
          3.47518653e-01, 3.47518653e-01, 3.75454128e-01, 4.63607945e-02,
          1.13298379e-01, 3.68060321e-01, 3.75454128e-01, 3.75454128e-01,
          3.75454128e-01, 3.75454128e-01, 3.75454128e-01, 9.26033407e-02,
          4.73174527e-02, 6.15114152e-01, 6.15114152e-01, 1.72983900e-01,
          1.02666125e-01, 1.29935607e-01, 2.78488994e-01, 3.02341163e-01,
          3.55582118e-01, 3.48258883e-01, 2.17693225e-01, 3.55582118e-01,
          3.55582118e-01, 3.55582118e-01, 2.62946457e-01, 3.55582118e-01,
          3.55582118e-01, 1.49747193e-01, 5.24999052e-02, 1.11059226e-01,
          4.16344464e-01, 4.16344464e-01, 3.02675903e-01, 4.16344464e-01,
          4.16344464e-01, 4.16344464e-01, 8.74764100e-03, 5.53949296e-01,
          5.53949296e-01, 3.78853023e-01, 2.35861301e-01, 2.37649530e-01,
          3.25978816e-01, 1.29214048e-01, 4.55650650e-02, 3.55582118e-01,
          3.48258883e-01, 2.17693225e-01, 3.55582118e-01, 3.55582118e-01,
          3.55582118e-01, 2.62946457e-01, 3.55582118e-01, 3.55582118e-01,
          1.49747193e-01, 5.24999052e-02, 1.11059226e-01, 4.16344464e-01,
          4.16344464e-01, 3.02675903e-01, 4.16344464e-01, 4.16344464e-01,
          4.16344464e-01, 8.74764100e-03, 5.53949296e-01, 5.53949296e-01,
          3.78853023e-01, 2.35861301e-01, 2.37649530e-01, 3.25978816e-01,
          1.29214048e-01, 4.55650650e-02, 3.47981960e-01, 3.47981960e-01,
          3.47981960e-01, 3.47981960e-01, 3.09716940e-01, 3.47981960e-01,
          2.30127245e-01, 3.47981960e-01, 3.47981960e-01, 2.74007618e-01,
          3.21844161e-01, 2.55013227e-01, 2.71921843e-01, 1.11956827e-01,
          4.17528212e-01, 4.17528212e-01, 4.17528212e-01, 3.77714515e-01,
          3.48212510e-01, 5.32667160e-01, 5.32667160e-01, 1.66818183e-02,
          2.96228230e-02, 1.07501969e-01, 4.60332692e-01, 2.62038410e-01,
          1.12592429e-01, 3.54379714e-01, 2.76042134e-01, 3.54379714e-01,
          3.54379714e-01, 3.54379714e-01, 3.54379714e-01, 3.54379714e-01,
          2.02892110e-01, 3.54379714e-01, 3.86118203e-01, 3.02857608e-01,
          3.65067720e-02, 9.25390273e-02, 3.86118203e-01, 3.86118203e-01,
          3.86118203e-01, 3.86118203e-01, 3.86118203e-01, 5.59012890e-01,
          5.59012890e-01, 8.75946507e-02, 1.48435438e-03, 4.65983525e-02,
          5.59012890e-01, 2.12021738e-01, 3.43351811e-02, 3.08692940e-02 ]
      - [ 4.78828490e-01, 4.63839322e-01, 1.31659046e-01, 2.75460538e-02,
          6.28479421e-02, 4.78828490e-01, 4.12527531e-01, 6.63119406e-02,
          3.53409290e-01, 4.57829624e-01, 4.57829624e-01, 5.43168001e-02,
          3.98511440e-03, 2.97439963e-01, 4.57829624e-01, 1.23001195e-01,
          2.74693489e-01, 4.29628342e-01, 2.23206788e-01, 1.53357640e-01,
          2.57106125e-02, 3.90857793e-02, 3.90460074e-01, 2.67483592e-01,
          2.14552343e-01, 5.69537103e-01, 5.69537103e-01, 1.41350284e-01,
          4.72948700e-01, 4.72948700e-01, 1.27199024e-01, 2.53231376e-01,
          4.72948700e-01, 4.72948700e-01, 1.62852816e-02, 1.83964835e-03,
          3.92260730e-01, 3.92260730e-01, 3.92260730e-01, 3.24236095e-01,
          3.92260730e-01, 3.92260730e-01, 3.19067091e-01, 1.20982528e-01,
          7.18971789e-02, 1.54781062e-02, 3.16708833e-02, 6.39646575e-02,
          4.58267540e-01, 4.58267540e-01, 2.67685175e-01, 4.58267540e-01,
          4.58267540e-01, 2.79993802e-01, 2.96794530e-02, 4.31348950e-01,
          4.31348950e-01, 1.90408483e-01, 4.31348950e-01, 4.31348950e-01,
          4.31348950e-01, 1.67583093e-01, 1.26937879e-02, 1.27863521e-02,
          5.11767268e-01, 5.11767268e-01, 1.36153236e-01, 2.48670503e-01,
          2.23261565e-01, 5.11767268e-01, 2.80331761e-01, 1.42119527e-02,
          1.35804996e-01, 2.35814955e-02, 1.41600594e-01, 4.58274126e-01,
          4.58274126e-01, 2.96549350e-01, 4.58274126e-01, 4.58274126e-01,
          1.68435037e-01, 2.96794530e-02, 4.31348950e-01, 4.31348950e-01,
          1.90408483e-01, 4.31348950e-01, 4.31348950e-01, 4.31348950e-01,
          1.67583093e-01, 1.26937879e-02, 1.27863521e-02, 5.11767268e-01,
          5.11767268e-01, 1.36153236e-01, 2.48670503e-01, 2.23261565e-01,
          5.11767268e-01, 2.80331761e-01, 1.42119527e-02, 1.35804996e-01,
          2.35814955e-02, 1.41600594e-01, 4.58274126e-01, 4.58274126e-01,
          2.96549350e-01, 4.58274126e-01, 4.58274126e-01, 1.68435037e-01,
          2.18213126e-02, 4.86494780e-01, 4.86494780e-01, 2.01032981e-01,
          2.07981244e-02, 2.58411933e-02, 4.86494780e-01, 4.86494780e-01,
          8.02589282e-02, 2.14290153e-02, 4.65784460e-01, 4.65784460e-01,
          4.65784460e-01, 3.15284014e-01, 2.82181855e-02, 3.16452652e-01,
          3.50614548e-01, 1.44047737e-01, 4.51628119e-01, 9.11537930e-03,
          4.86763045e-02, 5.34616597e-02, 4.51628119e-01, 4.99383360e-02,
          4.14502800e-01, 4.51628119e-01, 4.51628119e-01, 1.93910580e-02,
          4.78042997e-02, 1.99024215e-01, 1.93943068e-01, 3.73907052e-02,
          1.63500775e-02, 1.02486670e-01, 6.71283722e-01, 6.71283722e-01,
          5.02549931e-02, 1.02028184e-01, 4.83733714e-01, 4.83733714e-01,
          4.83733714e-01, 1.90839767e-01, 5.02678715e-02, 2.61696041e-01,
          4.15700465e-01, 2.00876817e-01, 5.13912030e-02, 1.78442057e-02,
          1.67841569e-01, 8.31494033e-01, 3.67730916e-01, 2.77527738e-02,
          1.10352539e-01, 2.84014672e-01, 2.23206788e-01, 1.53357640e-01,
          2.57106125e-02, 3.90857793e-02, 3.90460074e-01, 2.67483592e-01,
          2.14552343e-01, 5.69537103e-01, 5.69537103e-01, 1.33961722e-01,
          9.17368978e-02, 1.44976944e-01, 4.39242572e-01, 4.39242572e-01,
          2.55009204e-01, 3.33866477e-01, 4.39242572e-01, 4.39242572e-01,
          1.98618621e-01, 1.73547655e-01, 1.69553339e-01, 4.64011103e-01,
          4.64011103e-01, 1.23601042e-01, 1.43339723e-01, 4.64011103e-01,
          4.64011103e-01, 1.54781062e-02, 3.16708833e-02, 6.39646575e-02,
          4.58267540e-01, 4.58267540e-01, 2.67685175e-01, 4.58267540e-01,
          4.58267540e-01, 2.79993802e-01, 1.13557532e-01, 1.36164203e-01,
          2.39492685e-01, 1.69645682e-01, 1.68022349e-01, 2.53543228e-01,
          6.01003170e-01, 6.01003170e-01, 2.47994661e-01, 3.43018144e-01,
          3.83773774e-01, 3.29288095e-01, 3.83773774e-01, 3.09345305e-01,
          1.49632454e-01, 2.50719249e-01, 3.83773774e-01, 3.83773774e-01,
          1.35804996e-01, 2.35814955e-02, 1.41600594e-01, 4.58274126e-01,
          4.58274126e-01, 2.96549350e-01, 4.58274126e-01, 4.58274126e-01,
          1.68435037e-01, 3.85683805e-01, 1.19117789e-01, 1.07224889e-01,
          2.83716142e-01, 3.85683805e-01, 3.83608133e-01, 3.85683805e-01,
          3.84451270e-01, 3.85683805e-01, 5.95059812e-01, 1.55362546e-01,
          1.90321669e-01, 9.32609737e-02, 4.02232736e-01, 7.36927986e-02,
          9.09226313e-02, 2.03273013e-01, 5.95059812e-01, 1.35804996e-01,
          2.35814955e-02, 1.41600594e-01, 4.58274126e-01, 4.58274126e-01,
          2.96549350e-01, 4.58274126e-01, 4.58274126e-01, 1.68435037e-01,
          3.85683805e-01, 1.19117789e-01, 1.07224889e-01, 2.83716142e-01,
          3.85683805e-01, 3.83608133e-01, 3.85683805e-01, 3.84451270e-01,
          3.85683805e-01, 5.95059812e-01, 1.55362546e-01, 1.90321669e-01,
          9.32609737e-02, 4.02232736e-01, 7.36927986e-02, 9.09226313e-02,
          2.03273013e-01, 5.95059812e-01, 4.51628119e-01, 9.11537930e-03,
          4.86763045e-02, 5.34616597e-02, 4.51628119e-01, 4.99383360e-02,
          4.14502800e-01, 4.51628119e-01, 4.51628119e-01, 5.74728489e-01,
          8.10831145e-04, 2.29502004e-03, 4.98736128e-02, 5.74728489e-01,
          2.82572508e-02, 4.74966550e-03, 2.82747461e-03, 5.74728489e-01,
          5.09720981e-01, 1.84174515e-02, 1.97650422e-03, 1.96837950e-02,
          5.09720981e-01, 2.51922965e-01, 2.38179207e-01, 3.07470113e-01,
          5.09720981e-01, 2.00876817e-01, 5.13912030e-02, 1.78442057e-02,
          1.67841569e-01, 8.31494033e-01, 3.67730916e-01, 2.77527738e-02,
          1.10352539e-01, 2.84014672e-01, 4.63487238e-01, 9.15442407e-02,
          4.18337528e-03, 2.39198908e-01, 8.09575260e-01, 6.80802241e-02,
          2.60214619e-02, 2.22953707e-02, 2.24198237e-01, 4.94226068e-01,
          4.94226068e-01, 4.16791774e-02, 7.12592006e-02, 4.94226068e-01,
          4.64635581e-01, 1.43503442e-01, 4.26387675e-02, 1.31045714e-01 ]
      - [ 5.04365623e-01, 5.04365623e-01, 2.09739394e-02, 5.52012771e-02,
          4.77626771e-01, 5.04365623e-01, 8.87220167e-03, 8.16789572e-04,
          1.07190982e-02, 3.41732532e-01, 5.04817545e-01, 3.20569649e-02,
          3.85175832e-02, 5.56788981e-01, 5.56788981e-01, 1.10941017e-02,
          9.47269518e-03, 8.13219231e-03, 2.03583822e-01, 4.60685015e-01,
          4.60685015e-01, 2.74763077e-01, 4.60685015e-01, 4.60685015e-01,
          9.93512943e-02, 1.20867945e-01, 7.10981786e-02, 3.88168752e-01,
          4.66223270e-01, 3.24549079e-02, 6.44010454e-02, 2.58374572e-01,
          5.03227651e-01, 5.03227651e-01, 2.17790827e-01, 3.26773562e-02,
          4.82336193e-01, 4.82336193e-01, 1.81234464e-01, 4.07917872e-02,
          4.23195958e-01, 4.82336193e-01, 1.31306991e-01, 1.45244449e-01,
          2.12827832e-01, 1.47913411e-01, 5.87474465e-01, 5.87474465e-01,
          2.79797584e-01, 5.38404733e-02, 8.15196112e-02, 2.80283391e-01,
          2.40752503e-01, 2.40107536e-01, 6.77808151e-02, 2.24732280e-01,
          2.94364959e-01, 1.51572600e-01, 1.37897253e-01, 1.24532528e-01,
          6.30166888e-01, 6.30166888e-01, 1.54873999e-02, 4.81996119e-01,
          2.36354724e-01, 1.90147877e-01, 4.81996119e-01, 4.81996119e-01,
          2.87489027e-01, 8.26109946e-02, 8.40150341e-02, 3.31167996e-01,
          4.02873218e-01, 4.23795372e-01, 4.23795372e-01, 4.23795372e-01,
          4.23795372e-01, 2.05996528e-01, 8.03521499e-02, 1.09529331e-01,
          2.32727036e-01, 6.77808151e-02, 2.24732280e-01, 2.94364959e-01,
          1.51572600e-01, 1.37897253e-01, 1.24532528e-01, 6.30166888e-01,
          6.30166888e-01, 1.54873999e-02, 4.81996119e-01, 2.36354724e-01,
          1.90147877e-01, 4.81996119e-01, 4.81996119e-01, 2.87489027e-01,
          8.26109946e-02, 8.40150341e-02, 3.31167996e-01, 4.02873218e-01,
          4.23795372e-01, 4.23795372e-01, 4.23795372e-01, 4.23795372e-01,
          2.05996528e-01, 8.03521499e-02, 1.09529331e-01, 2.32727036e-01,
          1.30754322e-01, 2.36466266e-02, 1.26905829e-01, 2.42679998e-01,
          9.60060358e-02, 1.94774866e-02, 5.45375288e-01, 5.45375288e-01,
          5.45375288e-01, 4.14033502e-01, 2.74321496e-01, 2.33194038e-01,
          4.14033502e-01, 4.14033502e-01, 8.46170336e-02, 4.41986956e-02,
          4.14033502e-01, 4.14033502e-01, 2.72229075e-01, 4.66895312e-01,
          4.66895312e-01, 4.66895312e-01, 2.49969125e-01, 1.73316225e-01,
          1.87884659e-01, 3.07679355e-01, 2.11574927e-01, 3.09229512e-02,
          7.97173008e-03, 3.42631899e-02, 5.54123998e-01, 2.65706897e-01,
          1.28075527e-03, 2.26006359e-02, 5.54123998e-01, 5.54123998e-01,
          4.00851779e-02, 6.04577595e-03, 7.85492361e-02, 5.71705520e-01,
          7.58220032e-02, 1.18397735e-02, 6.85360888e-03, 5.71705520e-01,
          5.71705520e-01, 3.42120498e-01, 4.08529580e-01, 4.08529580e-01,
          4.08529580e-01, 3.70719060e-02, 1.99058682e-01, 5.82380407e-02,
          4.08529580e-01, 4.08529580e-01, 2.03583822e-01, 4.60685015e-01,
          4.60685015e-01, 2.74763077e-01, 4.60685015e-01, 4.60685015e-01,
          9.93512943e-02, 1.20867945e-01, 7.10981786e-02, 3.01314563e-01,
          3.63409132e-01, 3.63409132e-01, 3.63409132e-01, 3.63409132e-01,
          2.25525796e-01, 3.63409132e-01, 3.63409132e-01, 2.49639273e-01,
          1.87933177e-01, 2.53812909e-01, 4.03922170e-01, 4.03922170e-01,
          4.03922170e-01, 1.68420404e-01, 2.28240907e-01, 4.03922170e-01,
          4.03922170e-01, 1.47913411e-01, 5.87474465e-01, 5.87474465e-01,
          2.79797584e-01, 5.38404733e-02, 8.15196112e-02, 2.80283391e-01,
          2.40752503e-01, 2.40107536e-01, 2.19618618e-01, 3.50104570e-01,
          3.50104570e-01, 3.50104570e-01, 3.50104570e-01, 3.00428450e-01,
          3.50104570e-01, 3.50104570e-01, 3.50104570e-01, 4.05075639e-01,
          6.53547794e-02, 1.40618518e-01, 4.05075639e-01, 4.05075639e-01,
          4.05075639e-01, 2.49986991e-01, 2.98301309e-01, 4.05075639e-01,
          4.02873218e-01, 4.23795372e-01, 4.23795372e-01, 4.23795372e-01,
          4.23795372e-01, 2.05996528e-01, 8.03521499e-02, 1.09529331e-01,
          2.32727036e-01, 3.85591596e-01, 3.85591596e-01, 3.85591596e-01,
          2.72149086e-01, 3.85591596e-01, 3.85591596e-01, 1.18706681e-01,
          1.26118943e-01, 3.85591596e-01, 4.53661412e-01, 4.43168730e-02,
          7.37292767e-02, 3.23282838e-01, 4.53661412e-01, 4.53661412e-01,
          1.07202783e-01, 2.20974177e-01, 4.53661412e-01, 4.02873218e-01,
          4.23795372e-01, 4.23795372e-01, 4.23795372e-01, 4.23795372e-01,
          2.05996528e-01, 8.03521499e-02, 1.09529331e-01, 2.32727036e-01,
          3.85591596e-01, 3.85591596e-01, 3.85591596e-01, 2.72149086e-01,
          3.85591596e-01, 3.85591596e-01, 1.18706681e-01, 1.26118943e-01,
          3.85591596e-01, 4.53661412e-01, 4.43168730e-02, 7.37292767e-02,
          3.23282838e-01, 4.53661412e-01, 4.53661412e-01, 1.07202783e-01,
          2.20974177e-01, 4.53661412e-01, 2.72229075e-01, 4.66895312e-01,
          4.66895312e-01, 4.66895312e-01, 2.49969125e-01, 1.73316225e-01,
          1.87884659e-01, 3.07679355e-01, 2.11574927e-01, 3.60731512e-01,
          3.60731512e-01, 3.60731512e-01, 3.60731512e-01, 2.92073995e-01,
          2.29971603e-01, 2.78278023e-01, 3.60731512e-01, 3.60731512e-01,
          3.69528204e-01, 3.69528204e-01, 2.93242812e-01, 3.69528204e-01,
          3.69528204e-01, 3.69528204e-01, 1.31964043e-01, 2.71285534e-01,
          3.69528204e-01, 3.42120498e-01, 4.08529580e-01, 4.08529580e-01,
          4.08529580e-01, 3.70719060e-02, 1.99058682e-01, 5.82380407e-02,
          4.08529580e-01, 4.08529580e-01, 4.06183690e-01, 4.06183690e-01,
          4.06183690e-01, 4.06183690e-01, 1.62683249e-01, 2.01510191e-01,
          3.12066734e-01, 8.09848756e-02, 4.06183690e-01, 3.89844835e-01,
          1.66052505e-01, 3.42505455e-01, 2.34136641e-01, 3.89844835e-01,
          3.89844835e-01, 3.89844835e-01, 1.91068009e-01, 3.89844835e-01 ]
      - [ 5.28981805e-01, 5.28981805e-01, 6.42114431e-02, 7.35511035e-02,
          5.93673959e-02, 5.28981805e-01, 3.33296329e-01, 5.10449000e-02,
          1.68827578e-01, 5.12272358e-01, 4.66106474e-01, 9.05593336e-02,
          3.67923118e-02, 4.28430289e-01, 5.12272358e-01, 2.30472013e-01,
          2.89077889e-02, 7.56468475e-02, 4.72007364e-01, 1.22030117e-01,
          1.90029353e-01, 1.47505984e-01, 4.72007364e-01, 4.72007364e-01,
          1.47467598e-01, 9.80534181e-02, 4.72007364e-01, 4.54766095e-01,
          4.85791683e-01, 2.76169896e-01, 2.34866180e-02, 4.66493368e-02,
          4.85791683e-01, 4.85791683e-01, 1.58826243e-02, 3.32476497e-02,
          5.18551528e-01, 5.18551528e-01, 4.92725909e-01, 1.01587316e-02,
          7.22371042e-02, 1.33684635e-01, 5.04452027e-02, 1.23757496e-02,
          4.34004962e-01, 5.64523637e-01, 3.03201564e-02, 1.24637336e-02,
          2.10544001e-02, 5.64523637e-01, 1.88905284e-01, 2.27156356e-02,
          2.41453331e-02, 5.64523637e-01, 1.04952641e-01, 4.96599674e-01,
          4.96599674e-01, 4.11501527e-02, 5.68945967e-02, 4.68224198e-01,
          4.96599674e-01, 1.33757800e-01, 4.62165885e-02, 1.65771276e-01,
          5.27653158e-01, 5.27653158e-01, 9.49739572e-03, 1.72580957e-01,
          2.01317966e-01, 5.27653158e-01, 2.47230157e-01, 2.17000656e-02,
          1.58967942e-01, 1.53441736e-02, 3.22911143e-02, 1.58065885e-01,
          5.38667560e-01, 5.38667560e-01, 5.38667560e-01, 2.53260851e-01,
          9.19659734e-02, 1.04952641e-01, 4.96599674e-01, 4.96599674e-01,
          4.11501527e-02, 5.68945967e-02, 4.68224198e-01, 4.96599674e-01,
          1.33757800e-01, 4.62165885e-02, 1.65771276e-01, 5.27653158e-01,
          5.27653158e-01, 9.49739572e-03, 1.72580957e-01, 2.01317966e-01,
          5.27653158e-01, 2.47230157e-01, 2.17000656e-02, 1.58967942e-01,
          1.53441736e-02, 3.22911143e-02, 1.58065885e-01, 5.38667560e-01,
          5.38667560e-01, 5.38667560e-01, 2.53260851e-01, 9.19659734e-02,
          4.05705988e-01, 4.07373339e-01, 4.07373339e-01, 1.92288533e-02,
          3.13351043e-02, 1.47061693e-02, 4.07373339e-01, 4.07373339e-01,
          4.07373339e-01, 1.17767900e-01, 4.88957375e-01, 4.88957375e-01,
          3.31333000e-03, 1.58343359e-03, 8.48565530e-03, 4.88957375e-01,
          4.88957375e-01, 1.57621071e-01, 4.69646841e-01, 4.69646841e-01,
          6.70200139e-02, 2.11060215e-02, 3.00996173e-02, 2.33008657e-02,
          4.69646841e-01, 4.69646841e-01, 3.26573938e-01, 1.39053062e-01,
          4.36700106e-01, 4.36700106e-01, 4.36700106e-01, 5.99183738e-02,
          2.72497181e-02, 2.04487935e-01, 4.36700106e-01, 4.09055233e-01,
          3.75466913e-01, 3.75466913e-01, 3.75466913e-01, 3.75466913e-01,
          3.96528468e-02, 9.85188708e-02, 3.75466913e-01, 3.72985572e-01,
          3.75466913e-01, 3.24486077e-01, 4.58528668e-01, 4.29138467e-02,
          9.16103087e-03, 1.20668784e-02, 4.58528668e-01, 4.58528668e-01,
          4.58528668e-01, 2.16940865e-01, 4.72007364e-01, 1.22030117e-01,
          1.90029353e-01, 1.47505984e-01, 4.72007364e-01, 4.72007364e-01,
          1.47467598e-01, 9.80534181e-02, 4.72007364e-01, 4.76320028e-01,
          5.20694889e-02, 2.23075286e-01, 4.76320028e-01, 4.76320028e-01,
          9.09600407e-02, 1.48989603e-01, 6.90930560e-02, 4.76320028e-01,
          4.60040420e-01, 7.78224971e-03, 1.61404565e-01, 4.60040420e-01,
          2.29446918e-01, 5.18649258e-02, 2.59630889e-01, 4.60040420e-01,
          4.60040420e-01, 5.64523637e-01, 3.03201564e-02, 1.24637336e-02,
          2.10544001e-02, 5.64523637e-01, 1.88905284e-01, 2.27156356e-02,
          2.41453331e-02, 5.64523637e-01, 5.49754083e-01, 5.36062336e-03,
          1.37571460e-02, 2.08540130e-02, 5.49754083e-01, 2.95207143e-01,
          2.64088041e-03, 3.77639430e-03, 5.49754083e-01, 4.07992929e-01,
          2.57810932e-02, 4.31531556e-02, 9.73551646e-02, 4.07992929e-01,
          4.07992929e-01, 4.07992929e-01, 3.89394611e-01, 4.07992929e-01,
          1.58967942e-01, 1.53441736e-02, 3.22911143e-02, 1.58065885e-01,
          5.38667560e-01, 5.38667560e-01, 5.38667560e-01, 2.53260851e-01,
          9.19659734e-02, 5.23158237e-02, 2.87336623e-03, 9.27917007e-03,
          6.06460162e-02, 7.01577306e-01, 7.01577306e-01, 5.40370448e-03,
          4.50083427e-03, 4.49049361e-02, 1.51198469e-02, 9.74213239e-03,
          2.27657259e-02, 3.28087993e-02, 6.82213068e-01, 6.82213068e-01,
          2.39462569e-01, 5.02329618e-02, 2.40060668e-02, 1.58967942e-01,
          1.53441736e-02, 3.22911143e-02, 1.58065885e-01, 5.38667560e-01,
          5.38667560e-01, 5.38667560e-01, 2.53260851e-01, 9.19659734e-02,
          5.23158237e-02, 2.87336623e-03, 9.27917007e-03, 6.06460162e-02,
          7.01577306e-01, 7.01577306e-01, 5.40370448e-03, 4.50083427e-03,
          4.49049361e-02, 1.51198469e-02, 9.74213239e-03, 2.27657259e-02,
          3.28087993e-02, 6.82213068e-01, 6.82213068e-01, 2.39462569e-01,
          5.02329618e-02, 2.40060668e-02, 4.69646841e-01, 4.69646841e-01,
          6.70200139e-02, 2.11060215e-02, 3.00996173e-02, 2.33008657e-02,
          4.69646841e-01, 4.69646841e-01, 3.26573938e-01, 3.95653516e-01,
          2.64724284e-01, 1.77524388e-01, 1.92011803e-01, 1.80256099e-01,
          1.31393015e-01, 4.93911266e-01, 4.93911266e-01, 4.03001070e-01,
          1.13070868e-01, 4.04109985e-01, 5.04633546e-01, 2.16783643e-01,
          5.04633546e-01, 1.82925090e-01, 3.81158412e-01, 2.36476660e-01,
          1.67034492e-01, 3.24486077e-01, 4.58528668e-01, 4.29138467e-02,
          9.16103087e-03, 1.20668784e-02, 4.58528668e-01, 4.58528668e-01,
          4.58528668e-01, 2.16940865e-01, 8.75462294e-02, 1.99215814e-01,
          2.33051986e-01, 1.33531496e-01, 7.86552802e-02, 5.37073970e-01,
          5.37073970e-01, 5.37073970e-01, 6.00771382e-02, 6.30506217e-01,
          6.30506217e-01, 2.24730298e-01, 4.82061021e-02, 1.14820316e-01,
          3.40026557e-01, 1.01364225e-01, 6.17428236e-02, 5.39682619e-02 ]
      - [ 2.73955613e-01, 1.36801332e-01, 2.92151093e-01, 2.83378959e-01,
          4.43045259e-01, 4.61096376e-01, 4.61096376e-01, 1.75073445e-01,
          2.89503992e-01, 4.28018093e-01, 4.28018093e-01, 7.55557716e-02,
          8.70173797e-02, 4.28018093e-01, 4.28018093e-01, 2.16755688e-01,
          1.39510781e-01, 4.28018093e-01, 5.44645071e-01, 3.40969115e-02,
          7.28284568e-02, 2.15221599e-01, 5.44645071e-01, 1.93542108e-01,
          8.47850740e-02, 8.49238411e-02, 5.44645071e-01, 1.70543805e-01,
          4.75407362e-01, 4.75407362e-01, 1.26513287e-01, 1.69829145e-01,
          4.75407362e-01, 4.75407362e-01, 1.09624304e-01, 7.24754781e-02,
          4.52858120e-01, 4.52858120e-01, 4.52858120e-01, 6.94265142e-02,
          2.44159728e-01, 1.76298648e-01, 2.68332005e-01, 8.73925835e-02,
          4.52858120e-01, 5.44337571e-01, 2.44788919e-03, 7.77545647e-05,
          1.35806784e-01, 5.44337571e-01, 2.54599631e-01, 1.42858595e-01,
          4.44393829e-02, 5.44337571e-01, 3.05159301e-01, 4.75560039e-01,
          4.75560039e-01, 4.18418795e-02, 1.00595124e-01, 6.73068911e-02,
          2.96439171e-01, 3.45513016e-01, 4.75560039e-01, 4.19143736e-02,
          4.87286389e-01, 4.87286389e-01, 3.63732278e-02, 1.23151891e-01,
          1.30101949e-01, 4.87286389e-01, 4.87286389e-01, 1.00838110e-01,
          3.41962993e-01, 1.10044748e-01, 0., 1.29627466e-01,
          4.83013004e-01, 2.72558600e-01, 4.83013004e-01, 4.83013004e-01,
          2.74100691e-01, 3.05159301e-01, 4.75560039e-01, 4.75560039e-01,
          4.18418795e-02, 1.00595124e-01, 6.73068911e-02, 2.96439171e-01,
          3.45513016e-01, 4.75560039e-01, 4.19143736e-02, 4.87286389e-01,
          4.87286389e-01, 3.63732278e-02, 1.23151891e-01, 1.30101949e-01,
          4.87286389e-01, 4.87286389e-01, 1.00838110e-01, 3.41962993e-01,
          1.10044748e-01, 0., 1.29627466e-01, 4.83013004e-01,
          2.72558600e-01, 4.83013004e-01, 4.83013004e-01, 2.74100691e-01,
          1.97424427e-01, 4.37352389e-01, 4.37352389e-01, 4.37352389e-01,
          3.79537828e-02, 7.60524580e-03, 1.05117463e-01, 4.23082083e-01,
          4.37352389e-01, 3.97213519e-01, 3.97213519e-01, 3.97213519e-01,
          2.19193608e-01, 5.89052215e-03, 3.57753932e-02, 3.97213519e-01,
          3.97213519e-01, 3.97213519e-01, 4.46576923e-01, 3.82612854e-01,
          1.32948458e-02, 1.78471068e-03, 1.71549944e-03, 3.60307664e-01,
          4.46576923e-01, 4.46576923e-01, 3.47633809e-01, 1.44311972e-02,
          4.28594202e-02, 4.99497980e-01, 4.99497980e-01, 2.47212023e-01,
          3.45574459e-03, 4.29405198e-02, 4.99497980e-01, 4.26030070e-01,
          5.47096170e-02, 2.98709124e-02, 5.14743507e-01, 5.14743507e-01,
          2.01294541e-01, 5.14743507e-01, 2.19778240e-01, 2.29138702e-01,
          2.34018251e-01, 9.35653001e-02, 2.31288970e-02, 3.22074965e-02,
          3.56283858e-02, 4.43140566e-02, 6.90163076e-01, 6.90163076e-01,
          1.41420275e-01, 8.30705091e-02, 5.44645071e-01, 3.40969115e-02,
          7.28284568e-02, 2.15221599e-01, 5.44645071e-01, 1.93542108e-01,
          8.47850740e-02, 8.49238411e-02, 5.44645071e-01, 4.80520546e-01,
          6.29976764e-02, 2.34947622e-01, 4.80520546e-01, 4.80520546e-01,
          3.88007574e-02, 9.86860991e-02, 3.44546549e-02, 4.80520546e-01,
          5.50835192e-01, 9.94630437e-03, 2.02614725e-01, 5.50835192e-01,
          1.91211045e-01, 1.40162045e-02, 6.55246750e-02, 4.51411977e-02,
          5.50835192e-01, 5.44337571e-01, 2.44788919e-03, 7.77545647e-05,
          1.35806784e-01, 5.44337571e-01, 2.54599631e-01, 1.42858595e-01,
          4.44393829e-02, 5.44337571e-01, 5.63492477e-01, 5.45866741e-03,
          1.20568210e-02, 1.96117520e-01, 5.63492477e-01, 5.62435165e-02,
          9.00845160e-04, 5.64647897e-04, 5.63492477e-01, 4.17998850e-01,
          1.45207485e-02, 1.02199823e-01, 4.17998850e-01, 4.17998850e-01,
          2.03344032e-01, 3.57923418e-01, 3.41787189e-01, 4.17998850e-01,
          3.41962993e-01, 1.10044748e-01, 0., 1.29627466e-01,
          4.83013004e-01, 2.72558600e-01, 4.83013004e-01, 4.83013004e-01,
          2.74100691e-01, 1.45254627e-01, 1.01236172e-01, 1.02830408e-02,
          4.89573389e-01, 8.15970063e-01, 1.17782988e-01, 1.09851785e-01,
          1.07557990e-01, 1.31929249e-01, 3.19728404e-02, 3.77600342e-02,
          1.66021898e-01, 5.61519146e-01, 6.87564909e-01, 3.31054509e-01,
          2.36560553e-01, 8.54322538e-02, 4.71055321e-02, 3.41962993e-01,
          1.10044748e-01, 0., 1.29627466e-01, 4.83013004e-01,
          2.72558600e-01, 4.83013004e-01, 4.83013004e-01, 2.74100691e-01,
          1.45254627e-01, 1.01236172e-01, 1.02830408e-02, 4.89573389e-01,
          8.15970063e-01, 1.17782988e-01, 1.09851785e-01, 1.07557990e-01,
          1.31929249e-01, 3.19728404e-02, 3.77600342e-02, 1.66021898e-01,
          5.61519146e-01, 6.87564909e-01, 3.31054509e-01, 2.36560553e-01,
          8.54322538e-02, 4.71055321e-02, 4.46576923e-01, 3.82612854e-01,
          1.32948458e-02, 1.78471068e-03, 1.71549944e-03, 3.60307664e-01,
          4.46576923e-01, 4.46576923e-01, 3.47633809e-01, 2.62936503e-01,
          1.45945609e-01, 4.17304896e-02, 4.65247501e-03, 1.46663506e-02,
          2.98673213e-01, 6.11897588e-01, 6.11897588e-01, 2.51859844e-01,
          4.06334810e-02, 6.97291613e-01, 6.97291613e-01, 1.33637100e-01,
          1.93774495e-02, 4.55144467e-03, 1.00454660e-02, 5.99590596e-03,
          2.37710234e-02, 9.35653001e-02, 2.31288970e-02, 3.22074965e-02,
          3.56283858e-02, 4.43140566e-02, 6.90163076e-01, 6.90163076e-01,
          1.41420275e-01, 8.30705091e-02, 3.90136033e-01, 2.64179945e-01,
          6.14147410e-02, 3.55318040e-02, 6.26656935e-02, 4.67624038e-01,
          4.67624038e-01, 3.29171747e-01, 4.67624038e-01, 5.11613548e-01,
          5.11613548e-01, 2.39861980e-01, 4.66766469e-02, 3.04592639e-01,
          5.11613548e-01, 2.20005214e-01, 1.06485784e-02, 9.29522291e-02 ]
      - [ 5.39559126e-01, 5.39559126e-01, 1.49833441e-01, 1.19839221e-01,
          2.83577859e-01, 5.39559126e-01, 3.50695848e-02, 1.53130023e-02,
          5.04713990e-02, 3.85032415e-01, 4.05716062e-01, 5.64148016e-02,
          3.08090840e-02, 5.31127095e-01, 6.27612293e-01, 2.18154453e-02,
          8.44948646e-03, 1.43556911e-02, 1.45259380e-01, 4.50859547e-01,
          4.50859547e-01, 3.85690957e-01, 4.50859547e-01, 4.50859547e-01,
          5.87836206e-02, 5.09103164e-02, 8.05848464e-02, 2.69787788e-01,
          2.94009328e-01, 5.49164265e-02, 4.78600152e-02, 2.79083341e-01,
          5.57942688e-01, 5.57942688e-01, 3.49340081e-01, 8.58425647e-02,
          5.02608776e-01, 5.02608776e-01, 2.08684072e-01, 4.68145907e-02,
          2.68563211e-01, 5.02608776e-01, 1.02180645e-01, 1.63165703e-01,
          2.86710113e-01, 2.15670660e-01, 5.81773400e-01, 5.81773400e-01,
          3.02551150e-01, 1.26550823e-01, 6.46165535e-02, 8.35136473e-02,
          1.62798420e-01, 3.54331613e-01, 4.33617905e-02, 5.91961592e-02,
          1.91940382e-01, 4.03083339e-02, 8.22657347e-02, 2.03255728e-01,
          6.69689178e-01, 6.69689178e-01, 6.64553568e-02, 4.47487086e-01,
          2.90253252e-01, 1.80722952e-01, 4.47487086e-01, 4.47487086e-01,
          4.47487086e-01, 1.16850033e-01, 9.94163454e-02, 2.32607245e-01,
          2.72083193e-01, 4.57011133e-01, 4.57011133e-01, 4.57011133e-01,
          4.57011133e-01, 1.45586759e-01, 1.39804438e-01, 1.63541049e-01,
          1.35951549e-01, 4.33617905e-02, 5.91961592e-02, 1.91940382e-01,
          4.03083339e-02, 8.22657347e-02, 2.03255728e-01, 6.69689178e-01,
          6.69689178e-01, 6.64553568e-02, 4.47487086e-01, 2.90253252e-01,
          1.80722952e-01, 4.47487086e-01, 4.47487086e-01, 4.47487086e-01,
          1.16850033e-01, 9.94163454e-02, 2.32607245e-01, 2.72083193e-01,
          4.57011133e-01, 4.57011133e-01, 4.57011133e-01, 4.57011133e-01,
          1.45586759e-01, 1.39804438e-01, 1.63541049e-01, 1.35951549e-01,
          2.41216347e-02, 1.58753432e-02, 7.32519850e-02, 3.21683884e-01,
          6.49997965e-02, 3.76666039e-02, 5.01730919e-01, 5.60066700e-01,
          5.60066700e-01, 5.38052797e-01, 1.51996329e-01, 7.28555471e-02,
          1.31686538e-01, 2.05665499e-01, 1.64765850e-01, 1.04526892e-01,
          5.38052797e-01, 5.38052797e-01, 3.64783764e-01, 4.52388585e-01,
          4.52388585e-01, 4.52388585e-01, 2.11236179e-01, 7.02264309e-02,
          2.45453522e-01, 3.41679662e-01, 1.47996351e-01, 2.62739211e-02,
          7.84664229e-03, 3.56018692e-02, 5.53184271e-01, 2.72700816e-01,
          2.37636198e-03, 6.81855856e-03, 5.53184271e-01, 5.53184271e-01,
          5.59891611e-02, 1.55720944e-02, 3.64379622e-02, 5.72946668e-01,
          6.45743683e-02, 2.31720898e-02, 7.95751251e-03, 5.72946668e-01,
          5.72946668e-01, 2.21048027e-01, 4.40809935e-01, 4.40809935e-01,
          3.36433291e-01, 1.12599909e-01, 5.56009114e-02, 2.01304719e-01,
          4.40809935e-01, 4.40809935e-01, 1.45259380e-01, 4.50859547e-01,
          4.50859547e-01, 3.85690957e-01, 4.50859547e-01, 4.50859547e-01,
          5.87836206e-02, 5.09103164e-02, 8.05848464e-02, 2.90991008e-01,
          3.61928195e-01, 3.61928195e-01, 3.61928195e-01, 3.61928195e-01,
          3.22361231e-01, 3.61928195e-01, 3.61928195e-01, 1.47782072e-01,
          2.19321087e-01, 1.53729752e-01, 4.04666245e-01, 4.04666245e-01,
          4.04666245e-01, 2.71023870e-01, 1.78871572e-01, 4.04666245e-01,
          4.04666245e-01, 2.15670660e-01, 5.81773400e-01, 5.81773400e-01,
          3.02551150e-01, 1.26550823e-01, 6.46165535e-02, 8.35136473e-02,
          1.62798420e-01, 3.54331613e-01, 2.69279063e-01, 3.39870036e-01,
          3.39870036e-01, 3.39870036e-01, 3.39870036e-01, 3.39870036e-01,
          3.39870036e-01, 3.39870036e-01, 3.39870036e-01, 3.74319255e-01,
          4.19850573e-02, 1.47862837e-01, 4.19132560e-01, 4.19132560e-01,
          4.19132560e-01, 1.31954834e-01, 3.34621459e-01, 4.19132560e-01,
          2.72083193e-01, 4.57011133e-01, 4.57011133e-01, 4.57011133e-01,
          4.57011133e-01, 1.45586759e-01, 1.39804438e-01, 1.63541049e-01,
          1.35951549e-01, 3.70958030e-01, 3.70958030e-01, 3.70958030e-01,
          2.81796932e-01, 3.70958030e-01, 3.70958030e-01, 2.75610119e-01,
          1.45214856e-01, 3.63024533e-01, 4.33936179e-01, 6.44835159e-02,
          7.90613890e-02, 3.94190282e-01, 4.33936179e-01, 4.09188449e-01,
          5.88049926e-02, 3.06717247e-01, 4.33936179e-01, 2.72083193e-01,
          4.57011133e-01, 4.57011133e-01, 4.57011133e-01, 4.57011133e-01,
          1.45586759e-01, 1.39804438e-01, 1.63541049e-01, 1.35951549e-01,
          3.70958030e-01, 3.70958030e-01, 3.70958030e-01, 2.81796932e-01,
          3.70958030e-01, 3.70958030e-01, 2.75610119e-01, 1.45214856e-01,
          3.63024533e-01, 4.33936179e-01, 6.44835159e-02, 7.90613890e-02,
          3.94190282e-01, 4.33936179e-01, 4.09188449e-01, 5.88049926e-02,
          3.06717247e-01, 4.33936179e-01, 3.64783764e-01, 4.52388585e-01,
          4.52388585e-01, 4.52388585e-01, 2.11236179e-01, 7.02264309e-02,
          2.45453522e-01, 3.41679662e-01, 1.47996351e-01, 3.63905132e-01,
          3.63905132e-01, 3.63905132e-01, 3.63905132e-01, 2.50703245e-01,
          1.61679626e-01, 3.35872561e-01, 3.63905132e-01, 3.63905132e-01,
          3.94866318e-01, 3.21222514e-01, 1.82803571e-01, 3.94866318e-01,
          3.94866318e-01, 3.94866318e-01, 1.82400957e-01, 2.15840593e-01,
          3.94866318e-01, 2.21048027e-01, 4.40809935e-01, 4.40809935e-01,
          3.36433291e-01, 1.12599909e-01, 5.56009114e-02, 2.01304719e-01,
          4.40809935e-01, 4.40809935e-01, 3.94254744e-01, 3.94254744e-01,
          3.94254744e-01, 3.94254744e-01, 2.32529476e-01, 2.29001626e-01,
          2.81744331e-01, 2.61022210e-01, 3.46828610e-01, 4.01070029e-01,
          1.83676422e-01, 3.15217495e-01, 1.82944432e-01, 3.95508081e-01,
          4.01070029e-01, 4.01070029e-01, 1.71959609e-01, 4.01070029e-01 ]
      - [ 5.05915403e-01, 5.05915403e-01, 8.65035951e-02, 1.43491477e-02,
          4.65583682e-01, 5.05915403e-01, 3.16955000e-02, 6.94430259e-04,
          4.04224619e-02, 3.84784102e-01, 2.87970066e-01, 4.92940247e-02,
          1.89266969e-02, 6.10519409e-01, 6.21593952e-01, 1.82798095e-02,
          1.42035093e-02, 1.92642473e-02, 1.66986823e-01, 4.36522067e-01,
          4.36522067e-01, 4.18413192e-01, 4.36522067e-01, 4.36522067e-01,
          1.56595767e-01, 7.66020566e-02, 9.45433509e-03, 1.89238161e-01,
          2.95911252e-01, 6.27429709e-02, 1.27270576e-02, 3.34876686e-01,
          5.49713552e-01, 5.49713552e-01, 3.79355222e-01, 8.13287646e-02,
          4.68649000e-01, 4.68649000e-01, 1.62525624e-01, 1.74593970e-01,
          3.76268506e-01, 4.68649000e-01, 1.27776176e-01, 2.04774648e-01,
          2.82291323e-01, 3.20229650e-01, 5.22514045e-01, 5.22514045e-01,
          4.81910050e-01, 5.14329188e-02, 9.97042581e-02, 1.52227774e-01,
          2.06584439e-01, 1.88464269e-01, 2.52297707e-02, 8.25540423e-02,
          1.57505155e-01, 2.45229721e-01, 1.94987714e-01, 1.78166613e-01,
          6.44112945e-01, 6.44112945e-01, 4.05664854e-02, 4.34210211e-01,
          4.49654907e-01, 3.15371990e-01, 4.49654907e-01, 4.49654907e-01,
          2.49007434e-01, 4.90790196e-02, 1.09292239e-01, 1.56791955e-01,
          3.50635558e-01, 4.50332880e-01, 4.50332880e-01, 4.50332880e-01,
          4.50332880e-01, 2.07059488e-01, 5.99511676e-02, 6.83149397e-02,
          1.01107709e-01, 2.52297707e-02, 8.25540423e-02, 1.57505155e-01,
          2.45229721e-01, 1.94987714e-01, 1.78166613e-01, 6.44112945e-01,
          6.44112945e-01, 4.05664854e-02, 4.34210211e-01, 4.49654907e-01,
          3.15371990e-01, 4.49654907e-01, 4.49654907e-01, 2.49007434e-01,
          4.90790196e-02, 1.09292239e-01, 1.56791955e-01, 3.50635558e-01,
          4.50332880e-01, 4.50332880e-01, 4.50332880e-01, 4.50332880e-01,
          2.07059488e-01, 5.99511676e-02, 6.83149397e-02, 1.01107709e-01,
          7.67097399e-02, 4.18251678e-02, 3.03370822e-02, 3.35125476e-01,
          1.03988491e-01, 5.08360155e-02, 4.77009892e-01, 5.62398612e-01,
          5.62398612e-01, 3.55087638e-01, 4.68097538e-01, 2.99541056e-01,
          2.53425956e-01, 2.04029992e-01, 1.08832911e-01, 6.68502152e-02,
          4.68097538e-01, 4.68097538e-01, 4.43838865e-01, 4.83980805e-01,
          4.83980805e-01, 4.83980805e-01, 1.66712642e-01, 1.53924942e-01,
          1.58527702e-01, 7.83937871e-02, 1.12686820e-01, 1.93209220e-02,
          1.18029183e-02, 8.30669701e-02, 5.57490528e-01, 2.33565867e-01,
          8.50916933e-03, 2.76018493e-03, 5.57490528e-01, 5.57490528e-01,
          6.88380077e-02, 4.28844690e-02, 4.07428592e-02, 5.70465744e-01,
          9.63988677e-02, 6.30701846e-03, 2.09668819e-02, 5.70465744e-01,
          5.70465744e-01, 4.15165335e-01, 4.15165335e-01, 4.15165335e-01,
          3.44639271e-01, 6.43852875e-02, 3.18678394e-02, 1.00519300e-01,
          4.15165335e-01, 4.15165335e-01, 1.66986823e-01, 4.36522067e-01,
          4.36522067e-01, 4.18413192e-01, 4.36522067e-01, 4.36522067e-01,
          1.56595767e-01, 7.66020566e-02, 9.45433509e-03, 2.65837580e-01,
          3.59553188e-01, 3.59553188e-01, 3.59553188e-01, 3.59553188e-01,
          3.07249367e-01, 3.59553188e-01, 3.59553188e-01, 2.35934034e-01,
          2.13922188e-01, 2.53299534e-01, 3.69522899e-01, 3.69522899e-01,
          3.69522899e-01, 3.62225384e-01, 2.69150257e-01, 3.69522899e-01,
          3.69522899e-01, 3.20229650e-01, 5.22514045e-01, 5.22514045e-01,
          4.81910050e-01, 5.14329188e-02, 9.97042581e-02, 1.52227774e-01,
          2.06584439e-01, 1.88464269e-01, 3.04218948e-01, 3.01947951e-01,
          3.40770870e-01, 3.40770870e-01, 3.40770870e-01, 3.40770870e-01,
          3.40770870e-01, 3.40770870e-01, 3.40770870e-01, 3.26005012e-01,
          7.86933675e-02, 1.20771967e-01, 3.96012127e-01, 3.96012127e-01,
          3.96012127e-01, 3.14693034e-01, 3.77692789e-01, 3.96012127e-01,
          3.50635558e-01, 4.50332880e-01, 4.50332880e-01, 4.50332880e-01,
          4.50332880e-01, 2.07059488e-01, 5.99511676e-02, 6.83149397e-02,
          1.01107709e-01, 3.79853427e-01, 3.79853427e-01, 3.29386294e-01,
          2.76131660e-01, 3.79853427e-01, 3.79853427e-01, 2.53011942e-01,
          1.61254466e-01, 3.79853427e-01, 4.13351864e-01, 8.01311433e-02,
          1.35740504e-01, 4.13351864e-01, 4.13351864e-01, 3.06490928e-01,
          1.50959417e-01, 4.13351864e-01, 4.13351864e-01, 3.50635558e-01,
          4.50332880e-01, 4.50332880e-01, 4.50332880e-01, 4.50332880e-01,
          2.07059488e-01, 5.99511676e-02, 6.83149397e-02, 1.01107709e-01,
          3.79853427e-01, 3.79853427e-01, 3.29386294e-01, 2.76131660e-01,
          3.79853427e-01, 3.79853427e-01, 2.53011942e-01, 1.61254466e-01,
          3.79853427e-01, 4.13351864e-01, 8.01311433e-02, 1.35740504e-01,
          4.13351864e-01, 4.13351864e-01, 3.06490928e-01, 1.50959417e-01,
          4.13351864e-01, 4.13351864e-01, 4.43838865e-01, 4.83980805e-01,
          4.83980805e-01, 4.83980805e-01, 1.66712642e-01, 1.53924942e-01,
          1.58527702e-01, 7.83937871e-02, 1.12686820e-01, 3.47054839e-01,
          3.33293289e-01, 3.47054839e-01, 3.47054839e-01, 3.47054839e-01,
          2.15732604e-01, 3.40918213e-01, 3.47054839e-01, 3.47054839e-01,
          3.57992589e-01, 3.57992589e-01, 3.09844255e-01, 3.57992589e-01,
          3.57992589e-01, 3.57992589e-01, 2.61966497e-01, 2.50681579e-01,
          3.57992589e-01, 4.15165335e-01, 4.15165335e-01, 4.15165335e-01,
          3.44639271e-01, 6.43852875e-02, 3.18678394e-02, 1.00519300e-01,
          4.15165335e-01, 4.15165335e-01, 3.77869815e-01, 3.77869815e-01,
          3.77869815e-01, 3.77869815e-01, 2.06847966e-01, 3.67414266e-01,
          2.53425956e-01, 2.00730875e-01, 3.77869815e-01, 4.29657370e-01,
          8.69814381e-02, 1.89753294e-01, 1.13702029e-01, 4.24501121e-01,
          4.29657370e-01, 4.29657370e-01, 1.43473879e-01, 4.29657370e-01 ]
      - [ 4.95589107e-01, 4.95589107e-01, 5.15071303e-02, 1.13864038e-02,
          3.16608310e-01, 4.95589107e-01, 3.89686346e-01, 4.92256507e-02,
          3.03738937e-02, 2.07343549e-01, 4.85212326e-01, 4.85212326e-01,
          4.15389836e-02, 4.85212326e-01, 4.85212326e-01, 8.41410831e-02,
          3.93625125e-02, 9.14988574e-03, 3.10676008e-01, 6.11736655e-01,
          6.11736655e-01, 2.53168140e-02, 1.04624428e-01, 7.09516183e-02,
          2.33534742e-02, 2.02484094e-02, 3.62425596e-01, 4.57158715e-01,
          4.32699233e-01, 1.15127243e-01, 1.11915708e-01, 3.80307794e-01,
          4.57158715e-01, 4.57158715e-01, 5.68995029e-02, 8.70157629e-02,
          1.84207987e-02, 7.01557577e-01, 7.01557577e-01, 8.69328529e-02,
          1.01090698e-02, 1.65669061e-02, 1.36532038e-02, 3.28711374e-03,
          1.26564372e-02, 2.21033301e-03, 6.85387969e-01, 6.85387969e-01,
          1.33878859e-02, 2.91815773e-02, 1.50316441e-02, 2.10102692e-01,
          9.02561843e-02, 9.67064593e-03, 2.17722058e-01, 1.42128691e-01,
          3.59730184e-01, 1.92419946e-01, 2.06222504e-01, 2.33471245e-01,
          5.71883142e-01, 5.71883142e-01, 9.54856947e-02, 6.09245384e-03,
          7.03149915e-01, 7.03149915e-01, 6.01319112e-02, 1.98280886e-02,
          1.70645898e-03, 8.40726867e-03, 2.36403476e-03, 3.99993779e-03,
          3.01188184e-03, 5.87999344e-01, 5.87999344e-01, 2.10062545e-02,
          2.92173377e-03, 7.33736381e-02, 5.32338679e-01, 1.15696996e-01,
          5.42770280e-03, 2.17722058e-01, 1.42128691e-01, 3.59730184e-01,
          1.92419946e-01, 2.06222504e-01, 2.33471245e-01, 5.71883142e-01,
          5.71883142e-01, 9.54856947e-02, 6.09245384e-03, 7.03149915e-01,
          7.03149915e-01, 6.01319112e-02, 1.98280886e-02, 1.70645898e-03,
          8.40726867e-03, 2.36403476e-03, 3.99993779e-03, 3.01188184e-03,
          5.87999344e-01, 5.87999344e-01, 2.10062545e-02, 2.92173377e-03,
          7.33736381e-02, 5.32338679e-01, 1.15696996e-01, 5.42770280e-03,
          2.35117927e-01, 7.73904100e-02, 1.33553833e-01, 4.06320602e-01,
          3.94396514e-01, 5.41878529e-02, 4.44549143e-01, 4.44549143e-01,
          4.44549143e-01, 5.80784585e-03, 7.01654017e-01, 7.01654017e-01,
          8.50742236e-02, 2.56346837e-02, 4.80574137e-03, 1.73599087e-02,
          9.28542111e-03, 4.44825692e-03, 5.52849611e-03, 5.45412362e-01,
          5.45412362e-01, 4.02435921e-02, 9.13736504e-03, 1.25243381e-01,
          5.45412362e-01, 2.91049540e-01, 3.05054506e-04, 1.26433730e-01,
          9.82264131e-02, 3.27680558e-01, 5.14962077e-01, 2.21640170e-01,
          6.15307391e-02, 1.15673594e-01, 5.14962077e-01, 5.14962077e-01,
          7.93282986e-02, 6.45251632e-01, 6.45251632e-01, 1.56895250e-01,
          5.96193187e-02, 5.49240038e-03, 1.81159209e-02, 1.81599781e-01,
          3.05054545e-01, 1.03505366e-02, 4.70825046e-01, 4.70825046e-01,
          1.34672940e-01, 3.24088603e-01, 3.50336581e-01, 4.70825046e-01,
          2.90253133e-01, 2.96285935e-03, 3.10676008e-01, 6.11736655e-01,
          6.11736655e-01, 2.53168140e-02, 1.04624428e-01, 7.09516183e-02,
          2.33534742e-02, 2.02484094e-02, 3.62425596e-01, 1.69527695e-01,
          2.59563196e-02, 1.31153032e-01, 1.65851474e-01, 9.16758329e-02,
          1.84911445e-01, 5.78983843e-01, 5.78983843e-01, 4.55034167e-01,
          2.49944441e-03, 1.61922276e-02, 2.87558258e-01, 4.54813063e-01,
          2.84174323e-01, 6.57582507e-02, 4.54813063e-01, 4.54813063e-01,
          4.54813063e-01, 2.21033301e-03, 6.85387969e-01, 6.85387969e-01,
          1.33878859e-02, 2.91815773e-02, 1.50316441e-02, 2.10102692e-01,
          9.02561843e-02, 9.67064593e-03, 2.38764868e-03, 6.76821638e-03,
          1.55799631e-02, 1.10929273e-03, 9.09680407e-03, 4.67167646e-01,
          6.98393106e-01, 5.35391152e-01, 2.80995527e-03, 3.09047587e-02,
          9.68865603e-02, 4.55409676e-01, 4.79341507e-01, 2.29226917e-01,
          3.62436771e-01, 4.79341507e-01, 3.58349800e-01, 7.49387294e-02,
          3.01188184e-03, 5.87999344e-01, 5.87999344e-01, 2.10062545e-02,
          2.92173377e-03, 7.33736381e-02, 5.32338679e-01, 1.15696996e-01,
          5.42770280e-03, 1.32327096e-03, 1.07435975e-02, 3.09970379e-02,
          4.83485591e-03, 9.56422370e-03, 2.95711219e-01, 7.10143745e-01,
          6.32427275e-01, 2.21701455e-03, 5.38500883e-02, 3.12607698e-02,
          1.75657138e-01, 2.54669160e-01, 5.12585282e-01, 4.48391110e-01,
          5.48897862e-01, 3.56068730e-01, 5.52980341e-02, 3.01188184e-03,
          5.87999344e-01, 5.87999344e-01, 2.10062545e-02, 2.92173377e-03,
          7.33736381e-02, 5.32338679e-01, 1.15696996e-01, 5.42770280e-03,
          1.32327096e-03, 1.07435975e-02, 3.09970379e-02, 4.83485591e-03,
          9.56422370e-03, 2.95711219e-01, 7.10143745e-01, 6.32427275e-01,
          2.21701455e-03, 5.38500883e-02, 3.12607698e-02, 1.75657138e-01,
          2.54669160e-01, 5.12585282e-01, 4.48391110e-01, 5.48897862e-01,
          3.56068730e-01, 5.52980341e-02, 5.52849611e-03, 5.45412362e-01,
          5.45412362e-01, 4.02435921e-02, 9.13736504e-03, 1.25243381e-01,
          5.45412362e-01, 2.91049540e-01, 3.05054506e-04, 2.06087250e-03,
          1.18709658e-03, 6.10915944e-03, 5.98226162e-03, 5.36177261e-03,
          4.16197687e-01, 6.69596612e-01, 6.09600902e-01, 3.79814510e-03,
          1.96882889e-01, 5.02493322e-01, 1.51577532e-01, 1.85671210e-01,
          2.89478451e-01, 5.02493322e-01, 5.02493322e-01, 2.31032684e-01,
          6.40039369e-02, 1.03505366e-02, 4.70825046e-01, 4.70825046e-01,
          1.34672940e-01, 3.24088603e-01, 3.50336581e-01, 4.70825046e-01,
          2.90253133e-01, 2.96285935e-03, 9.57951769e-02, 2.48156413e-02,
          6.33541355e-03, 3.57388845e-03, 3.30654606e-02, 4.91700172e-01,
          6.30651653e-01, 5.84792554e-01, 3.59434076e-02, 5.53352594e-01,
          5.53352594e-01, 7.40463212e-02, 3.72200331e-04, 5.11784777e-02,
          5.53352594e-01, 2.53522187e-01, 4.56999242e-02, 3.75870205e-02 ]
      - [ 5.31880140e-01, 5.31880140e-01, 2.62313820e-02, 8.72452836e-03,
          1.56609982e-01, 5.31880140e-01, 3.33486676e-01, 2.60526258e-02,
          9.38929394e-02, 2.83096999e-01, 4.74563926e-01, 4.74563926e-01,
          9.99897793e-02, 4.74563926e-01, 4.74563926e-01, 3.26275416e-02,
          2.80018104e-03, 5.65866418e-02, 4.30045605e-01, 4.30045605e-01,
          4.30045605e-01, 1.40363187e-01, 3.15961242e-01, 1.31502301e-01,
          2.50482291e-01, 2.37443730e-01, 4.30045605e-01, 1.60972133e-01,
          3.86800557e-01, 7.90608823e-02, 7.25033060e-02, 9.92544964e-02,
          6.30270898e-01, 6.30270898e-01, 2.60463003e-02, 4.07482944e-02,
          5.27735539e-02, 5.71662903e-01, 6.97232783e-01, 1.63589701e-01,
          1.41292378e-01, 3.14771891e-01, 1.65164307e-01, 5.36137074e-02,
          3.69152017e-02, 7.09089451e-03, 6.54100955e-01, 6.54100955e-01,
          5.09519987e-02, 1.62829589e-02, 1.09545635e-02, 3.34025860e-01,
          1.52190939e-01, 2.59786635e-03, 2.52948273e-02, 1.19685568e-01,
          4.34900522e-01, 2.27680713e-01, 1.34113804e-01, 1.88111588e-01,
          5.84983826e-01, 5.84983826e-01, 2.08020099e-02, 1.25534255e-02,
          5.19768298e-01, 7.07128227e-01, 2.22561713e-02, 2.08170917e-02,
          2.71293074e-02, 4.24027443e-01, 2.02805072e-01, 6.33822929e-04,
          1.19588873e-03, 5.92214882e-01, 7.70867765e-01, 2.19556736e-03,
          4.02199861e-04, 4.23525320e-03, 1.84494570e-01, 1.15225889e-01,
          3.32635781e-03, 2.52948273e-02, 1.19685568e-01, 4.34900522e-01,
          2.27680713e-01, 1.34113804e-01, 1.88111588e-01, 5.84983826e-01,
          5.84983826e-01, 2.08020099e-02, 1.25534255e-02, 5.19768298e-01,
          7.07128227e-01, 2.22561713e-02, 2.08170917e-02, 2.71293074e-02,
          4.24027443e-01, 2.02805072e-01, 6.33822929e-04, 1.19588873e-03,
          5.92214882e-01, 7.70867765e-01, 2.19556736e-03, 4.02199861e-04,
          4.23525320e-03, 1.84494570e-01, 1.15225889e-01, 3.32635781e-03,
          3.50950174e-02, 1.97264001e-01, 3.25080067e-01, 1.38956040e-01,
          1.39896855e-01, 2.10534688e-02, 5.71752965e-01, 5.71752965e-01,
          3.94135475e-01, 4.51337919e-02, 5.24593472e-01, 5.74401319e-01,
          3.75292525e-02, 3.24258544e-02, 1.73182711e-01, 5.74401319e-01,
          1.50292560e-01, 4.59906645e-02, 1.00764642e-02, 6.39281571e-01,
          7.56598353e-01, 4.52911388e-03, 0., 1.01930508e-02,
          1.00807846e-01, 2.96598319e-02, 7.65380869e-03, 3.80913951e-02,
          8.80081579e-02, 2.02981040e-01, 4.89659756e-01, 4.64302838e-01,
          8.45638141e-02, 5.18025383e-02, 4.89659756e-01, 4.89659756e-01,
          1.20077632e-01, 2.97611326e-01, 5.03762722e-01, 2.07329139e-01,
          4.68689501e-02, 1.72997847e-01, 2.35662445e-01, 5.03762722e-01,
          5.03762722e-01, 9.14129615e-02, 6.19970977e-01, 6.86423540e-01,
          2.09849179e-01, 2.16708407e-01, 3.17480676e-02, 3.76718529e-02,
          2.88506467e-02, 1.87059417e-01, 4.30045605e-01, 4.30045605e-01,
          4.30045605e-01, 1.40363187e-01, 3.15961242e-01, 1.31502301e-01,
          2.50482291e-01, 2.37443730e-01, 4.30045605e-01, 1.00969963e-01,
          6.24670945e-02, 1.24142438e-01, 3.92482132e-01, 5.00961542e-01,
          1.27743140e-01, 5.00961542e-01, 5.00961542e-01, 2.05524310e-01,
          3.40285078e-02, 6.59237355e-02, 2.64664710e-01, 5.84615111e-01,
          5.31612754e-01, 4.29391339e-02, 2.21495792e-01, 4.00080979e-01,
          2.88539916e-01, 7.09089451e-03, 6.54100955e-01, 6.54100955e-01,
          5.09519987e-02, 1.62829589e-02, 1.09545635e-02, 3.34025860e-01,
          1.52190939e-01, 2.59786635e-03, 7.87359197e-03, 8.12464654e-02,
          1.23820707e-01, 2.64386721e-02, 1.54899620e-02, 5.52285276e-03,
          6.96443975e-01, 6.96443975e-01, 3.92941525e-03, 8.16971138e-02,
          1.81252301e-01, 4.46885169e-01, 4.46885169e-01, 3.43005925e-01,
          1.21946573e-01, 4.46885169e-01, 4.46885169e-01, 1.57034576e-01,
