%YAML:1.0
---
opencv_ml_svm:
   format: 3
   svmType: C_SVC
   kernel:
      type: RBF
      gamma: 5.0624999999999998e-01
   C: 1.2500000000000000e+01
   term_criteria: { epsilon:1.1920928955078125e-07, iterations:1000 }
   var_count: 324
   class_count: 4
   class_labels: !!opencv-matrix
      rows: 4
      cols: 1
      dt: i
      data: [ 0, 1, 2, 3 ]
   sv_total: 241
   support_vectors:
      - [ 2.27261856e-01, 1.79086085e-02, 1.68141440e-01, 2.14408293e-01,
          1.49586767e-01, 2.47325865e-03, 5.31069040e-01, 5.31069040e-01,
          5.31069040e-01, 2.14949757e-01, 4.70097780e-01, 4.70097780e-01,
          4.70097780e-01, 8.42831656e-02, 1.45899756e-02, 1.51916578e-01,
          4.36066508e-01, 2.56078660e-01, 1.28007457e-01, 3.99901837e-01,
          3.99901837e-01, 3.99901837e-01, 1.34818137e-01, 4.37511839e-02,
          3.99901837e-01, 3.99901837e-01, 3.99901837e-01, 4.36536446e-02,
          4.73136036e-03, 1.19923383e-01, 4.45518374e-01, 1.97926313e-01,
          6.69018328e-02, 3.24976087e-01, 5.61398983e-01, 5.61398983e-01,
          8.83201882e-02, 3.90288830e-02, 3.72693092e-01, 5.07659614e-01,
          1.12071976e-01, 7.05125481e-02, 2.36683756e-01, 5.07659614e-01,
          5.07659614e-01, 3.12730893e-02, 5.62231382e-03, 2.26407424e-01,
          6.59414470e-01, 6.59414470e-01, 1.76335752e-01, 1.13616101e-01,
          1.23479776e-01, 1.10643342e-01, 1.82969511e-01, 1.14801206e-01,
          9.92912576e-02, 5.55136561e-01, 5.80287054e-02, 3.35891098e-02,
          9.44198743e-02, 5.55136561e-01, 5.55136561e-01, 3.91806960e-02,
          6.60052374e-02, 1.61265001e-01, 2.85986006e-01, 3.69303189e-02,
          4.14952151e-02, 3.79867703e-02, 6.61506176e-01, 6.61506176e-01,
          2.82684445e-01, 6.16097264e-02, 6.64567873e-02, 1.35760099e-01,
          2.58029819e-01, 9.37706083e-02, 1.28656581e-01, 6.30565584e-01,
          6.30565584e-01, 1.82969511e-01, 1.14801206e-01, 9.92912576e-02,
          5.55136561e-01, 5.80287054e-02, 3.35891098e-02, 9.44198743e-02,
          5.55136561e-01, 5.55136561e-01, 3.91806960e-02, 6.60052374e-02,
          1.61265001e-01, 2.85986006e-01, 3.69303189e-02, 4.14952151e-02,
          3.79867703e-02, 6.61506176e-01, 6.61506176e-01, 2.82684445e-01,
          6.16097264e-02, 6.64567873e-02, 1.35760099e-01, 2.58029819e-01,
          9.37706083e-02, 1.28656581e-01, 6.30565584e-01, 6.30565584e-01,
          3.71370882e-01, 4.33334082e-01, 4.33334082e-01, 3.22663426e-01,
          3.86408791e-02, 1.26361847e-02, 2.96125375e-02, 4.33334082e-01,
          4.33334082e-01, 2.81878591e-01, 1.41476423e-01, 1.73446164e-01,
          1.34392902e-01, 1.09900944e-01, 8.87462944e-02, 2.25475803e-01,
          6.22645020e-01, 6.22645020e-01, 4.35456306e-01, 2.12464750e-01,
          1.82186112e-01, 1.30667776e-01, 1.82250500e-01, 5.01650013e-02,
          3.74233723e-01, 5.16733706e-01, 5.16733706e-01, 4.89197910e-01,
          5.89909494e-01, 5.89909494e-01, 1.40218839e-01, 1.17830947e-01,
          6.81946333e-03, 2.87453625e-02, 8.90356377e-02, 1.28308341e-01,
          1.48438841e-01, 1.31719574e-01, 4.02210206e-02, 2.59648152e-02,
          1.41969830e-01, 1.23708196e-01, 5.97334862e-01, 5.97334862e-01,
          4.50868607e-01, 1.84468895e-01, 2.25686766e-02, 5.23093389e-03,
          0., 8.33857898e-03, 1.34771898e-01, 5.60240090e-01,
          5.60240090e-01, 5.60240090e-01, 1.28007457e-01, 3.99901837e-01,
          3.99901837e-01, 3.99901837e-01, 1.34818137e-01, 4.37511839e-02,
          3.99901837e-01, 3.99901837e-01, 3.99901837e-01, 5.45004547e-01,
          1.00282312e-03, 1.00644026e-03, 7.28449970e-03, 6.93370327e-02,
          2.49068830e-02, 3.13024640e-01, 5.45004547e-01, 5.45004547e-01,
          6.63970411e-01, 1.46288481e-02, 6.80913171e-03, 0.,
          1.52662955e-02, 2.88027916e-02, 3.56223583e-02, 3.30251426e-01,
          6.63970411e-01, 3.12730893e-02, 5.62231382e-03, 2.26407424e-01,
          6.59414470e-01, 6.59414470e-01, 1.76335752e-01, 1.13616101e-01,
          1.23479776e-01, 1.10643342e-01, 1.23733506e-01, 1.37750249e-04,
          8.11973214e-03, 5.87699592e-01, 5.87699592e-01, 2.87366509e-01,
          7.76909888e-02, 9.20581445e-02, 4.36903030e-01, 3.72859299e-01,
          1.20848184e-02, 3.72655094e-02, 5.26133478e-01, 5.26133478e-01,
          1.08146831e-01, 1.49062006e-02, 1.08717658e-01, 5.26133478e-01,
          2.82684445e-01, 6.16097264e-02, 6.64567873e-02, 1.35760099e-01,
          2.58029819e-01, 9.37706083e-02, 1.28656581e-01, 6.30565584e-01,
          6.30565584e-01, 4.86990541e-01, 4.12105545e-02, 2.10833587e-02,
          3.11056077e-01, 4.86990541e-01, 2.00965464e-01, 1.40575498e-01,
          3.53000551e-01, 4.86990541e-01, 4.40178454e-01, 4.40178454e-01,
          2.07943961e-01, 4.40178454e-01, 4.40178454e-01, 1.40783086e-01,
          8.83203223e-02, 9.46574658e-02, 3.75171542e-01, 2.82684445e-01,
          6.16097264e-02, 6.64567873e-02, 1.35760099e-01, 2.58029819e-01,
          9.37706083e-02, 1.28656581e-01, 6.30565584e-01, 6.30565584e-01,
          4.86990541e-01, 4.12105545e-02, 2.10833587e-02, 3.11056077e-01,
          4.86990541e-01, 2.00965464e-01, 1.40575498e-01, 3.53000551e-01,
          4.86990541e-01, 4.40178454e-01, 4.40178454e-01, 2.07943961e-01,
          4.40178454e-01, 4.40178454e-01, 1.40783086e-01, 8.83203223e-02,
          9.46574658e-02, 3.75171542e-01, 4.35456306e-01, 2.12464750e-01,
          1.82186112e-01, 1.30667776e-01, 1.82250500e-01, 5.01650013e-02,
          3.74233723e-01, 5.16733706e-01, 5.16733706e-01, 5.75052559e-01,
          3.23669195e-01, 1.07994787e-01, 2.70622969e-02, 4.76895161e-02,
          3.30401212e-02, 7.71895126e-02, 4.54318911e-01, 5.75052559e-01,
          5.08579433e-01, 5.08579433e-01, 1.09758757e-01, 1.21385835e-01,
          1.11110158e-01, 2.58003864e-02, 1.99936435e-01, 3.73087406e-01,
          5.08579433e-01, 1.84468895e-01, 2.25686766e-02, 5.23093389e-03,
          0., 8.33857898e-03, 1.34771898e-01, 5.60240090e-01,
          5.60240090e-01, 5.60240090e-01, 3.45116764e-01, 1.20413966e-01,
          4.04612795e-02, 0., 0., 1.88366950e-01, 5.24099708e-01,
          5.24099708e-01, 5.24099708e-01, 4.78094310e-01, 1.88560531e-01,
          1.19665667e-01, 2.14048699e-02, 8.46662149e-02, 1.75833911e-01,
          4.70194787e-01, 4.78094310e-01, 4.78094310e-01 ]
      - [ 2.58911848e-01, 3.01711261e-01, 7.61513785e-02, 0.,
          4.36871275e-02, 6.26600504e-01, 6.26600504e-01, 1.91140413e-01,
          7.86135867e-02, 5.25472760e-01, 5.25472760e-01, 9.09265056e-02,
          0., 3.15539800e-02, 1.58845887e-01, 2.75505543e-01,
          2.36619502e-01, 5.25472760e-01, 6.90625608e-01, 1.21825561e-01,
          7.37076160e-03, 8.12276267e-03, 6.44449238e-03, 6.43183738e-02,
          3.78571339e-02, 1.36399806e-01, 6.90625608e-01, 4.12623614e-01,
          4.35399354e-01, 4.35399354e-01, 1.21734440e-02, 1.31425470e-01,
          4.35399354e-01, 4.35399354e-01, 2.04459488e-01, 8.87561515e-02,
          5.05980790e-01, 5.05980790e-01, 5.05980790e-01, 5.16855041e-04,
          1.13412380e-01, 1.46337777e-01, 3.58279407e-01, 1.58860981e-01,
          1.97531119e-01, 4.64160889e-01, 3.23010497e-02, 0.,
          1.07855260e-01, 4.64160889e-01, 3.82471889e-01, 4.09631282e-01,
          1.49228469e-01, 4.64160889e-01, 4.42282766e-01, 4.42282766e-01,
          4.42282766e-01, 1.86327100e-01, 1.42153846e-02, 5.18349074e-02,
          2.75890499e-01, 3.15282971e-01, 4.42282766e-01, 2.29425088e-01,
          4.63463873e-01, 4.63463873e-01, 1.37939407e-02, 2.70651579e-02,
          4.82876375e-02, 4.63463873e-01, 4.63463873e-01, 2.83346742e-01,
          1.40626565e-01, 2.34629097e-03, 2.13285163e-03, 5.31074181e-02,
          4.75295454e-01, 2.62722760e-01, 4.75295454e-01, 4.75295454e-01,
          4.75295454e-01, 4.42282766e-01, 4.42282766e-01, 4.42282766e-01,
          1.86327100e-01, 1.42153846e-02, 5.18349074e-02, 2.75890499e-01,
          3.15282971e-01, 4.42282766e-01, 2.29425088e-01, 4.63463873e-01,
          4.63463873e-01, 1.37939407e-02, 2.70651579e-02, 4.82876375e-02,
          4.63463873e-01, 4.63463873e-01, 2.83346742e-01, 1.40626565e-01,
          2.34629097e-03, 2.13285163e-03, 5.31074181e-02, 4.75295454e-01,
          2.62722760e-01, 4.75295454e-01, 4.75295454e-01, 4.75295454e-01,
          2.22452059e-01, 3.57681066e-01, 4.36416000e-01, 4.36416000e-01,
          3.52811664e-02, 1.25421560e-03, 2.34814301e-01, 4.36416000e-01,
          4.36416000e-01, 3.36214423e-01, 2.84440011e-01, 3.85337889e-01,
          3.85337889e-01, 4.29626415e-03, 2.44457036e-01, 3.85337889e-01,
          3.85337889e-01, 3.85337889e-01, 3.82015526e-01, 4.61087748e-02,
          2.59210598e-02, 1.03315440e-04, 1.75639130e-02, 4.67069864e-01,
          4.67069864e-01, 4.37983662e-01, 4.67069864e-01, 7.39188865e-02,
          7.79912993e-02, 4.42033410e-01, 5.07988274e-01, 7.47001246e-02,
          3.39190140e-02, 8.42577070e-02, 5.07988274e-01, 5.07988274e-01,
          2.12565474e-02, 5.77987432e-02, 4.28529650e-01, 4.28529650e-01,
          2.11533323e-01, 4.28529650e-01, 4.28529650e-01, 3.41330856e-01,
          3.10036957e-01, 3.86443883e-02, 1.52748805e-02, 4.62413691e-02,
          1.78677309e-02, 6.62898943e-02, 6.70302987e-01, 6.70302987e-01,
          2.59682328e-01, 1.36683941e-01, 6.90625608e-01, 1.21825561e-01,
          7.37076160e-03, 8.12276267e-03, 6.44449238e-03, 6.43183738e-02,
          3.78571339e-02, 1.36399806e-01, 6.90625608e-01, 6.45703614e-01,
          3.16868514e-01, 1.53492913e-01, 1.29110187e-01, 2.43519824e-02,
          2.70878021e-02, 1.48348100e-02, 1.32307455e-01, 6.45703614e-01,
          4.34372425e-01, 4.34372425e-01, 4.34372425e-01, 4.34372425e-01,
          1.52502647e-02, 1.66216761e-01, 5.66598289e-02, 1.45578131e-01,
          4.34372425e-01, 4.64160889e-01, 3.23010497e-02, 0.,
          1.07855260e-01, 4.64160889e-01, 3.82471889e-01, 4.09631282e-01,
          1.49228469e-01, 4.64160889e-01, 5.04675806e-01, 2.87716612e-02,
          3.42059657e-02, 4.77843463e-01, 5.04675806e-01, 9.29225981e-03,
          1.67984702e-02, 1.28779337e-02, 5.04675806e-01, 4.25563425e-01,
          9.61733460e-02, 9.38330367e-02, 4.25563425e-01, 4.25563425e-01,
          2.13212758e-01, 4.25563425e-01, 1.63444668e-01, 4.25563425e-01,
          1.40626565e-01, 2.34629097e-03, 2.13285163e-03, 5.31074181e-02,
          4.75295454e-01, 2.62722760e-01, 4.75295454e-01, 4.75295454e-01,
          4.75295454e-01, 1.57777578e-01, 1.44968256e-01, 1.64870739e-01,
          6.54770792e-01, 6.54770792e-01, 1.19771607e-01, 1.56074360e-01,
          1.02767296e-01, 1.16859242e-01, 2.03403160e-02, 7.62368515e-02,
          1.68215066e-01, 6.40145719e-01, 6.40145719e-01, 2.98520505e-01,
          2.24432647e-01, 5.41662890e-03, 0., 1.40626565e-01,
          2.34629097e-03, 2.13285163e-03, 5.31074181e-02, 4.75295454e-01,
          2.62722760e-01, 4.75295454e-01, 4.75295454e-01, 4.75295454e-01,
          1.57777578e-01, 1.44968256e-01, 1.64870739e-01, 6.54770792e-01,
          6.54770792e-01, 1.19771607e-01, 1.56074360e-01, 1.02767296e-01,
          1.16859242e-01, 2.03403160e-02, 7.62368515e-02, 1.68215066e-01,
          6.40145719e-01, 6.40145719e-01, 2.98520505e-01, 2.24432647e-01,
          5.41662890e-03, 0., 3.82015526e-01, 4.61087748e-02,
          2.59210598e-02, 1.03315440e-04, 1.75639130e-02, 4.67069864e-01,
          4.67069864e-01, 4.37983662e-01, 4.67069864e-01, 4.42856401e-01,
          4.42856401e-01, 2.52791196e-01, 7.05894604e-02, 1.39264435e-01,
          4.42856401e-01, 4.42856401e-01, 2.58360267e-01, 2.36766353e-01,
          5.09836555e-01, 5.09836555e-01, 5.09836555e-01, 2.17584327e-01,
          8.04272965e-02, 3.02282125e-01, 2.60939002e-01, 3.49398442e-02,
          2.47462653e-02, 3.86443883e-02, 1.52748805e-02, 4.62413691e-02,
          1.78677309e-02, 6.62898943e-02, 6.70302987e-01, 6.70302987e-01,
          2.59682328e-01, 1.36683941e-01, 4.71826941e-01, 4.71826941e-01,
          2.88241923e-01, 5.43804131e-02, 3.21394622e-01, 4.71826941e-01,
          2.57650137e-01, 1.63020745e-01, 2.12440327e-01, 5.77402532e-01,
          5.77402532e-01, 1.55319229e-01, 7.01119937e-03, 1.24289371e-01,
          5.25529385e-01, 1.06477872e-01, 1.67716164e-02, 5.10464376e-03 ]
      - [ 3.05959255e-01, 3.60887676e-01, 9.11871865e-02, 1.01157576e-01,
          3.62727642e-01, 6.87896192e-01, 3.80670547e-01, 1.05601978e-02,
          3.06598600e-02, 4.80147213e-01, 4.80147213e-01, 2.48768806e-01,
          1.21347167e-01, 4.03121322e-01, 2.47982308e-01, 5.11973388e-02,
          1.86013561e-02, 4.80147213e-01, 5.81743300e-01, 4.83610302e-01,
          1.10383496e-01, 8.09056237e-02, 1.78080648e-01, 1.09534621e-01,
          1.07303448e-01, 9.75030735e-02, 5.81743300e-01, 4.80342716e-01,
          4.80342716e-01, 4.80342716e-01, 7.48641323e-03, 1.12470001e-01,
          4.80342716e-01, 2.43748724e-01, 8.53232946e-03, 9.69906617e-03,
          5.26423216e-01, 5.26423216e-01, 5.26423216e-01, 2.63211187e-02,
          1.48147941e-01, 8.52225423e-02, 1.68819636e-01, 8.73333868e-03,
          3.23880464e-01, 5.48524261e-01, 1.12299532e-01, 6.67754095e-03,
          1.60443395e-01, 5.48524261e-01, 1.69035226e-01, 1.53182551e-01,
          3.80793922e-02, 5.48524261e-01, 4.91936445e-01, 4.91936445e-01,
          4.91936445e-01, 7.96633139e-02, 2.20641661e-02, 6.16403408e-02,
          1.38119655e-02, 1.27504975e-01, 4.91936445e-01, 1.26677766e-01,
          5.17103553e-01, 5.17103553e-01, 1.28369164e-02, 1.18763387e-01,
          2.13874727e-01, 5.17103553e-01, 3.01730305e-01, 1.59834594e-01,
          2.11404562e-01, 5.95283993e-02, 1.19784884e-02, 1.42078057e-01,
          4.93324339e-01, 3.94681245e-01, 4.93324339e-01, 3.60147327e-01,
          3.92798364e-01, 4.91936445e-01, 4.91936445e-01, 4.91936445e-01,
          7.96633139e-02, 2.20641661e-02, 6.16403408e-02, 1.38119655e-02,
          1.27504975e-01, 4.91936445e-01, 1.26677766e-01, 5.17103553e-01,
          5.17103553e-01, 1.28369164e-02, 1.18763387e-01, 2.13874727e-01,
          5.17103553e-01, 3.01730305e-01, 1.59834594e-01, 2.11404562e-01,
          5.95283993e-02, 1.19784884e-02, 1.42078057e-01, 4.93324339e-01,
          3.94681245e-01, 4.93324339e-01, 3.60147327e-01, 3.92798364e-01,
          4.09165114e-01, 4.44714129e-01, 4.44714129e-01, 4.44714129e-01,
          2.26792367e-03, 0., 2.08353251e-02, 1.91363156e-01,
          4.44714129e-01, 3.71565789e-01, 3.71565789e-01, 3.71565789e-01,
          2.20312431e-01, 7.44345272e-03, 3.71565789e-01, 3.71565789e-01,
          3.45438927e-01, 3.71565789e-01, 4.42239910e-01, 1.25394389e-01,
          4.07505259e-02, 1.53250864e-03, 1.77478958e-02, 4.42239910e-01,
          4.42239910e-01, 4.42239910e-01, 4.42239910e-01, 8.82593244e-02,
          2.83825874e-01, 4.73368406e-01, 4.73368406e-01, 1.01059251e-01,
          0., 2.00341921e-02, 4.73368406e-01, 4.73368406e-01,
          5.15596829e-02, 6.06996194e-02, 4.75081980e-01, 4.75081980e-01,
          2.73935944e-01, 4.75081980e-01, 4.49611783e-01, 7.59277567e-02,
          1.69842735e-01, 1.56952724e-01, 5.54463044e-02, 6.80043548e-02,
          1.21734217e-02, 1.59024000e-01, 6.65048957e-01, 6.65048957e-01,
          1.49676099e-01, 1.69137478e-01, 5.81743300e-01, 4.83610302e-01,
          1.10383496e-01, 8.09056237e-02, 1.78080648e-01, 1.09534621e-01,
          1.07303448e-01, 9.75030735e-02, 5.81743300e-01, 4.56938952e-01,
          1.20535299e-01, 1.36757836e-01, 4.56938952e-01, 4.56938952e-01,
          1.56811178e-01, 1.57920256e-01, 2.78393835e-01, 4.56938952e-01,
          3.42337817e-01, 1.07801847e-01, 3.36224407e-01, 5.25579929e-01,
          2.14542210e-01, 4.57658023e-02, 7.31145591e-02, 3.83341581e-01,
          5.25579929e-01, 5.48524261e-01, 1.12299532e-01, 6.67754095e-03,
          1.60443395e-01, 5.48524261e-01, 1.69035226e-01, 1.53182551e-01,
          3.80793922e-02, 5.48524261e-01, 5.68021119e-01, 2.19656285e-02,
          3.07394133e-04, 1.12682357e-01, 5.68021119e-01, 5.61184175e-02,
          1.38262352e-02, 9.93157327e-02, 5.68021119e-01, 4.40989971e-01,
          3.53770368e-02, 9.29674655e-02, 3.59364212e-01, 4.40989971e-01,
          1.70622870e-01, 4.34427977e-01, 2.35162884e-01, 4.40989971e-01,
          2.11404562e-01, 5.95283993e-02, 1.19784884e-02, 1.42078057e-01,
          4.93324339e-01, 3.94681245e-01, 4.93324339e-01, 3.60147327e-01,
          3.92798364e-01, 8.31315517e-02, 8.64600763e-03, 9.94686782e-03,
          4.63036656e-01, 8.27053487e-01, 2.49905124e-01, 1.12740979e-01,
          7.43216276e-02, 7.45301396e-02, 1.86218452e-02, 1.02964195e-03,
          1.09882571e-03, 5.05777061e-01, 5.05777061e-01, 5.05777061e-01,
          4.71022964e-01, 5.16350754e-02, 5.13760597e-02, 2.11404562e-01,
          5.95283993e-02, 1.19784884e-02, 1.42078057e-01, 4.93324339e-01,
          3.94681245e-01, 4.93324339e-01, 3.60147327e-01, 3.92798364e-01,
          8.31315517e-02, 8.64600763e-03, 9.94686782e-03, 4.63036656e-01,
          8.27053487e-01, 2.49905124e-01, 1.12740979e-01, 7.43216276e-02,
          7.45301396e-02, 1.86218452e-02, 1.02964195e-03, 1.09882571e-03,
          5.05777061e-01, 5.05777061e-01, 5.05777061e-01, 4.71022964e-01,
          5.16350754e-02, 5.13760597e-02, 4.42239910e-01, 1.25394389e-01,
          4.07505259e-02, 1.53250864e-03, 1.77478958e-02, 4.42239910e-01,
          4.42239910e-01, 4.42239910e-01, 4.42239910e-01, 4.53051567e-01,
          3.84421796e-01, 5.11091724e-02, 3.38636264e-02, 8.64138082e-02,
          4.53051567e-01, 4.53051567e-01, 4.24365968e-01, 2.01530725e-01,
          3.31096679e-01, 3.09114575e-01, 5.50877936e-02, 4.81150076e-02,
          2.65647054e-01, 4.22694504e-01, 4.22694504e-01, 4.22694504e-01,
          4.22694504e-01, 1.56952724e-01, 5.54463044e-02, 6.80043548e-02,
          1.21734217e-02, 1.59024000e-01, 6.65048957e-01, 6.65048957e-01,
          1.49676099e-01, 1.69137478e-01, 4.06761616e-01, 4.06761616e-01,
          1.01579420e-01, 1.72833726e-02, 2.00968608e-01, 4.06761616e-01,
          4.06761616e-01, 3.43010396e-01, 4.06761616e-01, 5.09391904e-01,
          5.09391904e-01, 2.04243418e-02, 1.17369974e-03, 3.82679217e-02,
          5.09391904e-01, 3.16179812e-01, 1.84560373e-01, 2.83825994e-01 ]
      - [ 2.05588698e-01, 4.06870335e-01, 4.06870335e-01, 2.34042272e-01,
          1.37456656e-01, 4.06870335e-01, 4.06870335e-01, 4.06870335e-01,
          2.28650913e-01, 2.48567313e-01, 2.81607449e-01, 3.84255022e-01,
          3.84255022e-01, 2.65901208e-01, 2.14731216e-01, 3.84255022e-01,
          3.84255022e-01, 3.84255022e-01, 2.36309752e-01, 2.48329327e-01,
          3.54350477e-01, 3.54350477e-01, 3.54350477e-01, 3.54350477e-01,
          3.54350477e-01, 3.54350477e-01, 3.54350477e-01, 1.54019833e-01,
          4.50297683e-01, 4.50297683e-01, 1.04312837e-01, 1.81953087e-01,
          1.90976977e-01, 4.50297683e-01, 4.50297683e-01, 2.83280224e-01,
          3.61120433e-01, 2.32132703e-01, 3.61120433e-01, 3.61120433e-01,
          3.61120433e-01, 3.61120433e-01, 2.67339796e-01, 2.97637463e-01,
          3.61120433e-01, 1.25166073e-01, 1.63260680e-02, 1.96298882e-02,
          1.78302616e-01, 4.48455960e-01, 3.78099531e-01, 4.48455960e-01,
          4.48455960e-01, 4.48455960e-01, 2.79616177e-01, 4.12651628e-01,
          4.12651628e-01, 3.63819420e-01, 8.22089463e-02, 1.46268025e-01,
          4.12651628e-01, 4.12651628e-01, 2.75771379e-01, 3.61583292e-01,
          2.33404592e-01, 3.57828438e-01, 3.61583292e-01, 3.61583292e-01,
          3.61583292e-01, 1.71504408e-01, 3.61583292e-01, 3.61583292e-01,
          2.88800448e-01, 1.10687070e-01, 4.00437675e-02, 3.88620436e-01,
          3.79114270e-01, 3.88620436e-01, 3.88620436e-01, 3.88620436e-01,
          3.88620436e-01, 2.79616177e-01, 4.12651628e-01, 4.12651628e-01,
          3.63819420e-01, 8.22089463e-02, 1.46268025e-01, 4.12651628e-01,
          4.12651628e-01, 2.75771379e-01, 3.61583292e-01, 2.33404592e-01,
          3.57828438e-01, 3.61583292e-01, 3.61583292e-01, 3.61583292e-01,
          1.71504408e-01, 3.61583292e-01, 3.61583292e-01, 2.88800448e-01,
          1.10687070e-01, 4.00437675e-02, 3.88620436e-01, 3.79114270e-01,
          3.88620436e-01, 3.88620436e-01, 3.88620436e-01, 3.88620436e-01,
          1.79917827e-01, 4.21658337e-01, 4.58468348e-01, 2.06377581e-01,
          1.56326532e-01, 8.12064260e-02, 2.84693956e-01, 4.58468348e-01,
          4.58468348e-01, 3.34336609e-01, 3.34336609e-01, 3.34336609e-01,
          3.34336609e-01, 3.34336609e-01, 3.34336609e-01, 3.20018291e-01,
          3.34336609e-01, 3.34336609e-01, 2.40059048e-01, 5.64894602e-02,
          1.88822951e-02, 2.73218900e-01, 4.14736658e-01, 4.14736658e-01,
          4.14736658e-01, 4.14736658e-01, 4.14736658e-01, 2.09110022e-01,
          2.80296449e-02, 2.68120021e-01, 4.79406625e-01, 1.31853074e-01,
          1.73633117e-02, 5.92114404e-02, 5.59903681e-01, 5.59903681e-01,
          3.91647071e-01, 1.02512576e-01, 2.46795774e-01, 3.28921407e-01,
          3.91647071e-01, 3.91647071e-01, 2.22585082e-01, 3.91647071e-01,
          3.91647071e-01, 3.98241103e-01, 3.98241103e-01, 6.28881380e-02,
          7.63514191e-02, 1.86175451e-01, 3.98241103e-01, 3.98241103e-01,
          3.98241103e-01, 3.98241103e-01, 2.36309752e-01, 2.48329327e-01,
          3.54350477e-01, 3.54350477e-01, 3.54350477e-01, 3.54350477e-01,
          3.54350477e-01, 3.54350477e-01, 3.54350477e-01, 3.06432452e-02,
          4.03144993e-02, 4.89552468e-01, 5.11829615e-01, 7.93012530e-02,
          1.44314423e-01, 4.11460400e-01, 4.53682899e-01, 2.97404766e-01,
          8.68619606e-02, 1.45266457e-02, 5.09386182e-01, 5.23856699e-01,
          3.89074273e-02, 1.17351459e-02, 1.56604052e-02, 4.49816912e-01,
          4.98878986e-01, 1.25166073e-01, 1.63260680e-02, 1.96298882e-02,
          1.78302616e-01, 4.48455960e-01, 3.78099531e-01, 4.48455960e-01,
          4.48455960e-01, 4.48455960e-01, 8.56332034e-02, 6.56710789e-02,
          3.75863850e-01, 4.18216765e-01, 2.27331266e-01, 3.22269529e-01,
          4.18216765e-01, 4.18216765e-01, 4.03298825e-01, 4.53819111e-02,
          5.25124252e-01, 5.25124252e-01, 5.25124252e-01, 6.57144189e-02,
          3.95550728e-02, 5.00713214e-02, 1.81994438e-01, 3.52019370e-01,
          2.88800448e-01, 1.10687070e-01, 4.00437675e-02, 3.88620436e-01,
          3.79114270e-01, 3.88620436e-01, 3.88620436e-01, 3.88620436e-01,
          3.88620436e-01, 2.53056854e-01, 2.38171175e-01, 4.20544773e-01,
          8.06875378e-02, 1.20320626e-01, 2.55931139e-01, 4.60375369e-01,
          4.60375369e-01, 4.32898641e-01, 7.68873543e-02, 6.53869271e-01,
          6.53869271e-01, 3.49785723e-02, 4.03846987e-03, 3.17545459e-02,
          3.55303645e-01, 5.99439293e-02, 1.97036564e-02, 2.88800448e-01,
          1.10687070e-01, 4.00437675e-02, 3.88620436e-01, 3.79114270e-01,
          3.88620436e-01, 3.88620436e-01, 3.88620436e-01, 3.88620436e-01,
          2.53056854e-01, 2.38171175e-01, 4.20544773e-01, 8.06875378e-02,
          1.20320626e-01, 2.55931139e-01, 4.60375369e-01, 4.60375369e-01,
          4.32898641e-01, 7.68873543e-02, 6.53869271e-01, 6.53869271e-01,
          3.49785723e-02, 4.03846987e-03, 3.17545459e-02, 3.55303645e-01,
          5.99439293e-02, 1.97036564e-02, 2.40059048e-01, 5.64894602e-02,
          1.88822951e-02, 2.73218900e-01, 4.14736658e-01, 4.14736658e-01,
          4.14736658e-01, 4.14736658e-01, 4.14736658e-01, 4.52588767e-01,
          4.52588767e-01, 1.85414508e-01, 3.32425395e-03, 2.80237645e-02,
          2.84794331e-01, 4.52588767e-01, 4.52588767e-01, 2.44643122e-01,
          4.46120411e-01, 4.46120411e-01, 4.46120411e-01, 2.57095019e-03,
          1.77510420e-03, 4.46120411e-01, 4.46120411e-01, 1.74268186e-02,
          1.06406333e-02, 3.98241103e-01, 3.98241103e-01, 6.28881380e-02,
          7.63514191e-02, 1.86175451e-01, 3.98241103e-01, 3.98241103e-01,
          3.98241103e-01, 3.98241103e-01, 5.00649929e-01, 5.00649929e-01,
          4.40487526e-02, 1.36375439e-03, 4.01053904e-03, 5.00649929e-01,
          4.68342990e-01, 7.07276538e-02, 1.29394054e-01, 5.35761178e-01,
          5.35761178e-01, 1.53035462e-01, 3.18138069e-03, 1.91782136e-02,
          5.35761178e-01, 3.10911328e-01, 6.75366297e-02, 9.22207162e-02 ]
      - [ 3.70750815e-01, 3.89418095e-01, 6.98992833e-02, 1.93899814e-02,
          2.69598991e-01, 5.56366086e-01, 5.56366086e-01, 2.46902872e-02,
          8.77493918e-02, 2.97318727e-01, 1.65609017e-01, 1.07667029e-01,
          1.65483337e-02, 5.33141077e-01, 5.33141077e-01, 5.33141077e-01,
          6.64761737e-02, 9.92339849e-02, 4.60856885e-01, 2.70819068e-01,
          4.11633588e-02, 2.26924196e-01, 4.60856885e-01, 4.60856885e-01,
          1.29897177e-01, 4.93471809e-02, 4.60856885e-01, 2.39394411e-01,
          2.92611003e-01, 1.74992219e-01, 1.05781490e-02, 1.74125105e-01,
          5.94994783e-01, 5.94994783e-01, 1.92331955e-01, 2.12238550e-01,
          5.08332074e-01, 5.08332074e-01, 5.08332074e-01, 2.86186505e-02,
          1.12814732e-01, 2.07101047e-01, 2.43990138e-01, 1.49826080e-01,
          2.85136253e-01, 4.81444985e-01, 3.13594460e-01, 2.80853026e-02,
          4.07455713e-02, 4.81444985e-01, 4.13515300e-01, 1.58550277e-01,
          5.38513251e-02, 4.81444985e-01, 1.51251361e-01, 2.53114253e-01,
          4.59459603e-01, 2.98728421e-02, 1.38583481e-01, 4.59459603e-01,
          4.59459603e-01, 4.59459603e-01, 2.09658489e-01, 2.03759611e-01,
          5.36736131e-01, 5.36736131e-01, 7.71910474e-02, 3.55185382e-02,
          6.93575442e-02, 5.36736131e-01, 2.65803337e-01, 7.86313787e-02,
          2.45939746e-01, 1.14891298e-01, 9.22218785e-02, 2.88649220e-02,
          4.52713639e-01, 4.52713639e-01, 4.52713639e-01, 4.52713639e-01,
          3.04392964e-01, 1.51251361e-01, 2.53114253e-01, 4.59459603e-01,
          2.98728421e-02, 1.38583481e-01, 4.59459603e-01, 4.59459603e-01,
          4.59459603e-01, 2.09658489e-01, 2.03759611e-01, 5.36736131e-01,
          5.36736131e-01, 7.71910474e-02, 3.55185382e-02, 6.93575442e-02,
          5.36736131e-01, 2.65803337e-01, 7.86313787e-02, 2.45939746e-01,
          1.14891298e-01, 9.22218785e-02, 2.88649220e-02, 4.52713639e-01,
          4.52713639e-01, 4.52713639e-01, 4.52713639e-01, 3.04392964e-01,
          3.12885940e-01, 2.97919840e-01, 4.12312955e-01, 4.08848673e-01,
          1.06279477e-01, 1.52934678e-02, 4.12312955e-01, 4.12312955e-01,
          3.47181380e-01, 4.26722139e-01, 4.26722139e-01, 4.26722139e-01,
          4.26722139e-01, 1.03714913e-02, 2.07454283e-02, 2.25747421e-01,
          1.83789253e-01, 4.26722139e-01, 4.40204948e-01, 1.48594454e-01,
          6.11661971e-02, 2.57356800e-02, 1.47222895e-02, 4.40204948e-01,
          4.40204948e-01, 4.40204948e-01, 4.40204948e-01, 7.58815259e-02,
          1.87716465e-02, 1.69605330e-01, 5.53390145e-01, 1.24680273e-01,
          7.55245518e-03, 1.58975944e-01, 5.53390145e-01, 5.53390145e-01,
          1.85584143e-01, 4.63892743e-02, 4.53114033e-01, 4.53114033e-01,
          1.42686918e-01, 2.14709401e-01, 2.66780138e-01, 4.53114033e-01,
          4.53114033e-01, 2.52510786e-01, 5.26227020e-02, 1.59913093e-01,
          3.82474780e-01, 1.77832633e-01, 5.09555757e-01, 5.09555757e-01,
          3.32020998e-01, 3.08811009e-01, 4.60856885e-01, 2.70819068e-01,
          4.11633588e-02, 2.26924196e-01, 4.60856885e-01, 4.60856885e-01,
          1.29897177e-01, 4.93471809e-02, 4.60856885e-01, 4.28845316e-01,
          4.06699359e-01, 2.90304065e-01, 4.28845316e-01, 4.28845316e-01,
          1.35544036e-02, 6.96316585e-02, 7.32788742e-02, 4.28845316e-01,
          4.48601782e-01, 1.61128923e-01, 4.52698082e-01, 4.52698082e-01,
          1.74068958e-01, 2.20881887e-02, 1.93232596e-01, 2.92127907e-01,
          4.52698082e-01, 4.81444985e-01, 3.13594460e-01, 2.80853026e-02,
          4.07455713e-02, 4.81444985e-01, 4.13515300e-01, 1.58550277e-01,
          5.38513251e-02, 4.81444985e-01, 4.95493174e-01, 2.92583406e-01,
          6.18197396e-02, 1.24598794e-01, 4.95493174e-01, 3.91817331e-01,
          1.29983644e-03, 6.05147006e-03, 4.95493174e-01, 3.76894325e-01,
          9.96173397e-02, 3.76894325e-01, 3.76894325e-01, 3.76894325e-01,
          3.76894325e-01, 3.76894325e-01, 2.19303131e-01, 2.93123394e-01,
          2.45939746e-01, 1.14891298e-01, 9.22218785e-02, 2.88649220e-02,
          4.52713639e-01, 4.52713639e-01, 4.52713639e-01, 4.52713639e-01,
          3.04392964e-01, 2.93544382e-01, 1.47020265e-01, 1.79109558e-01,
          4.69127238e-01, 5.36810696e-01, 5.36810696e-01, 1.53768331e-01,
          1.36466086e-01, 1.26870304e-01, 9.77840647e-02, 4.41435546e-01,
          4.41435546e-01, 4.41435546e-01, 4.41435546e-01, 4.41435546e-01,
          1.07297339e-01, 1.17979171e-02, 7.07920920e-03, 2.45939746e-01,
          1.14891298e-01, 9.22218785e-02, 2.88649220e-02, 4.52713639e-01,
          4.52713639e-01, 4.52713639e-01, 4.52713639e-01, 3.04392964e-01,
          2.93544382e-01, 1.47020265e-01, 1.79109558e-01, 4.69127238e-01,
          5.36810696e-01, 5.36810696e-01, 1.53768331e-01, 1.36466086e-01,
          1.26870304e-01, 9.77840647e-02, 4.41435546e-01, 4.41435546e-01,
          4.41435546e-01, 4.41435546e-01, 4.41435546e-01, 1.07297339e-01,
          1.17979171e-02, 7.07920920e-03, 4.40204948e-01, 1.48594454e-01,
          6.11661971e-02, 2.57356800e-02, 1.47222895e-02, 4.40204948e-01,
          4.40204948e-01, 4.40204948e-01, 4.40204948e-01, 3.86298686e-01,
          3.86298686e-01, 3.66951466e-01, 1.95712149e-01, 2.45585039e-01,
          3.86298686e-01, 3.86298686e-01, 3.57196957e-01, 1.95897564e-01,
          5.53400457e-01, 5.53400457e-01, 5.53400457e-01, 1.35263041e-01,
          1.20845556e-01, 1.06707856e-01, 1.26039311e-01, 1.22158192e-01,
          2.49536633e-02, 2.52510786e-01, 5.26227020e-02, 1.59913093e-01,
          3.82474780e-01, 1.77832633e-01, 5.09555757e-01, 5.09555757e-01,
          3.32020998e-01, 3.08811009e-01, 5.60655832e-01, 5.60655832e-01,
          2.73051083e-01, 1.17221229e-01, 1.38168663e-01, 1.53115302e-01,
          3.77432287e-01, 5.88725694e-02, 2.98291594e-01, 5.77148795e-01,
          5.77148795e-01, 1.28356501e-01, 3.12848501e-02, 1.29356012e-01,
          5.18591106e-01, 1.47751451e-01, 3.85050401e-02, 3.99807580e-02 ]
      - [ 4.35253948e-01, 5.30413806e-01, 1.56140029e-01, 3.70050445e-02,
          2.19025254e-01, 5.30413806e-01, 3.93716156e-01, 4.21857610e-02,
          1.09845586e-01, 3.89714420e-01, 3.90673846e-01, 1.97156295e-01,
          3.55558991e-02, 3.90673846e-01, 3.90673846e-01, 2.02372745e-01,
          3.90673846e-01, 3.90673846e-01, 3.86666432e-02, 2.63378900e-02,
          8.04840028e-02, 7.33702555e-02, 4.81995583e-01, 4.81995583e-01,
          2.27721661e-01, 4.81995583e-01, 4.81995583e-01, 2.73706973e-01,
          4.66130316e-01, 4.66130316e-01, 1.65684342e-01, 1.26958698e-01,
          4.66130316e-01, 4.66130316e-01, 5.56087978e-02, 6.82398677e-02,
          3.12881529e-01, 4.45458412e-01, 4.45458412e-01, 1.45244718e-01,
          2.01084048e-01, 1.80329546e-01, 9.93637517e-02, 4.45458412e-01,
          4.45458412e-01, 4.65327315e-03, 4.25153552e-03, 3.92611921e-02,
          3.12031992e-02, 4.32924539e-01, 2.31674269e-01, 4.70391601e-01,
          5.14752090e-01, 5.14752090e-01, 6.52393103e-02, 3.75942498e-01,
          3.75942498e-01, 3.75942498e-01, 3.75942498e-01, 3.75942498e-01,
          3.75942498e-01, 3.75942498e-01, 5.15609831e-02, 1.58042852e-02,
          4.33147252e-01, 4.33147252e-01, 4.33147252e-01, 4.33147252e-01,
          2.92878002e-01, 3.29292625e-01, 2.24178776e-01, 2.21347809e-02,
          3.28018934e-01, 6.63919747e-02, 1.02550834e-01, 2.60183848e-02,
          4.31092560e-01, 3.94974500e-01, 4.31092560e-01, 4.31092560e-01,
          3.98708582e-01, 6.52393103e-02, 3.75942498e-01, 3.75942498e-01,
          3.75942498e-01, 3.75942498e-01, 3.75942498e-01, 3.75942498e-01,
          3.75942498e-01, 5.15609831e-02, 1.58042852e-02, 4.33147252e-01,
          4.33147252e-01, 4.33147252e-01, 4.33147252e-01, 2.92878002e-01,
          3.29292625e-01, 2.24178776e-01, 2.21347809e-02, 3.28018934e-01,
          6.63919747e-02, 1.02550834e-01, 2.60183848e-02, 4.31092560e-01,
          3.94974500e-01, 4.31092560e-01, 4.31092560e-01, 3.98708582e-01,
          7.98936412e-02, 9.74268690e-02, 1.48547769e-01, 3.28830808e-01,
          1.78523093e-01, 7.16652256e-03, 5.21790504e-01, 5.21790504e-01,
          5.21790504e-01, 1.76449176e-02, 3.70759130e-01, 6.21640325e-01,
          6.21640325e-01, 2.00875312e-01, 1.59457140e-02, 5.33461981e-02,
          1.81689858e-01, 8.17547739e-02, 3.82471085e-01, 1.44279391e-01,
          2.15969801e-01, 3.82471085e-01, 3.82471085e-01, 3.82471085e-01,
          2.25864381e-01, 3.82471085e-01, 3.82471085e-01, 4.92691696e-02,
          2.80045923e-02, 1.42086491e-01, 5.08768260e-01, 7.96714276e-02,
          2.84711597e-03, 3.25095989e-02, 5.93471229e-01, 5.93471229e-01,
          2.71667123e-01, 1.17898099e-01, 2.08264917e-01, 5.06147265e-01,
          3.07046592e-01, 1.84664465e-02, 2.63428036e-02, 5.06147265e-01,
          5.06147265e-01, 4.38769877e-01, 4.16910537e-02, 2.14191768e-02,
          4.38769877e-01, 4.38769877e-01, 4.38769877e-01, 7.13625550e-02,
          1.60413325e-01, 4.38769877e-01, 3.86666432e-02, 2.63378900e-02,
          8.04840028e-02, 7.33702555e-02, 4.81995583e-01, 4.81995583e-01,
          2.27721661e-01, 4.81995583e-01, 4.81995583e-01, 8.60817209e-02,
          2.27923710e-02, 2.67384231e-01, 5.21199703e-01, 5.21199703e-01,
          3.76728594e-01, 1.84312299e-01, 4.05937165e-01, 1.77178711e-01,
          1.42668812e-02, 2.24556141e-02, 1.57204613e-01, 6.09860778e-01,
          6.09860778e-01, 7.19056204e-02, 2.05630630e-01, 3.83686334e-01,
          1.73089057e-01, 4.65327315e-03, 4.25153552e-03, 3.92611921e-02,
          3.12031992e-02, 4.32924539e-01, 2.31674269e-01, 4.70391601e-01,
          5.14752090e-01, 5.14752090e-01, 1.11752469e-02, 6.60116505e-03,
          1.48212954e-01, 4.33187783e-01, 4.29253399e-01, 1.96652457e-01,
          4.33187783e-01, 4.33187783e-01, 4.33187783e-01, 5.60691282e-02,
          2.04235483e-02, 3.61888975e-01, 3.97738636e-01, 3.97738636e-01,
          3.97738636e-01, 3.97738636e-01, 3.97738636e-01, 2.65559524e-01,
          3.28018934e-01, 6.63919747e-02, 1.02550834e-01, 2.60183848e-02,
          4.31092560e-01, 3.94974500e-01, 4.31092560e-01, 4.31092560e-01,
          3.98708582e-01, 5.94240725e-01, 1.58468306e-01, 3.30770388e-03,
          5.41733503e-02, 2.03825444e-01, 7.26674572e-02, 3.16100687e-01,
          3.36183816e-01, 5.94240725e-01, 6.40381396e-01, 1.28858164e-01,
          2.37891986e-03, 4.29790816e-04, 5.50522506e-02, 3.66164111e-02,
          1.85872301e-01, 3.43364924e-01, 6.40381396e-01, 3.28018934e-01,
          6.63919747e-02, 1.02550834e-01, 2.60183848e-02, 4.31092560e-01,
          3.94974500e-01, 4.31092560e-01, 4.31092560e-01, 3.98708582e-01,
          5.94240725e-01, 1.58468306e-01, 3.30770388e-03, 5.41733503e-02,
          2.03825444e-01, 7.26674572e-02, 3.16100687e-01, 3.36183816e-01,
          5.94240725e-01, 6.40381396e-01, 1.28858164e-01, 2.37891986e-03,
          4.29790816e-04, 5.50522506e-02, 3.66164111e-02, 1.85872301e-01,
          3.43364924e-01, 6.40381396e-01, 3.82471085e-01, 1.44279391e-01,
          2.15969801e-01, 3.82471085e-01, 3.82471085e-01, 3.82471085e-01,
          2.25864381e-01, 3.82471085e-01, 3.82471085e-01, 4.93394703e-01,
          1.16551667e-01, 0., 2.32008602e-02, 4.93394703e-01,
          4.93394703e-01, 6.35561198e-02, 5.61858863e-02, 4.93394703e-01,
          4.78298426e-01, 2.11790100e-01, 3.23018432e-02, 5.23308069e-02,
          4.78298426e-01, 4.78298426e-01, 2.30246931e-01, 1.62837237e-01,
          4.25144672e-01, 4.38769877e-01, 4.16910537e-02, 2.14191768e-02,
          4.38769877e-01, 4.38769877e-01, 4.38769877e-01, 7.13625550e-02,
          1.60413325e-01, 4.38769877e-01, 4.57829803e-01, 3.01813006e-01,
          0., 8.55503082e-02, 4.57829803e-01, 4.57829803e-01,
          2.33136237e-01, 6.50541931e-02, 4.57829803e-01, 4.75550622e-01,
          4.75550622e-01, 6.38332963e-02, 4.69483696e-02, 4.75550622e-01,
          4.73480433e-01, 1.33188799e-01, 4.09725644e-02, 2.58697540e-01 ]
      - [ 2.10072428e-01, 1.55084699e-01, 1.21859789e-01, 1.23613045e-01,
          4.16847795e-01, 4.79260355e-01, 1.84574842e-01, 4.79260355e-01,
          4.79260355e-01, 3.64899069e-01, 1.41644269e-01, 1.21769033e-01,
          8.34707320e-02, 3.86280745e-01, 4.47285175e-01, 2.66679108e-01,
          4.47285175e-01, 4.47285175e-01, 6.76508605e-01, 6.76508605e-01,
          2.23643720e-01, 2.96710357e-02, 4.71512526e-02, 9.04969871e-02,
          2.90901717e-02, 4.56382670e-02, 1.16960950e-01, 7.10461363e-02,
          2.76170641e-01, 4.63059247e-01, 4.63059247e-01, 4.63059247e-01,
          2.25634903e-01, 4.68879938e-02, 3.62235576e-01, 2.94043005e-01,
          4.40190464e-01, 4.40190464e-01, 2.07451984e-01, 4.04820591e-01,
          1.11389719e-01, 3.30445692e-02, 1.08076883e-02, 4.40190464e-01,
          4.40190464e-01, 6.98054016e-01, 6.98054016e-01, 1.06333010e-01,
          5.63202938e-03, 2.36709672e-03, 7.05592474e-03, 6.73063053e-03,
          2.07502823e-02, 8.12607706e-02, 4.79192495e-01, 4.79192495e-01,
          4.79192495e-01, 4.79192495e-01, 2.09106892e-01, 1.54719874e-01,
          7.06099421e-02, 8.95125791e-03, 6.31033704e-02, 6.37377381e-01,
          6.61122561e-01, 3.04704726e-01, 2.27511361e-01, 3.98247764e-02,
          1.75571837e-03, 2.24622851e-03, 9.78106447e-03, 6.14055172e-02,
          6.65804803e-01, 6.65804803e-01, 2.35039845e-01, 7.82649890e-02,
          7.47298030e-03, 4.51253466e-02, 3.97628993e-02, 7.32838884e-02,
          1.90651864e-01, 4.79192495e-01, 4.79192495e-01, 4.79192495e-01,
          4.79192495e-01, 2.09106892e-01, 1.54719874e-01, 7.06099421e-02,
          8.95125791e-03, 6.31033704e-02, 6.37377381e-01, 6.61122561e-01,
          3.04704726e-01, 2.27511361e-01, 3.98247764e-02, 1.75571837e-03,
          2.24622851e-03, 9.78106447e-03, 6.14055172e-02, 6.65804803e-01,
          6.65804803e-01, 2.35039845e-01, 7.82649890e-02, 7.47298030e-03,
          4.51253466e-02, 3.97628993e-02, 7.32838884e-02, 1.90651864e-01,
          7.01865733e-01, 7.01865733e-01, 8.75777304e-02, 5.52986097e-03,
          4.73336130e-03, 2.06666812e-03, 2.02528527e-03, 7.76892703e-04,
          5.54092601e-03, 7.00121343e-01, 7.00121343e-01, 9.88287330e-02,
          1.19426800e-02, 1.70121919e-02, 2.97628827e-02, 3.40281799e-02,
          1.44034931e-02, 1.48586985e-02, 2.84694344e-01, 4.61199433e-01,
          2.21180767e-01, 1.06217265e-01, 1.26443848e-01, 3.89179319e-01,
          3.95888925e-01, 3.23346615e-01, 4.61199433e-01, 6.66437507e-01,
          7.23565519e-01, 1.31274343e-01, 2.70332508e-02, 7.70581961e-02,
          3.20015140e-02, 5.23953605e-03, 8.27124156e-03, 8.36436544e-03,
          1.72479793e-01, 5.33946574e-01, 1.44046187e-01, 1.56213433e-01,
          5.33946574e-01, 5.33946574e-01, 8.04353654e-02, 2.16548532e-01,
          1.05387613e-01, 1.57522872e-01, 2.07997322e-01, 4.64914382e-01,
          4.59331989e-01, 4.64914382e-01, 4.64914382e-01, 1.98706403e-01,
          1.02973640e-01, 1.33304387e-01, 6.76508605e-01, 6.76508605e-01,
          2.23643720e-01, 2.96710357e-02, 4.71512526e-02, 9.04969871e-02,
          2.90901717e-02, 4.56382670e-02, 1.16960950e-01, 5.29790461e-01,
          5.29790461e-01, 8.60797018e-02, 1.95577163e-02, 1.53026939e-03,
          3.83859663e-03, 1.64797604e-02, 5.17592072e-01, 3.96699965e-01,
          3.77758220e-02, 3.12465373e-02, 1.69897231e-03, 1.00301916e-03,
          3.36624420e-04, 2.51354538e-02, 9.66782868e-02, 7.00222909e-01,
          7.00222909e-01, 6.98054016e-01, 6.98054016e-01, 1.06333010e-01,
          5.63202938e-03, 2.36709672e-03, 7.05592474e-03, 6.73063053e-03,
          2.07502823e-02, 8.12607706e-02, 5.91012061e-01, 5.91012061e-01,
          1.10393345e-01, 6.46582916e-02, 8.78332928e-02, 1.42671958e-01,
          2.08559796e-01, 2.97422528e-01, 3.45128000e-01, 5.52690588e-02,
          1.03317471e-02, 6.83275377e-03, 1.31975813e-03, 1.29413223e-02,
          3.93641852e-02, 2.22459719e-01, 6.85107887e-01, 6.85107887e-01,
          6.65804803e-01, 6.65804803e-01, 2.35039845e-01, 7.82649890e-02,
          7.47298030e-03, 4.51253466e-02, 3.97628993e-02, 7.32838884e-02,
          1.90651864e-01, 2.65140742e-01, 2.61921018e-01, 8.95343572e-02,
          6.59883544e-02, 1.12584174e-01, 4.01968241e-01, 4.38737452e-01,
          4.88418102e-01, 4.88418102e-01, 1.45577446e-01, 3.23728323e-02,
          4.99847159e-03, 1.97762735e-02, 1.39195602e-02, 1.56533316e-01,
          5.84908605e-01, 5.84908605e-01, 5.12416005e-01, 6.65804803e-01,
          6.65804803e-01, 2.35039845e-01, 7.82649890e-02, 7.47298030e-03,
          4.51253466e-02, 3.97628993e-02, 7.32838884e-02, 1.90651864e-01,
          2.65140742e-01, 2.61921018e-01, 8.95343572e-02, 6.59883544e-02,
          1.12584174e-01, 4.01968241e-01, 4.38737452e-01, 4.88418102e-01,
          4.88418102e-01, 1.45577446e-01, 3.23728323e-02, 4.99847159e-03,
          1.97762735e-02, 1.39195602e-02, 1.56533316e-01, 5.84908605e-01,
          5.84908605e-01, 5.12416005e-01, 2.84694344e-01, 4.61199433e-01,
          2.21180767e-01, 1.06217265e-01, 1.26443848e-01, 3.89179319e-01,
          3.95888925e-01, 3.23346615e-01, 4.61199433e-01, 1.99121952e-01,
          2.45593444e-01, 2.25149408e-01, 2.11886629e-01, 1.06635734e-01,
          4.67122942e-01, 4.67122942e-01, 4.11458403e-01, 4.27438438e-01,
          5.89174442e-02, 3.30152027e-02, 2.61412822e-02, 3.52673084e-02,
          6.44673854e-02, 3.59016389e-01, 6.29098833e-01, 6.29098833e-01,
          2.50301808e-01, 1.57522872e-01, 2.07997322e-01, 4.64914382e-01,
          4.59331989e-01, 4.64914382e-01, 4.64914382e-01, 1.98706403e-01,
          1.02973640e-01, 1.33304387e-01, 2.37358958e-01, 1.32769093e-01,
          1.63158894e-01, 1.12861253e-01, 1.60666943e-01, 5.00101388e-01,
          5.00101388e-01, 4.54810768e-01, 3.85759562e-01, 9.10422355e-02,
          4.69611175e-02, 1.89949702e-02, 7.63638597e-03, 8.57188627e-02,
          4.95292515e-01, 5.54387808e-01, 5.54387808e-01, 3.40876341e-01 ]
      - [ 2.26325855e-01, 4.83557075e-01, 4.15519893e-01, 6.49921224e-02,
          2.55396992e-01, 4.83557075e-01, 4.83557075e-01, 5.60458330e-03,
          1.80209931e-02, 3.40398520e-01, 3.40398520e-01, 3.40398520e-01,
          3.40398520e-01, 3.40398520e-01, 2.85118103e-01, 3.22813630e-01,
          3.40398520e-01, 3.40398520e-01, 1.60434291e-01, 1.92947283e-01,
          4.42568511e-01, 4.42568511e-01, 2.90496320e-01, 8.93657506e-02,
          2.38263562e-01, 4.42568511e-01, 4.42568511e-01, 1.95095286e-01,
          4.18372840e-01, 4.18372840e-01, 4.18372840e-01, 2.61879265e-01,
          4.18372840e-01, 4.18372840e-01, 8.43591616e-02, 8.29594433e-02,
          2.32304618e-01, 3.84047151e-01, 4.29573625e-01, 4.29573625e-01,
          1.14282660e-01, 9.91892144e-02, 4.29573625e-01, 4.29573625e-01,
          1.82258517e-01, 3.71813864e-01, 9.67358798e-02, 3.11437130e-01,
          3.71813864e-01, 3.71813864e-01, 3.54914635e-01, 2.69707710e-01,
          3.71813864e-01, 3.71813864e-01, 4.50694472e-01, 4.50694472e-01,
          4.50694472e-01, 1.56252936e-01, 1.21998362e-01, 1.26466289e-01,
          3.24227571e-01, 2.63155520e-01, 3.95544022e-01, 2.50476629e-01,
          4.29785490e-01, 4.29785490e-01, 4.29785490e-01, 1.44047230e-01,
          2.18645707e-01, 3.78387451e-01, 3.60480487e-01, 1.92724481e-01,
          4.53707278e-01, 1.41141221e-01, 1.53874367e-01, 1.30709693e-01,
          4.53707278e-01, 4.53707278e-01, 2.70358741e-01, 1.95677951e-01,
          4.53707278e-01, 4.50694472e-01, 4.50694472e-01, 4.50694472e-01,
          1.56252936e-01, 1.21998362e-01, 1.26466289e-01, 3.24227571e-01,
          2.63155520e-01, 3.95544022e-01, 2.50476629e-01, 4.29785490e-01,
          4.29785490e-01, 4.29785490e-01, 1.44047230e-01, 2.18645707e-01,
          3.78387451e-01, 3.60480487e-01, 1.92724481e-01, 4.53707278e-01,
          1.41141221e-01, 1.53874367e-01, 1.30709693e-01, 4.53707278e-01,
          4.53707278e-01, 2.70358741e-01, 1.95677951e-01, 4.53707278e-01,
          4.89124835e-01, 3.61819029e-01, 6.63114414e-02, 1.03610486e-01,
          8.34852830e-02, 6.17873408e-02, 3.47206950e-01, 4.89124835e-01,
          4.89124835e-01, 3.43197912e-01, 4.45429713e-01, 4.45429713e-01,
          4.45429713e-01, 2.27158144e-01, 3.37126404e-01, 2.73886800e-01,
          1.43297806e-01, 1.47443995e-01, 4.24275786e-01, 3.28561395e-01,
          2.15663388e-01, 2.20911041e-01, 4.24275786e-01, 4.24275786e-01,
          2.22848713e-01, 1.50981948e-01, 4.24275786e-01, 3.40210110e-01,
          9.06462818e-02, 8.42529610e-02, 1.94781125e-01, 5.67635335e-02,
          1.56131771e-03, 2.44492635e-01, 6.17186606e-01, 6.17186606e-01,
          3.48340750e-01, 4.37646836e-01, 4.37646836e-01, 4.37646836e-01,
          1.91788241e-01, 3.79911326e-02, 9.68524367e-02, 2.46051997e-01,
          4.37646836e-01, 4.47389454e-01, 1.52495027e-01, 2.98985422e-01,
          4.47389454e-01, 4.47389454e-01, 2.39450514e-01, 1.30455956e-01,
          8.88790339e-02, 4.47389454e-01, 1.60434291e-01, 1.92947283e-01,
          4.42568511e-01, 4.42568511e-01, 2.90496320e-01, 8.93657506e-02,
          2.38263562e-01, 4.42568511e-01, 4.42568511e-01, 8.37490484e-02,
          1.99597716e-01, 3.98894757e-01, 4.28277314e-01, 1.14880048e-01,
          2.07046956e-01, 4.28277314e-01, 4.28277314e-01, 4.28277314e-01,
          1.80114433e-02, 1.69762187e-02, 2.24744916e-01, 5.85379839e-01,
          2.21789762e-01, 3.98078002e-02, 1.55764028e-01, 5.85379839e-01,
          4.27381456e-01, 3.71813864e-01, 9.67358798e-02, 3.11437130e-01,
          3.71813864e-01, 3.71813864e-01, 3.54914635e-01, 2.69707710e-01,
          3.71813864e-01, 3.71813864e-01, 4.05239493e-01, 1.77755520e-01,
          6.54243156e-02, 1.48357391e-01, 3.42007458e-01, 4.05239493e-01,
          4.05239493e-01, 4.05239493e-01, 4.05239493e-01, 6.50675520e-02,
          3.70301004e-03, 6.32230863e-02, 5.05007446e-01, 2.94349730e-01,
          2.75310725e-01, 5.05007446e-01, 5.05007446e-01, 2.43261963e-01,
          4.53707278e-01, 1.41141221e-01, 1.53874367e-01, 1.30709693e-01,
          4.53707278e-01, 4.53707278e-01, 2.70358741e-01, 1.95677951e-01,
          4.53707278e-01, 4.07310456e-01, 7.91114362e-05, 0.,
          2.28128433e-02, 4.07310456e-01, 4.07310456e-01, 4.07310456e-01,
          4.07310456e-01, 4.07310456e-01, 3.62680964e-02, 0.,
          7.91511685e-03, 9.78133306e-02, 2.15613931e-01, 4.22192335e-01,
          5.73003173e-01, 5.73003173e-01, 3.19267601e-01, 4.53707278e-01,
          1.41141221e-01, 1.53874367e-01, 1.30709693e-01, 4.53707278e-01,
          4.53707278e-01, 2.70358741e-01, 1.95677951e-01, 4.53707278e-01,
          4.07310456e-01, 7.91114362e-05, 0., 2.28128433e-02,
          4.07310456e-01, 4.07310456e-01, 4.07310456e-01, 4.07310456e-01,
          4.07310456e-01, 3.62680964e-02, 0., 7.91511685e-03,
          9.78133306e-02, 2.15613931e-01, 4.22192335e-01, 5.73003173e-01,
          5.73003173e-01, 3.19267601e-01, 4.24275786e-01, 3.28561395e-01,
          2.15663388e-01, 2.20911041e-01, 4.24275786e-01, 4.24275786e-01,
          2.22848713e-01, 1.50981948e-01, 4.24275786e-01, 3.80344063e-01,
          1.74576715e-01, 1.89906687e-01, 3.80344063e-01, 3.80344063e-01,
          2.48372704e-01, 3.80344063e-01, 3.80344063e-01, 3.80344063e-01,
          8.73166174e-02, 4.80365343e-02, 6.28024563e-02, 1.00944169e-01,
          3.78804021e-02, 2.65238017e-01, 6.11830175e-01, 6.11830175e-01,
          3.86480421e-01, 4.47389454e-01, 1.52495027e-01, 2.98985422e-01,
          4.47389454e-01, 4.47389454e-01, 2.39450514e-01, 1.30455956e-01,
          8.88790339e-02, 4.47389454e-01, 4.21544939e-01, 1.21184766e-01,
          6.44336939e-02, 1.21935241e-01, 4.21544939e-01, 4.21544939e-01,
          4.21544939e-01, 2.71261245e-01, 4.21544939e-01, 2.48644397e-01,
          4.88436744e-02, 9.47918743e-03, 4.75134235e-03, 1.65154845e-01,
          4.75303650e-01, 4.75303650e-01, 4.75303650e-01, 4.75303650e-01 ]
      - [ 2.00914919e-01, 1.03832437e-02, 2.81298012e-02, 4.86386344e-02,
          2.56277323e-01, 6.58104360e-01, 6.38824403e-01, 3.63656431e-02,
          2.03960076e-01, 3.22907776e-01, 4.03986365e-01, 4.03986365e-01,
          3.37839723e-01, 4.03986365e-01, 4.03986365e-01, 3.29616368e-01,
          7.00944141e-02, 1.05730310e-01, 4.00362879e-01, 4.00362879e-01,
          4.00362879e-01, 1.01966262e-01, 2.70274013e-01, 1.10475399e-01,
          4.00362879e-01, 4.00362879e-01, 3.14480871e-01, 1.96921430e-03,
          2.66803708e-02, 5.59485853e-02, 3.95957120e-02, 1.95183948e-01,
          6.50856435e-01, 6.50856435e-01, 3.20563495e-01, 1.47643173e-03,
          7.36841653e-03, 6.92334056e-01, 6.92334056e-01, 1.23278886e-01,
          3.99395041e-02, 1.28231600e-01, 3.38414535e-02, 2.83726462e-04,
          1.73434019e-04, 2.33655535e-02, 4.97196198e-01, 4.97196198e-01,
          6.25156686e-02, 3.03724520e-02, 1.35411453e-02, 4.97196198e-01,
          4.97196198e-01, 2.56495140e-02, 1.09185293e-01, 7.56746382e-02,
          1.65948093e-01, 7.82511383e-02, 2.23935008e-01, 5.41402578e-01,
          5.41402578e-01, 5.41402578e-01, 1.17413983e-01, 3.44614871e-02,
          7.02825785e-01, 7.02825785e-01, 6.00976087e-02, 2.92231585e-03,
          2.40440830e-03, 7.47910421e-03, 2.19550100e-03, 1.34729473e-02,
          6.45840093e-02, 4.97032940e-01, 4.97032940e-01, 3.29726785e-02,
          4.76438180e-03, 7.87348952e-03, 4.97032940e-01, 4.97032940e-01,
          3.90618965e-02, 1.09185293e-01, 7.56746382e-02, 1.65948093e-01,
          7.82511383e-02, 2.23935008e-01, 5.41402578e-01, 5.41402578e-01,
          5.41402578e-01, 1.17413983e-01, 3.44614871e-02, 7.02825785e-01,
          7.02825785e-01, 6.00976087e-02, 2.92231585e-03, 2.40440830e-03,
          7.47910421e-03, 2.19550100e-03, 1.34729473e-02, 6.45840093e-02,
          4.97032940e-01, 4.97032940e-01, 3.29726785e-02, 4.76438180e-03,
          7.87348952e-03, 4.97032940e-01, 4.97032940e-01, 3.90618965e-02,
          1.84514970e-01, 9.45036411e-02, 1.16236016e-01, 3.08722779e-02,
          3.30409408e-02, 2.59402692e-01, 5.38146138e-01, 5.38146138e-01,
          5.38146138e-01, 5.73362112e-02, 7.02630818e-01, 7.02630818e-01,
          3.81226242e-02, 3.51739628e-03, 2.67258217e-03, 7.59159971e-04,
          1.08703114e-02, 2.69635580e-02, 4.86740619e-02, 4.69808042e-01,
          5.36736131e-01, 1.75143834e-02, 4.88440460e-03, 1.59061197e-02,
          5.36736131e-01, 4.41193432e-01, 1.20251095e-02, 1.66363299e-01,
          5.52595183e-02, 1.16228685e-02, 2.85781384e-03, 9.29535367e-03,
          1.35465220e-01, 3.73580128e-01, 6.34347558e-01, 6.34347558e-01,
          2.93812633e-01, 6.05324864e-01, 6.05324864e-01, 1.27181500e-01,
          3.86666954e-02, 1.14486301e-02, 2.40198169e-02, 1.95372552e-01,
          3.43867958e-01, 8.99618864e-02, 4.29520518e-01, 4.29520518e-01,
          1.24380551e-01, 4.20407116e-01, 4.29520518e-01, 4.29520518e-01,
          2.37045452e-01, 3.55165303e-02, 4.00362879e-01, 4.00362879e-01,
          4.00362879e-01, 1.01966262e-01, 2.70274013e-01, 1.10475399e-01,
          4.00362879e-01, 4.00362879e-01, 3.14480871e-01, 7.55796656e-02,
          2.41353754e-02, 1.17392495e-01, 3.65391374e-01, 4.90441471e-01,
          3.37706208e-01, 4.90441471e-01, 4.90441471e-01, 7.66222700e-02,
          4.35882062e-02, 9.29863844e-03, 5.41496098e-01, 5.69221318e-01,
          5.69221318e-01, 2.19641700e-01, 5.26876189e-02, 8.14300682e-03,
          9.72509675e-04, 2.33655535e-02, 4.97196198e-01, 4.97196198e-01,
          6.25156686e-02, 3.03724520e-02, 1.35411453e-02, 4.97196198e-01,
          4.97196198e-01, 2.56495140e-02, 1.38536142e-03, 1.75797986e-03,
          1.51500723e-03, 1.59589704e-02, 5.47244474e-02, 7.84356892e-02,
          7.01206088e-01, 7.01206088e-01, 1.45397568e-02, 6.22025877e-02,
          1.18457697e-01, 4.91319865e-01, 4.91319865e-01, 4.53691304e-01,
          1.90990478e-01, 3.46251309e-01, 3.33652020e-01, 1.44479185e-01,
          6.45840093e-02, 4.97032940e-01, 4.97032940e-01, 3.29726785e-02,
          4.76438180e-03, 7.87348952e-03, 4.97032940e-01, 4.97032940e-01,
          3.90618965e-02, 4.88260947e-03, 3.55376815e-03, 2.77253240e-03,
          2.93005054e-04, 1.69146620e-03, 3.91460620e-02, 7.03869283e-01,
          7.03869283e-01, 2.30256841e-02, 3.04030210e-01, 4.35412556e-01,
          4.35412556e-01, 5.01237512e-02, 2.26610601e-01, 1.64150894e-01,
          4.35412556e-01, 4.35412556e-01, 2.53119737e-01, 6.45840093e-02,
          4.97032940e-01, 4.97032940e-01, 3.29726785e-02, 4.76438180e-03,
          7.87348952e-03, 4.97032940e-01, 4.97032940e-01, 3.90618965e-02,
          4.88260947e-03, 3.55376815e-03, 2.77253240e-03, 2.93005054e-04,
          1.69146620e-03, 3.91460620e-02, 7.03869283e-01, 7.03869283e-01,
          2.30256841e-02, 3.04030210e-01, 4.35412556e-01, 4.35412556e-01,
          5.01237512e-02, 2.26610601e-01, 1.64150894e-01, 4.35412556e-01,
          4.35412556e-01, 2.53119737e-01, 4.86740619e-02, 4.69808042e-01,
          5.36736131e-01, 1.75143834e-02, 4.88440460e-03, 1.59061197e-02,
          5.36736131e-01, 4.41193432e-01, 1.20251095e-02, 1.10472944e-02,
          4.08947933e-03, 2.29662587e-03, 7.06687279e-04, 9.47214314e-04,
          3.51293571e-02, 7.03622282e-01, 7.03622282e-01, 3.77898924e-02,
          5.27922332e-01, 5.27922332e-01, 4.80612129e-01, 5.13405986e-02,
          2.20894124e-02, 5.39006926e-02, 2.47141525e-01, 3.19320709e-01,
          1.93033740e-01, 8.99618864e-02, 4.29520518e-01, 4.29520518e-01,
          1.24380551e-01, 4.20407116e-01, 4.29520518e-01, 4.29520518e-01,
          2.37045452e-01, 3.55165303e-02, 4.94290650e-01, 3.58568013e-01,
          3.66841517e-02, 3.59162746e-04, 1.37879252e-01, 2.43943766e-01,
          4.94290650e-01, 4.94290650e-01, 2.31640562e-01, 6.61073923e-01,
          6.61073923e-01, 2.22761109e-01, 4.06787312e-03, 0.,
          4.71011410e-03, 3.43797952e-02, 4.48594168e-02, 2.57889986e-01 ]
      - [ 4.00146335e-01, 5.24636686e-01, 6.53686281e-03, 1.38446903e-02,
          8.40160176e-02, 5.24636686e-01, 5.24636686e-01, 1.37693295e-02,
          3.78144756e-02, 3.99921149e-01, 4.19699758e-01, 4.19699758e-01,
          1.43165290e-01, 4.19699758e-01, 4.19699758e-01, 3.23728532e-01,
          7.13748559e-02, 2.98005771e-02, 3.56787533e-01, 3.56473505e-01,
          3.56787533e-01, 3.56787533e-01, 3.56787533e-01, 2.70165443e-01,
          1.80523232e-01, 3.56787533e-01, 3.56787533e-01, 2.02467546e-01,
          2.39450410e-01, 4.01270436e-03, 4.40067938e-03, 2.36143954e-02,
          5.54850459e-01, 5.54850459e-01, 5.28445363e-01, 2.37500947e-02,
          2.16975614e-01, 4.83906239e-01, 4.83906239e-01, 2.78043628e-01,
          1.23150676e-01, 2.80171961e-01, 4.17208314e-01, 2.50911146e-01,
          2.67895430e-01, 3.51270705e-01, 3.27407032e-01, 3.51270705e-01,
          3.51270705e-01, 3.51270705e-01, 1.59866378e-01, 3.51270705e-01,
          3.51270705e-01, 3.51270705e-01, 6.68312423e-03, 1.80310607e-01,
          4.58631963e-02, 3.17543163e-03, 6.85541704e-02, 8.76308382e-02,
          6.86330020e-01, 6.86330020e-01, 6.32601380e-02, 3.79622728e-01,
          4.33889866e-01, 4.33889866e-01, 4.33889866e-01, 1.79348662e-01,
          3.59805077e-01, 2.24370599e-01, 2.21600473e-01, 1.60301805e-01,
          3.71358991e-01, 3.38148206e-01, 2.53609329e-01, 3.71358991e-01,
          3.71358991e-01, 3.71358991e-01, 2.30385229e-01, 2.73885190e-01,
          3.71358991e-01, 6.68312423e-03, 1.80310607e-01, 4.58631963e-02,
          3.17543163e-03, 6.85541704e-02, 8.76308382e-02, 6.86330020e-01,
          6.86330020e-01, 6.32601380e-02, 3.79622728e-01, 4.33889866e-01,
          4.33889866e-01, 4.33889866e-01, 1.79348662e-01, 3.59805077e-01,
          2.24370599e-01, 2.21600473e-01, 1.60301805e-01, 3.71358991e-01,
          3.38148206e-01, 2.53609329e-01, 3.71358991e-01, 3.71358991e-01,
          3.71358991e-01, 2.30385229e-01, 2.73885190e-01, 3.71358991e-01,
          2.79844329e-02, 6.33634478e-02, 5.97010888e-02, 3.03447902e-01,
          6.55363798e-02, 4.63632345e-02, 5.43960869e-01, 5.43960869e-01,
          5.43960869e-01, 4.00620073e-01, 4.00620073e-01, 4.00620073e-01,
          4.00620073e-01, 1.03457421e-01, 1.20977342e-01, 8.76366049e-02,
          4.00620073e-01, 4.00620073e-01, 3.72658998e-01, 2.51786232e-01,
          3.30038846e-01, 3.72658998e-01, 3.72658998e-01, 3.56111169e-01,
          5.25944754e-02, 3.72658998e-01, 3.72658998e-01, 4.77588130e-03,
          1.50565480e-04, 2.16383133e-02, 5.59037328e-01, 1.91716969e-01,
          2.75168084e-02, 7.03507066e-02, 5.65190434e-01, 5.65190434e-01,
          2.67685384e-01, 4.10758555e-01, 4.10758555e-01, 4.10758555e-01,
          2.59978950e-01, 1.00677453e-01, 5.38818315e-02, 4.10758555e-01,
          4.10758555e-01, 3.47557902e-01, 3.17482293e-01, 3.47557902e-01,
          3.47557902e-01, 3.47557902e-01, 3.47557902e-01, 3.47557902e-01,
          2.23957285e-01, 3.47557902e-01, 3.56787533e-01, 3.56473505e-01,
          3.56787533e-01, 3.56787533e-01, 3.56787533e-01, 2.70165443e-01,
          1.80523232e-01, 3.56787533e-01, 3.56787533e-01, 3.19286019e-01,
          1.98453814e-01, 3.75539035e-01, 3.75539035e-01, 3.75539035e-01,
          9.35052410e-02, 3.75539035e-01, 3.75539035e-01, 3.75539035e-01,
          9.17116106e-02, 8.93655606e-03, 5.32549560e-01, 5.32549560e-01,
          8.73479024e-02, 6.50998903e-03, 9.35033560e-02, 3.44889164e-01,
          5.32549560e-01, 3.51270705e-01, 3.27407032e-01, 3.51270705e-01,
          3.51270705e-01, 3.51270705e-01, 1.59866378e-01, 3.51270705e-01,
          3.51270705e-01, 3.51270705e-01, 2.87291616e-01, 2.18629390e-01,
          2.32415468e-01, 3.67870569e-01, 3.67870569e-01, 3.67870569e-01,
          3.67870569e-01, 3.67870569e-01, 3.67870569e-01, 8.63643140e-02,
          7.14006871e-02, 6.08636320e-01, 6.08636320e-01, 8.71845111e-02,
          8.31246525e-02, 2.02025965e-01, 2.68738866e-01, 3.36071104e-01,
          3.71358991e-01, 3.38148206e-01, 2.53609329e-01, 3.71358991e-01,
          3.71358991e-01, 3.71358991e-01, 2.30385229e-01, 2.73885190e-01,
          3.71358991e-01, 3.43113691e-01, 8.37334618e-02, 7.01782256e-02,
          4.06617850e-01, 4.06617850e-01, 1.98958322e-01, 4.06617850e-01,
          4.06617850e-01, 4.06617850e-01, 2.21644714e-01, 5.33245027e-01,
          5.33245027e-01, 5.33245027e-01, 8.15964043e-02, 4.44310904e-02,
          2.39944011e-01, 1.52143449e-01, 5.60799502e-02, 3.71358991e-01,
          3.38148206e-01, 2.53609329e-01, 3.71358991e-01, 3.71358991e-01,
          3.71358991e-01, 2.30385229e-01, 2.73885190e-01, 3.71358991e-01,
          3.43113691e-01, 8.37334618e-02, 7.01782256e-02, 4.06617850e-01,
          4.06617850e-01, 1.98958322e-01, 4.06617850e-01, 4.06617850e-01,
          4.06617850e-01, 2.21644714e-01, 5.33245027e-01, 5.33245027e-01,
          5.33245027e-01, 8.15964043e-02, 4.44310904e-02, 2.39944011e-01,
          1.52143449e-01, 5.60799502e-02, 3.72658998e-01, 2.51786232e-01,
          3.30038846e-01, 3.72658998e-01, 3.72658998e-01, 3.56111169e-01,
          5.25944754e-02, 3.72658998e-01, 3.72658998e-01, 3.65618318e-01,
          2.31298611e-01, 8.43257681e-02, 3.65618318e-01, 3.65618318e-01,
          3.65618318e-01, 3.65618318e-01, 3.65618318e-01, 3.65618318e-01,
          5.49786985e-01, 5.49786985e-01, 5.49786985e-01, 7.00345486e-02,
          7.85556529e-03, 8.28369334e-02, 2.53986508e-01, 1.03259631e-01,
          2.66914628e-02, 3.47557902e-01, 3.17482293e-01, 3.47557902e-01,
          3.47557902e-01, 3.47557902e-01, 3.47557902e-01, 3.47557902e-01,
          2.23957285e-01, 3.47557902e-01, 3.82795155e-01, 3.82795155e-01,
          7.50602186e-02, 2.72320118e-02, 3.82795155e-01, 3.82795155e-01,
          3.82795155e-01, 3.32576931e-01, 3.82795155e-01, 5.57031870e-01,
          5.57031870e-01, 1.47444829e-01, 9.69722029e-03, 4.66943253e-04,
          5.55421531e-01, 1.83536395e-01, 8.85337498e-03, 9.88803729e-02 ]
      - [ 3.69595498e-01, 4.58947688e-01, 7.26080835e-02, 4.69963402e-02,
          2.08925396e-01, 5.39492190e-01, 5.39492190e-01, 6.75855502e-02,
          9.78600457e-02, 3.84905636e-01, 3.84905636e-01, 1.61085233e-01,
          4.02092896e-02, 3.61449718e-01, 3.84905636e-01, 3.34902436e-01,
          3.84905636e-01, 3.64931047e-01, 1.26141563e-01, 1.08610481e-01,
          8.72478485e-02, 3.59856188e-01, 4.31644648e-01, 2.92580426e-01,
          4.31644648e-01, 4.31644648e-01, 4.31644648e-01, 2.78055787e-01,
          4.55720186e-01, 4.55720186e-01, 9.45299342e-02, 2.39055037e-01,
          4.55720186e-01, 4.55720186e-01, 1.18489616e-01, 8.53604823e-02,
          4.13037866e-01, 4.13037866e-01, 4.13037866e-01, 2.14634523e-01,
          4.13037866e-01, 1.46167547e-01, 2.23051906e-01, 4.13037866e-01,
          1.60272777e-01, 1.90183930e-02, 2.29023173e-02, 4.71175276e-02,
          1.12953112e-01, 3.85743141e-01, 1.35250539e-01, 5.20208180e-01,
          5.20208180e-01, 5.20208180e-01, 5.33699356e-02, 3.02562773e-01,
          4.20209259e-01, 2.53584534e-01, 4.20209259e-01, 3.42998385e-01,
          4.20209259e-01, 4.20209259e-01, 1.14688113e-01, 2.10308544e-02,
          4.60891068e-01, 4.60891068e-01, 3.17789167e-01, 3.87709707e-01,
          1.39546201e-01, 4.60891068e-01, 2.93507069e-01, 2.76445672e-02,
          3.03220272e-01, 3.29968482e-02, 1.06914073e-01, 1.95733115e-01,
          4.46348041e-01, 2.36350894e-01, 4.46348041e-01, 4.46348041e-01,
          4.46348041e-01, 5.33699356e-02, 3.02562773e-01, 4.20209259e-01,
          2.53584534e-01, 4.20209259e-01, 3.42998385e-01, 4.20209259e-01,
          4.20209259e-01, 1.14688113e-01, 2.10308544e-02, 4.60891068e-01,
          4.60891068e-01, 3.17789167e-01, 3.87709707e-01, 1.39546201e-01,
          4.60891068e-01, 2.93507069e-01, 2.76445672e-02, 3.03220272e-01,
          3.29968482e-02, 1.06914073e-01, 1.95733115e-01, 4.46348041e-01,
          2.36350894e-01, 4.46348041e-01, 4.46348041e-01, 4.46348041e-01,
          3.81059647e-02, 9.38359350e-02, 2.49909863e-01, 9.33431834e-02,
          2.38687366e-01, 5.32931276e-02, 5.33365607e-01, 5.33365607e-01,
          5.33365607e-01, 4.94979285e-02, 4.86811429e-01, 5.10149837e-01,
          5.10149837e-01, 3.63362044e-01, 2.54884642e-02, 1.93398878e-01,
          2.26933524e-01, 1.15673706e-01, 4.53533024e-01, 3.37498970e-02,
          1.02300614e-01, 3.70036274e-01, 4.53533024e-01, 3.34222429e-02,
          2.87707567e-01, 3.82058918e-01, 4.53533024e-01, 1.89245287e-02,
          5.30099869e-03, 5.09112775e-02, 2.69507289e-01, 1.82064578e-01,
          3.29247303e-02, 1.68482795e-01, 6.53927028e-01, 6.53927028e-01,
          2.91909188e-01, 2.62680817e-02, 2.67803222e-01, 4.55274791e-01,
          4.55274791e-01, 6.44178465e-02, 6.76962584e-02, 4.55274791e-01,
          4.55274791e-01, 3.51952046e-01, 6.78428859e-02, 8.82993564e-02,
          5.25205433e-01, 5.25205433e-01, 8.32973197e-02, 8.29267129e-02,
          1.30948886e-01, 5.25205433e-01, 1.26141563e-01, 1.08610481e-01,
          8.72478485e-02, 3.59856188e-01, 4.31644648e-01, 2.92580426e-01,
          4.31644648e-01, 4.31644648e-01, 4.31644648e-01, 4.96630333e-02,
          8.53564590e-02, 5.11781991e-01, 5.71371734e-01, 5.71371734e-01,
          6.56205192e-02, 1.05206609e-01, 1.46958485e-01, 1.80884138e-01,
          3.25609813e-03, 2.19689980e-02, 5.47347248e-01, 5.52563488e-01,
          2.03649029e-01, 7.56427704e-04, 3.86018381e-02, 4.77531284e-01,
          3.43618482e-01, 1.90183930e-02, 2.29023173e-02, 4.71175276e-02,
          1.12953112e-01, 3.85743141e-01, 1.35250539e-01, 5.20208180e-01,
          5.20208180e-01, 5.20208180e-01, 8.20566490e-02, 2.01257810e-01,
          4.15306300e-01, 4.15306300e-01, 3.08824271e-01, 1.25902787e-01,
          3.84020656e-01, 4.15306300e-01, 4.15306300e-01, 2.36743130e-02,
          9.81584117e-02, 6.28633559e-01, 6.28633559e-01, 1.89816058e-01,
          1.87551975e-02, 1.74896002e-01, 2.08550438e-01, 2.87582815e-01,
          3.03220272e-01, 3.29968482e-02, 1.06914073e-01, 1.95733115e-01,
          4.46348041e-01, 2.36350894e-01, 4.46348041e-01, 4.46348041e-01,
          4.46348041e-01, 4.65240538e-01, 1.64830074e-01, 3.50141615e-01,
          2.51479417e-01, 3.36490959e-01, 7.19529614e-02, 2.95729458e-01,
          3.78927916e-01, 4.65240538e-01, 4.41524804e-01, 4.41524804e-01,
          4.41524804e-01, 4.04315084e-01, 8.93310755e-02, 3.44910379e-03,
          3.64948884e-02, 2.07408965e-01, 4.41524804e-01, 3.03220272e-01,
          3.29968482e-02, 1.06914073e-01, 1.95733115e-01, 4.46348041e-01,
          2.36350894e-01, 4.46348041e-01, 4.46348041e-01, 4.46348041e-01,
          4.65240538e-01, 1.64830074e-01, 3.50141615e-01, 2.51479417e-01,
          3.36490959e-01, 7.19529614e-02, 2.95729458e-01, 3.78927916e-01,
          4.65240538e-01, 4.41524804e-01, 4.41524804e-01, 4.41524804e-01,
          4.04315084e-01, 8.93310755e-02, 3.44910379e-03, 3.64948884e-02,
          2.07408965e-01, 4.41524804e-01, 4.53533024e-01, 3.37498970e-02,
          1.02300614e-01, 3.70036274e-01, 4.53533024e-01, 3.34222429e-02,
          2.87707567e-01, 3.82058918e-01, 4.53533024e-01, 5.67660987e-01,
          2.03993618e-02, 2.62337811e-02, 1.62255853e-01, 5.67660987e-01,
          1.01065217e-02, 4.90034744e-03, 7.56129296e-03, 5.67660987e-01,
          3.86738837e-01, 3.86738837e-01, 1.89208984e-01, 9.49966460e-02,
          3.86738837e-01, 2.32186362e-01, 3.86738837e-01, 3.86738837e-01,
          3.86738837e-01, 3.51952046e-01, 6.78428859e-02, 8.82993564e-02,
          5.25205433e-01, 5.25205433e-01, 8.32973197e-02, 8.29267129e-02,
          1.30948886e-01, 5.25205433e-01, 4.78575915e-01, 4.67043668e-01,
          1.42051890e-01, 4.78575915e-01, 4.78575915e-01, 8.94752964e-02,
          7.99433887e-02, 3.70352492e-02, 2.32461706e-01, 4.64538634e-01,
          4.64538634e-01, 9.25815925e-02, 2.61248976e-01, 4.64538634e-01,
          4.64538634e-01, 1.93922102e-01, 1.17288858e-01, 6.31712303e-02 ]
      - [ 3.14021409e-01, 5.07262647e-01, 3.79385680e-01, 1.11904636e-01,
          1.19728997e-01, 5.07262647e-01, 4.54914242e-01, 3.61245684e-02,
          5.14834449e-02, 4.57838744e-01, 4.57838744e-01, 4.17957067e-01,
          3.05206701e-02, 3.80775221e-02, 1.17754094e-01, 1.53917521e-01,
          4.57838744e-01, 3.89810115e-01, 4.61334251e-02, 6.12766929e-02,
          3.08085755e-02, 1.01394043e-03, 7.61076361e-02, 5.07221892e-02,
          4.82627571e-01, 6.10645175e-01, 6.10645175e-01, 2.70111889e-01,
          4.69549626e-01, 4.69549626e-01, 2.98736215e-01, 4.37884927e-01,
          3.32185686e-01, 2.97530025e-01, 3.89148258e-02, 4.85416874e-03,
          1.95174679e-01, 4.59725142e-01, 4.59725142e-01, 4.38532233e-01,
          4.59725142e-01, 9.80683044e-02, 2.36263260e-01, 2.51040965e-01,
          5.00348322e-02, 4.23511444e-03, 7.82744959e-03, 1.61877926e-02,
          2.08427399e-01, 4.95465487e-01, 1.91228002e-01, 4.95465487e-01,
          4.95465487e-01, 4.22187030e-01, 9.83059034e-02, 4.78169888e-01,
          4.78169888e-01, 4.78169888e-01, 4.78169888e-01, 9.29400623e-02,
          1.58275843e-01, 1.55116126e-01, 1.14996769e-01, 1.42155187e-02,
          5.35935342e-01, 5.35935342e-01, 2.07134947e-01, 1.83365643e-01,
          4.20757644e-02, 5.35935342e-01, 2.32714862e-01, 1.76468585e-02,
          9.09468308e-02, 7.57664861e-03, 1.35032311e-02, 1.41129062e-01,
          4.86283273e-01, 2.39482835e-01, 4.86283273e-01, 4.86283273e-01,
          4.47155863e-01, 9.83059034e-02, 4.78169888e-01, 4.78169888e-01,
          4.78169888e-01, 4.78169888e-01, 9.29400623e-02, 1.58275843e-01,
          1.55116126e-01, 1.14996769e-01, 1.42155187e-02, 5.35935342e-01,
          5.35935342e-01, 2.07134947e-01, 1.83365643e-01, 4.20757644e-02,
          5.35935342e-01, 2.32714862e-01, 1.76468585e-02, 9.09468308e-02,
          7.57664861e-03, 1.35032311e-02, 1.41129062e-01, 4.86283273e-01,
          2.39482835e-01, 4.86283273e-01, 4.86283273e-01, 4.47155863e-01,
          1.41893461e-01, 2.95641005e-01, 4.54097748e-01, 3.95001113e-01,
          1.52602270e-01, 0., 2.99998939e-01, 4.54097748e-01,
          4.54097748e-01, 2.30641887e-02, 3.69166315e-01, 6.17126167e-01,
          6.17126167e-01, 2.09386647e-01, 7.58805079e-04, 1.73241973e-01,
          1.15532078e-01, 9.01631936e-02, 4.37403828e-01, 7.44850375e-03,
          5.19692488e-02, 2.98883945e-01, 4.37403828e-01, 4.87214327e-02,
          3.75209719e-01, 4.31764334e-01, 4.37403828e-01, 1.06287174e-01,
          4.92185019e-02, 1.73394337e-01, 4.68593389e-01, 7.00218379e-02,
          6.10014598e-04, 7.32190385e-02, 6.00157619e-01, 6.00157619e-01,
          2.65045702e-01, 1.21068858e-01, 4.61885124e-01, 4.61885124e-01,
          4.61885124e-01, 1.10076405e-02, 5.45577100e-03, 2.38698840e-01,
          4.61885124e-01, 7.07738101e-02, 1.57170948e-02, 2.76830792e-02,
          6.62061393e-01, 6.62061393e-01, 3.01116228e-01, 5.72540611e-02,
          4.38399203e-02, 1.21846437e-01, 4.61334251e-02, 6.12766929e-02,
          3.08085755e-02, 1.01394043e-03, 7.61076361e-02, 5.07221892e-02,
          4.82627571e-01, 6.10645175e-01, 6.10645175e-01, 4.59604934e-02,
          8.97775069e-02, 3.77455771e-01, 3.77455771e-01, 3.77455771e-01,
          3.62242341e-01, 3.77455771e-01, 3.77455771e-01, 3.77455771e-01,
          1.95709169e-02, 1.19043682e-02, 3.28792930e-01, 5.98702550e-01,
          3.72088432e-01, 9.32595506e-02, 1.53274700e-01, 5.58096349e-01,
          2.11744994e-01, 4.23511444e-03, 7.82744959e-03, 1.61877926e-02,
          2.08427399e-01, 4.95465487e-01, 1.91228002e-01, 4.95465487e-01,
          4.95465487e-01, 4.22187030e-01, 3.32690738e-02, 4.74316766e-03,
          1.59411028e-01, 3.26731026e-01, 3.42186987e-01, 1.64574742e-01,
          4.89095747e-01, 4.89095747e-01, 4.89095747e-01, 1.52462590e-02,
          1.96276978e-02, 2.36199349e-01, 4.46392059e-01, 3.77814054e-01,
          3.68083060e-01, 4.46392059e-01, 4.46392059e-01, 2.51211137e-01,
          9.09468308e-02, 7.57664861e-03, 1.35032311e-02, 1.41129062e-01,
          4.86283273e-01, 2.39482835e-01, 4.86283273e-01, 4.86283273e-01,
          4.47155863e-01, 4.30144936e-01, 0., 1.55746654e-01,
          1.13264546e-01, 4.30144936e-01, 1.83013335e-01, 4.30144936e-01,
          4.30144936e-01, 4.30144936e-01, 4.94004577e-01, 1.66553166e-02,
          1.67984236e-02, 3.41932662e-02, 1.00039437e-01, 8.46596956e-02,
          4.94004577e-01, 4.94004577e-01, 4.94004577e-01, 9.09468308e-02,
          7.57664861e-03, 1.35032311e-02, 1.41129062e-01, 4.86283273e-01,
          2.39482835e-01, 4.86283273e-01, 4.86283273e-01, 4.47155863e-01,
          4.30144936e-01, 0., 1.55746654e-01, 1.13264546e-01,
          4.30144936e-01, 1.83013335e-01, 4.30144936e-01, 4.30144936e-01,
          4.30144936e-01, 4.94004577e-01, 1.66553166e-02, 1.67984236e-02,
          3.41932662e-02, 1.00039437e-01, 8.46596956e-02, 4.94004577e-01,
          4.94004577e-01, 4.94004577e-01, 4.37403828e-01, 7.44850375e-03,
          5.19692488e-02, 2.98883945e-01, 4.37403828e-01, 4.87214327e-02,
          3.75209719e-01, 4.31764334e-01, 4.37403828e-01, 5.66152334e-01,
          0., 3.50191578e-04, 2.79960185e-02, 5.66152334e-01,
          1.35176763e-01, 1.31225083e-02, 1.16328083e-01, 5.66152334e-01,
          5.22624433e-01, 3.98751441e-03, 0., 5.66251464e-02,
          4.35849726e-01, 1.15099914e-01, 2.60439634e-01, 4.17425573e-01,
          5.22624433e-01, 7.07738101e-02, 1.57170948e-02, 2.76830792e-02,
          6.62061393e-01, 6.62061393e-01, 3.01116228e-01, 5.72540611e-02,
          4.38399203e-02, 1.21846437e-01, 1.45427614e-01, 3.37783620e-02,
          3.10579557e-02, 3.39889735e-01, 7.29595363e-01, 5.21819174e-01,
          1.19328529e-01, 5.82412519e-02, 1.78049833e-01, 4.24716473e-01,
          4.24716473e-01, 1.06240444e-01, 4.24716473e-01, 4.24716473e-01,
          4.24716473e-01, 1.74476430e-01, 1.87790781e-01, 1.29778340e-01 ]
      - [ 4.20858324e-01, 4.84293848e-01, 1.07168436e-01, 3.78657170e-02,
          1.35156646e-01, 4.84293848e-01, 4.84293848e-01, 4.42764759e-02,
          2.85084188e-01, 4.40948308e-01, 4.40948308e-01, 2.02264607e-01,
          2.72636935e-02, 9.92998779e-02, 4.40948308e-01, 2.22244695e-01,
          4.40948308e-01, 3.41974199e-01, 8.92655924e-02, 1.51391938e-01,
          2.88651492e-02, 1.61025971e-02, 4.40481901e-02, 7.17556402e-02,
          5.64297616e-01, 5.64297616e-01, 5.64297616e-01, 3.16356301e-01,
          4.43886817e-01, 4.43886817e-01, 1.38524041e-01, 2.94972628e-01,
          4.43886817e-01, 4.43886817e-01, 2.88949348e-02, 1.76112372e-02,
          3.42250347e-01, 4.10304397e-01, 4.10304397e-01, 2.37649083e-01,
          4.10304397e-01, 3.08047324e-01, 4.08500314e-01, 2.27716088e-01,
          6.01618104e-02, 1.21140070e-02, 1.80874187e-02, 1.79784037e-02,
          3.87102067e-02, 4.45702225e-01, 4.45702225e-01, 4.45702225e-01,
          4.45702225e-01, 4.45702225e-01, 4.35499698e-02, 4.36989069e-01,
          4.36989069e-01, 2.25284025e-01, 4.36989069e-01, 3.91956717e-01,
          4.36989069e-01, 1.55972928e-01, 3.44953872e-02, 2.89977472e-02,
          4.87031043e-01, 4.87031043e-01, 1.79022208e-01, 2.11460084e-01,
          2.25245163e-01, 4.87031043e-01, 3.90630633e-01, 5.10393642e-02,
          4.07392412e-01, 7.94109423e-03, 5.08372346e-03, 5.47402399e-03,
          4.07392412e-01, 4.07392412e-01, 4.07392412e-01, 4.07392412e-01,
          4.07392412e-01, 4.35499698e-02, 4.36989069e-01, 4.36989069e-01,
          2.25284025e-01, 4.36989069e-01, 3.91956717e-01, 4.36989069e-01,
          1.55972928e-01, 3.44953872e-02, 2.89977472e-02, 4.87031043e-01,
          4.87031043e-01, 1.79022208e-01, 2.11460084e-01, 2.25245163e-01,
          4.87031043e-01, 3.90630633e-01, 5.10393642e-02, 4.07392412e-01,
          7.94109423e-03, 5.08372346e-03, 5.47402399e-03, 4.07392412e-01,
          4.07392412e-01, 4.07392412e-01, 4.07392412e-01, 4.07392412e-01,
          6.41386360e-02, 4.10836279e-01, 4.10836279e-01, 4.10836279e-01,
          1.39558405e-01, 9.27396938e-02, 4.10836279e-01, 4.10836279e-01,
          3.46081972e-01, 9.59117413e-02, 4.49659556e-01, 4.49659556e-01,
          4.49659556e-01, 4.49659556e-01, 4.65316214e-02, 3.09140652e-01,
          2.24849403e-01, 1.71009392e-01, 5.08117259e-01, 5.32532576e-03,
          2.19942816e-02, 9.95899513e-02, 5.08117259e-01, 1.90061778e-01,
          2.79769152e-01, 3.09113771e-01, 5.08117259e-01, 4.58632596e-02,
          3.39688696e-02, 2.04245314e-01, 3.39515448e-01, 9.85985100e-02,
          7.96456560e-02, 3.62275183e-01, 5.85916758e-01, 5.85916758e-01,
          7.62503967e-02, 2.47823782e-02, 4.48305398e-01, 5.80161035e-01,
          5.80161035e-01, 1.62869185e-01, 5.36994189e-02, 1.56482950e-01,
          2.44398043e-01, 7.87270218e-02, 3.05543318e-02, 5.99696673e-02,
          5.82947433e-01, 6.20598912e-01, 4.63800848e-01, 1.16359696e-01,
          1.61925018e-01, 5.68743534e-02, 8.92655924e-02, 1.51391938e-01,
          2.88651492e-02, 1.61025971e-02, 4.40481901e-02, 7.17556402e-02,
          5.64297616e-01, 5.64297616e-01, 5.64297616e-01, 1.70880884e-01,
          1.79363921e-01, 4.46936429e-01, 4.46936429e-01, 4.28179055e-01,
          1.05258532e-01, 1.53915271e-01, 4.46936429e-01, 3.41761529e-01,
          1.75911505e-02, 4.75711152e-02, 5.92117548e-01, 5.92117548e-01,
          2.53092110e-01, 3.41225527e-02, 9.72249806e-02, 3.37523282e-01,
          3.18926543e-01, 1.21140070e-02, 1.80874187e-02, 1.79784037e-02,
          3.87102067e-02, 4.45702225e-01, 4.45702225e-01, 4.45702225e-01,
          4.45702225e-01, 4.45702225e-01, 1.40675530e-01, 1.99815422e-01,
          3.46600473e-01, 4.07304287e-01, 3.35647613e-01, 1.99591860e-01,
          4.07304287e-01, 4.07304287e-01, 4.07304287e-01, 1.73892722e-01,
          4.25361395e-01, 4.25361395e-01, 4.25361395e-01, 4.25361395e-01,
          4.32397500e-02, 2.98845768e-01, 2.45038703e-01, 3.00932944e-01,
          4.07392412e-01, 7.94109423e-03, 5.08372346e-03, 5.47402399e-03,
          4.07392412e-01, 4.07392412e-01, 4.07392412e-01, 4.07392412e-01,
          4.07392412e-01, 6.31156802e-01, 3.21099222e-01, 7.70961344e-02,
          1.24044850e-01, 1.53681874e-01, 9.99924392e-02, 1.60977393e-01,
          1.14081390e-01, 6.31156802e-01, 6.46147311e-01, 2.84775227e-01,
          9.50158611e-02, 2.53659599e-02, 9.00468975e-03, 9.49668605e-03,
          1.18569113e-01, 2.31383160e-01, 6.46147311e-01, 4.07392412e-01,
          7.94109423e-03, 5.08372346e-03, 5.47402399e-03, 4.07392412e-01,
          4.07392412e-01, 4.07392412e-01, 4.07392412e-01, 4.07392412e-01,
          6.31156802e-01, 3.21099222e-01, 7.70961344e-02, 1.24044850e-01,
          1.53681874e-01, 9.99924392e-02, 1.60977393e-01, 1.14081390e-01,
          6.31156802e-01, 6.46147311e-01, 2.84775227e-01, 9.50158611e-02,
          2.53659599e-02, 9.00468975e-03, 9.49668605e-03, 1.18569113e-01,
          2.31383160e-01, 6.46147311e-01, 5.08117259e-01, 5.32532576e-03,
          2.19942816e-02, 9.95899513e-02, 5.08117259e-01, 1.90061778e-01,
          2.79769152e-01, 3.09113771e-01, 5.08117259e-01, 5.59379041e-01,
          2.19521075e-02, 4.22408059e-02, 1.48023486e-01, 5.59379041e-01,
          1.77291200e-01, 1.24312914e-03, 9.40174982e-03, 5.59379041e-01,
          4.16893631e-01, 2.32720286e-01, 7.78536201e-02, 9.19494852e-02,
          4.16893631e-01, 3.23968589e-01, 4.16893631e-01, 3.56376171e-01,
          4.16893631e-01, 7.87270218e-02, 3.05543318e-02, 5.99696673e-02,
          5.82947433e-01, 6.20598912e-01, 4.63800848e-01, 1.16359696e-01,
          1.61925018e-01, 5.68743534e-02, 4.67433095e-01, 3.92866433e-01,
          2.04365522e-01, 5.05867183e-01, 5.15979707e-01, 2.23032132e-01,
          6.54012859e-02, 5.16458601e-02, 3.76744270e-02, 4.63600308e-01,
          4.63600308e-01, 2.28006393e-01, 2.31453970e-01, 4.63600308e-01,
          4.63600308e-01, 1.09336749e-01, 9.62626338e-02, 9.42845643e-02 ]
      - [ 3.82747829e-01, 5.12244940e-01, 3.82032812e-01, 4.41136584e-02,
          1.29687577e-01, 5.12244940e-01, 3.84666443e-01, 1.89211238e-02,
          1.02752335e-01, 4.00699556e-01, 4.16780204e-01, 3.60971928e-01,
          1.82938296e-02, 2.03671023e-01, 3.64043295e-01, 9.75424349e-02,
          4.16780204e-01, 4.16780204e-01, 1.21721640e-01, 1.44526005e-01,
          2.20313087e-01, 2.83704191e-01, 4.98175949e-01, 2.00050220e-01,
          2.13861555e-01, 4.98175949e-01, 4.98175949e-01, 3.04872841e-01,
          4.93183106e-01, 4.93183106e-01, 1.31809458e-01, 2.80475140e-01,
          4.21987414e-01, 3.75178784e-01, 2.56517828e-02, 1.17092887e-02,
          2.13383839e-01, 4.22491163e-01, 4.22491163e-01, 1.25321791e-01,
          4.21980590e-01, 1.22770160e-01, 1.65547937e-01, 4.22491163e-01,
          4.22491163e-01, 4.94149290e-02, 2.18667034e-02, 1.91631317e-02,
          1.28616929e-01, 4.55927551e-01, 2.78609604e-01, 3.62017334e-01,
          5.28367341e-01, 5.28367341e-01, 9.68912989e-02, 4.83611345e-01,
          4.83611345e-01, 4.83611345e-01, 4.83611345e-01, 1.36468142e-01,
          1.58144638e-01, 7.02603161e-02, 4.11387496e-02, 9.84676182e-03,
          4.28710550e-01, 4.28710550e-01, 2.41748333e-01, 4.28710550e-01,
          1.34449586e-01, 4.28710550e-01, 4.28710550e-01, 1.17448624e-02,
          1.64989680e-01, 7.23414496e-03, 2.69177873e-02, 2.09880352e-01,
          4.55139607e-01, 4.55139607e-01, 4.55139607e-01, 4.55139607e-01,
          3.07891846e-01, 9.68912989e-02, 4.83611345e-01, 4.83611345e-01,
          4.83611345e-01, 4.83611345e-01, 1.36468142e-01, 1.58144638e-01,
          7.02603161e-02, 4.11387496e-02, 9.84676182e-03, 4.28710550e-01,
          4.28710550e-01, 2.41748333e-01, 4.28710550e-01, 1.34449586e-01,
          4.28710550e-01, 4.28710550e-01, 1.17448624e-02, 1.64989680e-01,
          7.23414496e-03, 2.69177873e-02, 2.09880352e-01, 4.55139607e-01,
          4.55139607e-01, 4.55139607e-01, 4.55139607e-01, 3.07891846e-01,
          1.81289032e-01, 2.54864693e-01, 4.34813797e-01, 4.34813797e-01,
          6.68222681e-02, 2.02546585e-02, 3.69739503e-01, 4.34813797e-01,
          4.34813797e-01, 4.56943773e-02, 4.20362741e-01, 5.73411345e-01,
          5.73411345e-01, 1.96330681e-01, 5.64852031e-03, 1.76596031e-01,
          2.82511353e-01, 9.11246613e-02, 4.50372070e-01, 3.02298032e-02,
          6.59463927e-02, 1.43411472e-01, 4.50372070e-01, 1.91465765e-02,
          3.97448182e-01, 4.50372070e-01, 4.50372070e-01, 5.95458448e-02,
          2.97781024e-02, 1.61836073e-01, 4.83666480e-01, 5.64943962e-02,
          1.38917062e-02, 9.01360065e-02, 5.99146008e-01, 5.99146008e-01,
          1.79046288e-01, 2.06589952e-01, 4.78027791e-01, 4.78027791e-01,
          4.78027791e-01, 2.79509015e-02, 1.50888842e-02, 2.47620285e-01,
          4.15490031e-01, 1.33197442e-01, 2.37415042e-02, 9.62305292e-02,
          6.84126377e-01, 6.84126377e-01, 1.31367147e-01, 3.25378031e-02,
          3.49474438e-02, 1.00048296e-01, 1.21721640e-01, 1.44526005e-01,
          2.20313087e-01, 2.83704191e-01, 4.98175949e-01, 2.00050220e-01,
          2.13861555e-01, 4.98175949e-01, 4.98175949e-01, 1.00748107e-01,
          1.11974932e-01, 4.65442747e-01, 4.65442747e-01, 4.65442747e-01,
          1.70829549e-01, 1.45762473e-01, 4.65442747e-01, 2.35977143e-01,
          1.17126396e-02, 1.34450505e-02, 3.04249078e-01, 6.51606977e-01,
          3.78167003e-01, 8.19234550e-02, 9.72614065e-02, 5.21970153e-01,
          2.10672751e-01, 4.94149290e-02, 2.18667034e-02, 1.91631317e-02,
          1.28616929e-01, 4.55927551e-01, 2.78609604e-01, 3.62017334e-01,
          5.28367341e-01, 5.28367341e-01, 1.08656809e-01, 8.57941732e-02,
          2.65600324e-01, 3.99849325e-01, 3.86908561e-01, 3.42167705e-01,
          3.99849325e-01, 3.99849325e-01, 3.99849325e-01, 2.08071023e-02,
          1.84814036e-02, 4.01397526e-01, 4.01397526e-01, 4.01397526e-01,
          4.01397526e-01, 4.01397526e-01, 4.01397526e-01, 1.68806925e-01,
          1.64989680e-01, 7.23414496e-03, 2.69177873e-02, 2.09880352e-01,
          4.55139607e-01, 4.55139607e-01, 4.55139607e-01, 4.55139607e-01,
          3.07891846e-01, 4.35821384e-01, 1.37412054e-02, 1.42901212e-01,
          9.48598459e-02, 4.35821384e-01, 2.18981877e-01, 3.97900075e-01,
          4.35821384e-01, 4.35821384e-01, 5.55798471e-01, 1.23919500e-02,
          1.07689267e-02, 1.01008462e-02, 4.40890454e-02, 1.33661553e-01,
          2.46786848e-01, 5.43637216e-01, 5.55798471e-01, 1.64989680e-01,
          7.23414496e-03, 2.69177873e-02, 2.09880352e-01, 4.55139607e-01,
          4.55139607e-01, 4.55139607e-01, 4.55139607e-01, 3.07891846e-01,
          4.35821384e-01, 1.37412054e-02, 1.42901212e-01, 9.48598459e-02,
          4.35821384e-01, 2.18981877e-01, 3.97900075e-01, 4.35821384e-01,
          4.35821384e-01, 5.55798471e-01, 1.23919500e-02, 1.07689267e-02,
          1.01008462e-02, 4.40890454e-02, 1.33661553e-01, 2.46786848e-01,
          5.43637216e-01, 5.55798471e-01, 4.50372070e-01, 3.02298032e-02,
          6.59463927e-02, 1.43411472e-01, 4.50372070e-01, 1.91465765e-02,
          3.97448182e-01, 4.50372070e-01, 4.50372070e-01, 5.73333204e-01,
          7.85497297e-03, 3.73755372e-03, 1.53765213e-02, 5.73333204e-01,
          8.60763565e-02, 7.18342792e-03, 1.92124434e-02, 5.73333204e-01,
          4.65588808e-01, 1.45421801e-02, 0., 2.08825786e-02,
          4.65588808e-01, 2.50052303e-01, 3.06539595e-01, 4.33463246e-01,
          4.65588808e-01, 1.33197442e-01, 2.37415042e-02, 9.62305292e-02,
          6.84126377e-01, 6.84126377e-01, 1.31367147e-01, 3.25378031e-02,
          3.49474438e-02, 1.00048296e-01, 2.01729134e-01, 3.77202444e-02,
          1.98857263e-02, 2.54577845e-01, 8.21415603e-01, 3.85865957e-01,
          1.66704774e-01, 1.15146853e-01, 1.40763462e-01, 4.55961227e-01,
          4.55961227e-01, 3.83164398e-02, 3.59657556e-01, 4.55961227e-01,
          4.55961227e-01, 1.10801533e-01, 1.05672494e-01, 9.78649333e-02 ]
      - [ 4.98855203e-01, 4.98855203e-01, 4.98855203e-01, 4.88257498e-01,
          5.12226745e-02, 2.72701811e-02, 3.90829239e-03, 2.42172033e-02,
          7.79970959e-02, 5.27427912e-01, 4.63056624e-01, 2.81251311e-01,
          3.67553622e-01, 2.51425087e-01, 2.06589043e-01, 2.81136364e-01,
          2.13888586e-01, 2.39277050e-01, 4.15763080e-01, 1.95733279e-01,
          8.41623843e-02, 2.11206600e-01, 2.52267569e-01, 4.37567919e-01,
          4.42491025e-01, 4.42491025e-01, 2.93286502e-01, 5.27555645e-01,
          5.27555645e-01, 5.27555645e-01, 3.48419815e-01, 9.31626186e-02,
          4.28190976e-02, 7.17715407e-03, 5.78476675e-02, 1.56459272e-01,
          4.31292295e-01, 3.08115900e-01, 3.44334930e-01, 4.31292295e-01,
          1.44870788e-01, 4.73700203e-02, 1.22091196e-01, 4.31292295e-01,
          4.31292295e-01, 4.52471256e-01, 1.99520022e-01, 1.43843755e-01,
          8.85287896e-02, 9.94775221e-02, 3.13571304e-01, 4.52471256e-01,
          4.52471256e-01, 4.52471256e-01, 5.56980610e-01, 5.56980610e-01,
          5.56980610e-01, 1.29672274e-01, 4.34194803e-02, 4.45756763e-02,
          1.65630374e-02, 3.54429074e-02, 2.03808680e-01, 4.42810833e-01,
          2.21216470e-01, 1.92768425e-01, 1.02805138e-01, 4.42810833e-01,
          4.42810833e-01, 1.99039340e-01, 2.73804814e-01, 4.42810833e-01,
          3.56112927e-01, 1.20342456e-01, 5.53321876e-02, 9.85587090e-02,
          5.25078297e-01, 2.97075510e-01, 2.67594069e-01, 4.20460165e-01,
          4.77836370e-01, 5.56980610e-01, 5.56980610e-01, 5.56980610e-01,
          1.29672274e-01, 4.34194803e-02, 4.45756763e-02, 1.65630374e-02,
          3.54429074e-02, 2.03808680e-01, 4.42810833e-01, 2.21216470e-01,
          1.92768425e-01, 1.02805138e-01, 4.42810833e-01, 4.42810833e-01,
          1.99039340e-01, 2.73804814e-01, 4.42810833e-01, 3.56112927e-01,
          1.20342456e-01, 5.53321876e-02, 9.85587090e-02, 5.25078297e-01,
          2.97075510e-01, 2.67594069e-01, 4.20460165e-01, 4.77836370e-01,
          2.18427107e-01, 6.23184979e-01, 2.71464467e-01, 7.57559016e-02,
          2.71360666e-01, 6.23184979e-01, 1.26401231e-01, 2.86592636e-03,
          1.71596762e-02, 1.87730640e-01, 5.45740485e-01, 3.30392234e-02,
          4.31915186e-02, 5.45740485e-01, 5.45740485e-01, 2.50633180e-01,
          5.72412414e-03, 1.56964979e-03, 2.37619177e-01, 3.36375475e-01,
          5.79573065e-02, 2.95196623e-01, 5.98610640e-01, 4.64650303e-01,
          1.42000496e-01, 2.08340615e-01, 3.10011059e-01, 2.60030985e-01,
          5.51414073e-01, 5.61546795e-02, 1.19532933e-02, 8.97492245e-02,
          5.51414073e-01, 5.51414073e-01, 5.77345975e-02, 4.52830922e-03,
          1.12255469e-01, 5.36077082e-01, 5.36077082e-01, 1.14042409e-01,
          2.67343223e-01, 5.36077082e-01, 1.86880618e-01, 1.96855720e-02,
          1.09195104e-02, 2.85007983e-01, 3.52318972e-01, 3.52318972e-01,
          3.52318972e-01, 3.52318972e-01, 2.15289935e-01, 3.52318972e-01,
          3.52318972e-01, 3.52318972e-01, 4.15763080e-01, 1.95733279e-01,
          8.41623843e-02, 2.11206600e-01, 2.52267569e-01, 4.37567919e-01,
          4.42491025e-01, 4.42491025e-01, 2.93286502e-01, 3.16466004e-01,
          1.83759704e-02, 9.94766876e-03, 3.94898430e-02, 6.95000216e-02,
          4.28051382e-01, 4.84751940e-01, 4.84751940e-01, 4.84751940e-01,
          3.69398952e-01, 0., 0., 0., 6.80108070e-02, 4.16556090e-01,
          4.76320088e-01, 4.76320088e-01, 4.76320088e-01, 4.52471256e-01,
          1.99520022e-01, 1.43843755e-01, 8.85287896e-02, 9.94775221e-02,
          3.13571304e-01, 4.52471256e-01, 4.52471256e-01, 4.52471256e-01,
          2.73603052e-01, 2.67293956e-02, 3.69212143e-02, 3.53418216e-02,
          1.68538675e-01, 3.67031991e-01, 5.01228809e-01, 5.01228809e-01,
          5.01228809e-01, 4.78955060e-02, 2.57455860e-03, 7.72367651e-03,
          0., 6.14271872e-02, 3.22266966e-01, 5.43012500e-01,
          5.43012500e-01, 5.43012500e-01, 3.56112927e-01, 1.20342456e-01,
          5.53321876e-02, 9.85587090e-02, 5.25078297e-01, 2.97075510e-01,
          2.67594069e-01, 4.20460165e-01, 4.77836370e-01, 1.69700354e-01,
          2.96707191e-02, 7.37531343e-03, 1.58183247e-01, 4.61322606e-01,
          2.98936605e-01, 4.61322606e-01, 4.61322606e-01, 4.61322606e-01,
          1.01417974e-01, 5.04559558e-03, 1.49842724e-03, 2.59137213e-01,
          4.68197405e-01, 2.02540994e-01, 4.68197405e-01, 4.68197405e-01,
          4.68197405e-01, 3.56112927e-01, 1.20342456e-01, 5.53321876e-02,
          9.85587090e-02, 5.25078297e-01, 2.97075510e-01, 2.67594069e-01,
          4.20460165e-01, 4.77836370e-01, 1.69700354e-01, 2.96707191e-02,
          7.37531343e-03, 1.58183247e-01, 4.61322606e-01, 2.98936605e-01,
          4.61322606e-01, 4.61322606e-01, 4.61322606e-01, 1.01417974e-01,
          5.04559558e-03, 1.49842724e-03, 2.59137213e-01, 4.68197405e-01,
          2.02540994e-01, 4.68197405e-01, 4.68197405e-01, 4.68197405e-01,
          2.37619177e-01, 3.36375475e-01, 5.79573065e-02, 2.95196623e-01,
          5.98610640e-01, 4.64650303e-01, 1.42000496e-01, 2.08340615e-01,
          3.10011059e-01, 2.68312898e-02, 7.01061711e-02, 1.61971197e-01,
          5.58759749e-01, 5.58759749e-01, 2.47203439e-01, 1.47533461e-01,
          4.38317269e-01, 2.51253396e-01, 1.60586962e-03, 7.35508875e-05,
          1.63039535e-01, 5.52640617e-01, 5.52640617e-01, 1.05346806e-01,
          1.04666613e-01, 5.52640617e-01, 1.72072381e-01, 2.85007983e-01,
          3.52318972e-01, 3.52318972e-01, 3.52318972e-01, 3.52318972e-01,
          2.15289935e-01, 3.52318972e-01, 3.52318972e-01, 3.52318972e-01,
          1.55268043e-01, 2.37824276e-01, 3.61686140e-01, 3.61686140e-01,
          3.61686140e-01, 3.61686140e-01, 3.61686140e-01, 3.61686140e-01,
          3.61686140e-01, 1.50064174e-02, 2.93954313e-02, 1.51453093e-01,
          5.96724033e-01, 2.25779235e-01, 1.95466727e-01, 3.86180758e-01,
          5.96724033e-01, 1.39771640e-01 ]
      - [ 4.28272963e-01, 4.28272963e-01, 4.28272963e-01, 4.28272963e-01,
          4.28272963e-01, 2.91491188e-02, 2.65859738e-02, 2.30419636e-03,
          2.77617216e-01, 2.06089675e-01, 3.61853749e-01, 4.90340620e-01,
          2.03647763e-01, 6.42168075e-02, 4.90340620e-01, 4.90340620e-01,
          2.32899964e-01, 2.34751739e-02, 3.52801472e-01, 4.69798177e-01,
          2.14048438e-02, 2.87302732e-02, 4.69798177e-01, 4.69798177e-01,
          4.52802271e-01, 3.90850678e-02, 2.94357575e-02, 4.38376576e-01,
          3.77580315e-01, 4.38376576e-01, 4.38376576e-01, 4.38376576e-01,
          1.28165614e-02, 3.71869616e-02, 2.63042524e-02, 2.86564052e-01,
          5.04562616e-01, 4.06973928e-01, 1.37399226e-01, 9.66846347e-02,
          6.70119748e-02, 5.04562616e-01, 5.04562616e-01, 1.81038216e-01,
          9.53155197e-03, 4.66283262e-01, 4.76900011e-01, 2.52615154e-01,
          5.78771755e-02, 1.34498864e-01, 4.76900011e-01, 4.76900011e-01,
          9.95332077e-02, 1.88351423e-02, 3.95655423e-01, 3.95655423e-01,
          3.95655423e-01, 3.95655423e-01, 3.95655423e-01, 3.07625346e-02,
          1.64197311e-01, 1.69943810e-01, 3.95655423e-01, 4.21631962e-01,
          4.01471019e-01, 1.92525879e-01, 9.01806206e-02, 1.45965770e-01,
          4.21631962e-01, 4.21631962e-01, 4.21631962e-01, 2.38768563e-01,
          2.45181829e-01, 1.94179103e-01, 1.72141582e-01, 1.58780888e-01,
          1.09914161e-01, 5.18562019e-01, 5.18562019e-01, 5.18562019e-01,
          1.52828872e-01, 3.95655423e-01, 3.95655423e-01, 3.95655423e-01,
          3.95655423e-01, 3.95655423e-01, 3.07625346e-02, 1.64197311e-01,
          1.69943810e-01, 3.95655423e-01, 4.21631962e-01, 4.01471019e-01,
          1.92525879e-01, 9.01806206e-02, 1.45965770e-01, 4.21631962e-01,
          4.21631962e-01, 4.21631962e-01, 2.38768563e-01, 2.45181829e-01,
          1.94179103e-01, 1.72141582e-01, 1.58780888e-01, 1.09914161e-01,
          5.18562019e-01, 5.18562019e-01, 5.18562019e-01, 1.52828872e-01,
          4.84813064e-01, 4.84813064e-01, 3.51312727e-01, 1.78820677e-02,
          5.33966068e-03, 2.75123236e-03, 1.80028185e-01, 3.65841299e-01,
          4.84813064e-01, 5.44659011e-02, 3.79374288e-02, 3.66157992e-03,
          1.40155792e-01, 4.28659260e-01, 1.10810578e-01, 5.08210480e-01,
          5.08210480e-01, 5.08210480e-01, 2.14731842e-02, 7.95066357e-03,
          1.92706531e-03, 7.84198940e-02, 3.86941850e-01, 9.43054706e-02,
          5.25817990e-01, 5.25817990e-01, 5.25817990e-01, 1.32532954e-01,
          2.77806409e-02, 3.64464708e-02, 1.40418172e-01, 1.12498276e-01,
          7.91608766e-02, 6.06640100e-01, 6.06640100e-01, 4.46781456e-01,
          5.39218485e-02, 0., 0., 4.01736461e-02, 4.21750128e-01,
          5.63564152e-02, 5.19372165e-01, 5.19372165e-01, 5.19372165e-01,
          1.04040630e-01, 7.32913315e-02, 1.10871680e-01, 3.76609229e-02,
          4.90541041e-01, 5.16871735e-02, 4.90541041e-01, 4.90541041e-01,
          4.90541041e-01, 3.52801472e-01, 4.69798177e-01, 2.14048438e-02,
          2.87302732e-02, 4.69798177e-01, 4.69798177e-01, 4.52802271e-01,
          3.90850678e-02, 2.94357575e-02, 4.44376081e-01, 4.48664337e-01,
          5.69511876e-02, 5.53917661e-02, 4.85638142e-01, 4.85638142e-01,
          1.47372320e-01, 7.24481493e-02, 3.02344143e-01, 3.70165706e-01,
          1.76455677e-01, 5.40279485e-02, 4.25545186e-01, 4.25545186e-01,
          4.25545186e-01, 1.42202199e-01, 2.83009946e-01, 4.25545186e-01,
          4.66283262e-01, 4.76900011e-01, 2.52615154e-01, 5.78771755e-02,
          1.34498864e-01, 4.76900011e-01, 4.76900011e-01, 9.95332077e-02,
          1.88351423e-02, 3.36369246e-01, 3.53914440e-01, 3.53914440e-01,
          3.53914440e-01, 3.53914440e-01, 3.53914440e-01, 8.08194056e-02,
          3.53914440e-01, 3.53914440e-01, 1.34984478e-01, 2.93899357e-01,
          2.73391783e-01, 3.80088300e-01, 3.63764763e-01, 3.26601684e-01,
          3.80088300e-01, 3.80088300e-01, 3.80088300e-01, 2.45181829e-01,
          1.94179103e-01, 1.72141582e-01, 1.58780888e-01, 1.09914161e-01,
          5.18562019e-01, 5.18562019e-01, 5.18562019e-01, 1.52828872e-01,
          2.02870592e-01, 1.00096650e-01, 4.49431479e-01, 4.49431479e-01,
          2.68630654e-01, 1.86649382e-01, 1.71405673e-01, 4.49431479e-01,
          4.49431479e-01, 3.68936181e-01, 2.37754256e-01, 1.52691558e-01,
          3.15893978e-01, 3.68936181e-01, 3.68936181e-01, 3.68936181e-01,
          3.68936181e-01, 3.68936181e-01, 2.45181829e-01, 1.94179103e-01,
          1.72141582e-01, 1.58780888e-01, 1.09914161e-01, 5.18562019e-01,
          5.18562019e-01, 5.18562019e-01, 1.52828872e-01, 2.02870592e-01,
          1.00096650e-01, 4.49431479e-01, 4.49431479e-01, 2.68630654e-01,
          1.86649382e-01, 1.71405673e-01, 4.49431479e-01, 4.49431479e-01,
          3.68936181e-01, 2.37754256e-01, 1.52691558e-01, 3.15893978e-01,
          3.68936181e-01, 3.68936181e-01, 3.68936181e-01, 3.68936181e-01,
          3.68936181e-01, 2.14731842e-02, 7.95066357e-03, 1.92706531e-03,
          7.84198940e-02, 3.86941850e-01, 9.43054706e-02, 5.25817990e-01,
          5.25817990e-01, 5.25817990e-01, 3.67562592e-01, 3.82716566e-01,
          3.88699353e-01, 3.88699353e-01, 3.88699353e-01, 2.56136566e-01,
          3.18378448e-01, 2.57524759e-01, 1.67306259e-01, 3.44498605e-01,
          3.44498605e-01, 3.02843571e-01, 3.44498605e-01, 3.44498605e-01,
          3.44498605e-01, 3.28172952e-01, 2.91668832e-01, 3.44498605e-01,
          1.04040630e-01, 7.32913315e-02, 1.10871680e-01, 3.76609229e-02,
          4.90541041e-01, 5.16871735e-02, 4.90541041e-01, 4.90541041e-01,
          4.90541041e-01, 2.56177843e-01, 2.05068469e-01, 4.52332973e-01,
          3.71844232e-01, 6.86603859e-02, 3.90610732e-02, 3.59830648e-01,
          4.52332973e-01, 4.52332973e-01, 3.75659168e-01, 3.75659168e-01,
          3.75659168e-01, 3.75659168e-01, 3.19008738e-01, 2.29945749e-01,
          2.28595495e-01, 3.16863358e-01, 3.52800161e-01 ]
      - [ 3.92319053e-01, 4.74977583e-01, 2.55065978e-01, 9.09613147e-02,
          2.50084698e-01, 4.74977583e-01, 4.74977583e-01, 1.28086910e-01,
          1.10677160e-01, 4.14898723e-01, 4.14898723e-01, 2.20834523e-01,
          2.26865038e-02, 3.03739756e-01, 4.05071020e-01, 4.08492200e-02,
          4.14898723e-01, 4.14898723e-01, 4.56355736e-02, 1.61473438e-01,
          2.51053810e-01, 4.53147382e-01, 4.53147382e-01, 2.75962442e-01,
          8.22435394e-02, 4.53147382e-01, 4.53147382e-01, 2.16303185e-01,
          5.42481005e-01, 5.42481005e-01, 1.89097166e-01, 2.45869488e-01,
          3.65836710e-01, 3.57479602e-01, 3.29451039e-02, 1.73529331e-02,
          1.23175390e-01, 4.64175522e-01, 4.64175522e-01, 1.33533657e-01,
          2.65289932e-01, 5.48915192e-02, 1.64719954e-01, 4.64175522e-01,
          4.64175522e-01, 5.03150150e-02, 8.14513788e-02, 4.04357798e-02,
          1.87510312e-01, 3.13751012e-01, 2.10791647e-01, 4.43128854e-01,
          5.51947057e-01, 5.51947057e-01, 6.20520413e-02, 4.50860471e-01,
          4.50860471e-01, 4.50860471e-01, 4.50860471e-01, 4.12186980e-01,
          8.24397355e-02, 4.18404974e-02, 1.00232577e-02, 1.44302733e-02,
          2.72138506e-01, 4.39850807e-01, 4.39850807e-01, 3.57078314e-01,
          1.65940553e-01, 4.39850807e-01, 4.29951519e-01, 3.21415514e-02,
          1.90200686e-01, 1.59275327e-02, 9.39238816e-03, 2.30452314e-01,
          4.33497906e-01, 4.33497906e-01, 4.33497906e-01, 4.33497906e-01,
          3.92888784e-01, 6.20520413e-02, 4.50860471e-01, 4.50860471e-01,
          4.50860471e-01, 4.50860471e-01, 4.12186980e-01, 8.24397355e-02,
          4.18404974e-02, 1.00232577e-02, 1.44302733e-02, 2.72138506e-01,
          4.39850807e-01, 4.39850807e-01, 3.57078314e-01, 1.65940553e-01,
          4.39850807e-01, 4.29951519e-01, 3.21415514e-02, 1.90200686e-01,
          1.59275327e-02, 9.39238816e-03, 2.30452314e-01, 4.33497906e-01,
          4.33497906e-01, 4.33497906e-01, 4.33497906e-01, 3.92888784e-01,
          1.01923145e-01, 3.93800348e-01, 4.75705117e-01, 3.89790565e-01,
          1.32328928e-01, 4.84373122e-02, 2.67984748e-01, 4.75705117e-01,
          3.65487814e-01, 9.44596156e-02, 4.35658932e-01, 5.08404613e-01,
          5.08404613e-01, 1.68955430e-01, 3.40364873e-03, 3.88970554e-01,
          2.56192207e-01, 1.83740765e-01, 4.87042665e-01, 2.59752609e-02,
          3.98647301e-02, 1.10702112e-01, 4.35819298e-01, 7.00696483e-02,
          4.06459272e-01, 3.82280290e-01, 4.87042665e-01, 6.91966861e-02,
          3.90932560e-02, 1.80093095e-01, 4.54922587e-01, 7.87005201e-02,
          3.89649160e-03, 1.28780663e-01, 6.02282465e-01, 6.02282465e-01,
          1.44707069e-01, 1.12326600e-01, 5.42367816e-01, 5.42367816e-01,
          5.42367816e-01, 2.17976961e-02, 2.50235740e-02, 1.58338204e-01,
          2.28835002e-01, 1.08625434e-01, 2.11932007e-02, 6.86908364e-02,
          6.33152902e-01, 6.33152902e-01, 4.10623550e-01, 2.82230265e-02,
          3.89852724e-03, 7.43158981e-02, 4.56355736e-02, 1.61473438e-01,
          2.51053810e-01, 4.53147382e-01, 4.53147382e-01, 2.75962442e-01,
          8.22435394e-02, 4.53147382e-01, 4.53147382e-01, 1.99515566e-01,
          1.10054530e-01, 5.20789444e-01, 5.20789444e-01, 5.20789444e-01,
          5.28590158e-02, 1.20771453e-01, 2.61300594e-01, 2.08705053e-01,
          3.00623365e-02, 7.70318927e-03, 3.88758272e-01, 6.51395023e-01,
          2.60164350e-01, 1.70294084e-02, 5.53999804e-02, 5.22196710e-01,
          2.70833999e-01, 5.03150150e-02, 8.14513788e-02, 4.04357798e-02,
          1.87510312e-01, 3.13751012e-01, 2.10791647e-01, 4.43128854e-01,
          5.51947057e-01, 5.51947057e-01, 1.67508930e-01, 1.78661257e-01,
          4.31075186e-01, 4.31075186e-01, 2.50476122e-01, 1.81176394e-01,
          3.11204523e-01, 4.31075186e-01, 4.31075186e-01, 2.83787791e-02,
          4.43038493e-02, 4.76266533e-01, 4.76266533e-01, 2.89086580e-01,
          2.83017009e-01, 3.87685448e-01, 3.84030253e-01, 2.78148025e-01,
